{
  "in_shape": [
    null,
    null,
    1
  ],
  "layers": [
    {
      "activation": "tanh",
      "dilation": [
        1
      ],
      "groups": 1,
      "input_size": 1,
      "kernel_size": [
        3
      ],
      "output_size": 6,
      "shape": [
        null,
        null,
        6
      ],
      "type": "conv1d",
      "weights": [
        [
          [
            [
              -0.026000000536441803,
              -0.02294117584824562,
              -0.019882353022694588,
              -0.016823530197143555,
              -0.013764705508947372,
              -0.01070588268339634
            ]
          ],
          [
            [
              -0.007647058926522732,
              -0.004588235169649124,
              -0.001529411762021482,
              0.001529411762021482,
              0.004588235169649124,
              0.007647058926522732
            ]
          ],
          [
            [
              0.01070588268339634,
              0.013764705508947372,
              0.016823530197143555,
              0.019882353022694588,
              0.02294117584824562,
              0.026000000536441803
            ]
          ]
        ],
        [
          -0.007499999832361937,
          -0.0044999998062849045,
          -0.001500000013038516,
          0.001500000013038516,
          0.0044999998062849045,
          0.007499999832361937
        ]
      ]
    },
    {
      "activation": "tanh",
      "hidden_size": 10,
      "input_size": 6,
      "shape": [
        null,
        null,
        10
      ],
      "type": "gru",
      "weights": [
        [
          [
            -0.029999999329447746,
            -0.02966480515897274,
            -0.029329609125852585,
            -0.02899441309273243,
            -0.028659217059612274,
            -0.028324022889137268,
            -0.027988826856017113,
            -0.027653630822896957,
            -0.02731843665242195,
            -0.026983240619301796,
            -0.02664804458618164,
            -0.026312848553061485,
            -0.02597765438258648,
            -0.025642458349466324,
            -0.02530726231634617,
            -0.024972066283226013,
            -0.024636872112751007,
            -0.024301676079630852,
            -0.023966480046510696,
            -0.02363128401339054,
            -0.023296089842915535,
            -0.02296089380979538,
            -0.022625697776675224,
            -0.022290503606200218,
            -0.021955307573080063,
            -0.021620111539959908,
            -0.021284915506839752,
            -0.020949721336364746,
            -0.02061452530324459,
            -0.020279329270124435
          ],
          [
            -0.01994413323700428,
            -0.019608939066529274,
            -0.01927374303340912,
            -0.018938547000288963,
            -0.018603352829813957,
            -0.018268156796693802,
            -0.017932960763573647,
            -0.01759776473045349,
            -0.017262570559978485,
            -0.01692737452685833,
            -0.016592178493738174,
            -0.01625698246061802,
            -0.015921788290143013,
            -0.015586592257022858,
            -0.015251396223902702,
            -0.014916201122105122,
            -0.014581006020307541,
            -0.014245809987187386,
            -0.013910614885389805,
            -0.01357541885226965,
            -0.013240223750472069,
            -0.012905027717351913,
            -0.012569832615554333,
            -0.012234636582434177,
            -0.011899441480636597,
            -0.011564245447516441,
            -0.01122905034571886,
            -0.010893854312598705,
            -0.010558659210801125,
            -0.010223464109003544
          ],
          [
            -0.009888268075883389,
            -0.009553072974085808,
            -0.009217876940965652,
            -0.008882681839168072,
            -0.008547485806047916,
            -0.008212290704250336,
            -0.00787709467113018,
            -0.0075418995693326,
            -0.007206704001873732,
            -0.006871508434414864,
            -0.0065363128669559956,
            -0.0062011172994971275,
            -0.0058659217320382595,
            -0.0055307261645793915,
            -0.0051955305971205235,
            -0.004860335029661655,
            -0.004525139462202787,
            -0.004189944360405207,
            -0.003854748560115695,
            -0.003519552992656827,
            -0.0031843576580286026,
            -0.0028491620905697346,
            -0.0025139665231108665,
            -0.0021787709556519985,
            -0.0018435753881931305,
            -0.0015083799371495843,
            -0.0011731843696907163,
            -0.0008379888022318482,
            -0.0005027932929806411,
            -0.00016759776917751878
          ],
          [
            0.00016759776917751878,
            0.0005027932929806411,
            0.0008379888022318482,
            0.0011731843696907163,
            0.0015083799371495843,
            0.0018435753881931305,
            0.0021787709556519985,
            0.0025139665231108665,
            0.0028491620905697346,
            0.0031843576580286026,
            0.003519552992656827,
            0.003854748560115695,
            0.004189944360405207,
            0.004525139462202787,
            0.004860335029661655,
            0.0051955305971205235,
            0.0055307261645793915,
            0.0058659217320382595,
            0.0062011172994971275,
            0.0065363128669559956,
            0.006871508434414864,
            0.007206704001873732,
            0.0075418995693326,
            0.00787709467113018,
            0.008212290704250336,
            0.008547485806047916,
            0.008882681839168072,
            0.009217876940965652,
            0.009553072974085808,
            0.009888268075883389
          ],
          [
            0.010223464109003544,
            0.010558659210801125,
            0.010893854312598705,
            0.01122905034571886,
            0.011564245447516441,
            0.011899441480636597,
            0.012234636582434177,
            0.012569832615554333,
            0.012905027717351913,
            0.013240223750472069,
            0.01357541885226965,
            0.013910614885389805,
            0.014245809987187386,
            0.014581006020307541,
            0.014916201122105122,
            0.015251396223902702,
            0.015586592257022858,
            0.015921788290143013,
            0.01625698246061802,
            0.016592178493738174,
            0.01692737452685833,
            0.017262570559978485,
            0.01759776473045349,
            0.017932960763573647,
            0.018268156796693802,
            0.018603352829813957,
            0.018938547000288963,
            0.01927374303340912,
            0.019608939066529274,
            0.01994413323700428
          ],
          [
            0.020279329270124435,
            0.02061452530324459,
            0.020949721336364746,
            0.021284915506839752,
            0.021620111539959908,
            0.021955307573080063,
            0.022290503606200218,
            0.022625697776675224,
            0.02296089380979538,
            0.023296089842915535,
            0.02363128401339054,
            0.023966480046510696,
            0.024301676079630852,
            0.024636872112751007,
            0.024972066283226013,
            0.02530726231634617,
            0.025642458349466324,
            0.02597765438258648,
            0.026312848553061485,
            0.02664804458618164,
            0.026983240619301796,
            0.02731843665242195,
            0.027653630822896957,
            0.027988826856017113,
            0.028324022889137268,
            0.028659217059612274,
            0.02899441309273243,
            0.029329609125852585,
            0.02966480515897274,
            0.029999999329447746
          ]
        ],
        [
          [
            -0.03400000184774399,
            -0.03377257660031319,
            -0.033545151352882385,
            -0.033317726105451584,
            -0.03309030085802078,
            -0.03286287561058998,
            -0.03263545036315918,
            -0.03240802511572838,
            -0.032180603593587875,
            -0.031953178346157074,
            -0.03172575309872627,
            -0.03149832785129547,
            -0.03127090260386467,
            -0.03104347735643387,
            -0.030816053971648216,
            -0.030588628724217415,
            -0.030361203476786613,
            -0.03013378009200096,
            -0.02990635484457016,
            -0.02967892959713936,
            -0.029451504349708557,
            -0.029224080964922905,
            -0.028996655717492104,
            -0.028769230470061302,
            -0.0285418052226305,
            -0.02831438183784485,
            -0.028086956590414047,
            -0.027859531342983246,
            -0.027632106095552444,
            -0.027404682710766792
          ],
          [
            -0.02717725746333599,
            -0.02694983221590519,
            -0.026722408831119537,
            -0.026494983583688736,
            -0.026267558336257935,
            -0.026040133088827133,
            -0.02581270970404148,
            -0.02558528445661068,
            -0.025357859209179878,
            -0.025130433961749077,
            -0.024903010576963425,
            -0.024675585329532623,
            -0.024448160082101822,
            -0.02422073669731617,
            -0.02399331144988537,
            -0.023765886202454567,
            -0.023538460955023766,
            -0.023311037570238113,
            -0.023083612322807312,
            -0.02285618707537651,
            -0.02262876182794571,
            -0.022401338443160057,
            -0.022173913195729256,
            -0.021946487948298454,
            -0.021719062700867653,
            -0.021491639316082,
            -0.0212642140686512,
            -0.021036788821220398,
            -0.020809365436434746,
            -0.020581940189003944
          ],
          [
            -0.020354514941573143,
            -0.02012708969414234,
            -0.01989966630935669,
            -0.019672241061925888,
            -0.019444815814495087,
            -0.019217390567064285,
            -0.018989967182278633,
            -0.01876254193484783,
            -0.01853511668741703,
            -0.01830769143998623,
            -0.018080268055200577,
            -0.017852842807769775,
            -0.017625417560338974,
            -0.017397994175553322,
            -0.01717056892812252,
            -0.01694314368069172,
            -0.016715718433260918,
            -0.016488295048475266,
            -0.016260869801044464,
            -0.016033444553613663,
            -0.01580601930618286,
            -0.015578594990074635,
            -0.015351170673966408,
            -0.015123745426535606,
            -0.01489632111042738,
            -0.014668895862996578,
            -0.014441471546888351,
            -0.014214047230780125,
            -0.013986621983349323,
            -0.013759197667241096
          ],
          [
            -0.013531772419810295,
            -0.013304348103702068,
            -0.013076922856271267,
            -0.01284949854016304,
            -0.012622073292732239,
            -0.012394648976624012,
            -0.01216722372919321,
            -0.011939799413084984,
            -0.011712374165654182,
            -0.011484949849545956,
            -0.011257525533437729,
            -0.011030100286006927,
            -0.0108026759698987,
            -0.0105752507224679,
            -0.010347826406359673,
            -0.010120401158928871,
            -0.009892976842820644,
            -0.009665551595389843,
            -0.009438127279281616,
            -0.009210702031850815,
            -0.008983277715742588,
            -0.008755852468311787,
            -0.00852842815220356,
            -0.008301002904772758,
            -0.008073578588664532,
            -0.007846154272556305,
            -0.0076187290251255035,
            -0.0073913042433559895,
            -0.007163879461586475,
            -0.006936454679816961
          ],
          [
            -0.006709029898047447,
            -0.00648160558193922,
            -0.006254180800169706,
            -0.006026756018400192,
            -0.005799331236630678,
            -0.005571906454861164,
            -0.00534448167309165,
            -0.005117056891322136,
            -0.004889632109552622,
            -0.004662207327783108,
            -0.004434782546013594,
            -0.00420735776424408,
            -0.0039799329824745655,
            -0.003752508433535695,
            -0.003525083651766181,
            -0.003297658869996667,
            -0.003070234088227153,
            -0.0028428093064576387,
            -0.0026153845246881247,
            -0.0023879599757492542,
            -0.00216053519397974,
            -0.001933110412210226,
            -0.001705685630440712,
            -0.0014782608486711979,
            -0.0012508360669016838,
            -0.0010234114015474916,
            -0.0007959866197779775,
            -0.0005685618962161243,
            -0.0003411371144466102,
            -0.00011371237633284181
          ],
          [
            0.00011371237633284181,
            0.0003411371144466102,
            0.0005685618962161243,
            0.0007959866197779775,
            0.0010234114015474916,
            0.0012508360669016838,
            0.0014782608486711979,
            0.001705685630440712,
            0.001933110412210226,
            0.00216053519397974,
            0.0023879599757492542,
            0.0026153845246881247,
            0.0028428093064576387,
            0.003070234088227153,
            0.003297658869996667,
            0.003525083651766181,
            0.003752508433535695,
            0.0039799329824745655,
            0.00420735776424408,
            0.004434782546013594,
            0.004662207327783108,
            0.004889632109552622,
            0.005117056891322136,
            0.00534448167309165,
            0.005571906454861164,
            0.005799331236630678,
            0.006026756018400192,
            0.006254180800169706,
            0.00648160558193922,
            0.006709029898047447
          ],
          [
            0.006936454679816961,
            0.007163879461586475,
            0.0073913042433559895,
            0.0076187290251255035,
            0.007846154272556305,
            0.008073578588664532,
            0.008301002904772758,
            0.00852842815220356,
            0.008755852468311787,
            0.008983277715742588,
            0.009210702031850815,
            0.009438127279281616,
            0.009665551595389843,
            0.009892976842820644,
            0.010120401158928871,
            0.010347826406359673,
            0.0105752507224679,
            0.0108026759698987,
            0.011030100286006927,
            0.011257525533437729,
            0.011484949849545956,
            0.011712374165654182,
            0.011939799413084984,
            0.01216722372919321,
            0.012394648976624012,
            0.012622073292732239,
            0.01284949854016304,
            0.013076922856271267,
            0.013304348103702068,
            0.013531772419810295
          ],
          [
            0.013759197667241096,
            0.013986621983349323,
            0.014214047230780125,
            0.014441471546888351,
            0.014668895862996578,
            0.01489632111042738,
            0.015123745426535606,
            0.015351170673966408,
            0.015578594990074635,
            0.01580601930618286,
            0.016033444553613663,
            0.016260869801044464,
            0.016488295048475266,
            0.016715718433260918,
            0.01694314368069172,
            0.01717056892812252,
            0.017397994175553322,
            0.017625417560338974,
            0.017852842807769775,
            0.018080268055200577,
            0.01830769143998623,
            0.01853511668741703,
            0.01876254193484783,
            0.018989967182278633,
            0.019217390567064285,
            0.019444815814495087,
            0.019672241061925888,
            0.01989966630935669,
            0.02012708969414234,
            0.020354514941573143
          ],
          [
            0.020581940189003944,
            0.020809365436434746,
            0.021036788821220398,
            0.0212642140686512,
            0.021491639316082,
            0.021719062700867653,
            0.021946487948298454,
            0.022173913195729256,
            0.022401338443160057,
            0.02262876182794571,
            0.02285618707537651,
            0.023083612322807312,
            0.023311037570238113,
            0.023538460955023766,
            0.023765886202454567,
            0.02399331144988537,
            0.02422073669731617,
            0.024448160082101822,
            0.024675585329532623,
            0.024903010576963425,
            0.025130433961749077,
            0.025357859209179878,
            0.02558528445661068,
            0.02581270970404148,
            0.026040133088827133,
            0.026267558336257935,
            0.026494983583688736,
            0.026722408831119537,
            0.02694983221590519,
            0.02717725746333599
          ],
          [
            0.027404682710766792,
            0.027632106095552444,
            0.027859531342983246,
            0.028086956590414047,
            0.02831438183784485,
            0.0285418052226305,
            0.028769230470061302,
            0.028996655717492104,
            0.029224080964922905,
            0.029451504349708557,
            0.02967892959713936,
            0.02990635484457016,
            0.03013378009200096,
            0.030361203476786613,
            0.030588628724217415,
            0.030816053971648216,
            0.03104347735643387,
            0.03127090260386467,
            0.03149832785129547,
            0.03172575309872627,
            0.031953178346157074,
            0.032180603593587875,
            0.03240802511572838,
            0.03263545036315918,
            0.03286287561058998,
            0.03309030085802078,
            0.033317726105451584,
            0.033545151352882385,
            0.03377257660031319,
            0.03400000184774399
          ]
        ],
        [
          [
            -0.017999999225139618,
            -0.017389830201864243,
            -0.016779661178588867,
            -0.016169492155313492,
            -0.015559322200715542,
            -0.014949152246117592,
            -0.014338983222842216,
            -0.013728813268244267,
            -0.013118644244968891,
            -0.012508474290370941,
            -0.011898305267095566,
            -0.011288135312497616,
            -0.01067796628922224,
            -0.01006779633462429,
            -0.009457627311348915,
            -0.008847457356750965,
            -0.00823728833347559,
            -0.007627118844538927,
            -0.007016949355602264,
            -0.006406779866665602,
            -0.005796610377728939,
            -0.005186440888792276,
            -0.004576271399855614,
            -0.003966101910918951,
            -0.0033559321891516447,
            -0.002745762700214982,
            -0.0021355932112783194,
            -0.0015254237223416567,
            -0.000915254233404994,
            -0.00030508474446833134
          ],
          [
            0.00030508474446833134,
            0.000915254233404994,
            0.0015254237223416567,
            0.0021355932112783194,
            0.002745762700214982,
            0.0033559321891516447,
            0.003966101910918951,
            0.004576271399855614,
            0.005186440888792276,
            0.005796610377728939,
            0.006406779866665602,
            0.007016949355602264,
            0.007627118844538927,
            0.00823728833347559,
            0.008847457356750965,
            0.009457627311348915,
            0.01006779633462429,
            0.01067796628922224,
            0.011288135312497616,
            0.011898305267095566,
            0.012508474290370941,
            0.013118644244968891,
            0.013728813268244267,
            0.014338983222842216,
            0.014949152246117592,
            0.015559322200715542,
            0.016169492155313492,
            0.016779661178588867,
            0.017389830201864243,
            0.017999999225139618
          ]
        ]
      ]
    },
    {
      "activation": "tanh",
      "input_size": 10,
      "output_size": 1,
      "shape": [
        null,
        null,
        1
      ],
      "type": "dense",
      "weights": [
        [
          [
            -0.03400000184774399
          ],
          [
            -0.026444444432854652
          ],
          [
            -0.018888888880610466
          ],
          [
            -0.01133333332836628
          ],
          [
            -0.003777777776122093
          ],
          [
            0.003777777776122093
          ],
          [
            0.01133333332836628
          ],
          [
            0.018888888880610466
          ],
          [
            0.026444444432854652
          ],
          [
            0.03400000184774399
          ]
        ],
        [
          -0.0044999998062849045
        ]
      ]
    }
  ],
  "metadata": {
    "architecture": "conv_gru_hybrid",
    "backend": "keras",
    "latency_samples": 0,
    "loss": {
      "esr": 0.0,
      "mae": 0.0,
      "peak_residual": 0.0,
      "realtime_factor": 0.0,
      "rms_residual": 0.0,
      "rmse": 0.0
    },
    "rtneural_commit": "1fb1f075a5d66e85bfc8f488c3f3626840cb3a1d",
    "sample_rate": 48000,
    "schema": "rttrainer-rtneural-json-v0",
    "schema_version": 1
  }
}
