{
  "in_shape": [
    null,
    null,
    1
  ],
  "layers": [
    {
      "activation": "",
      "dilation": [
        1
      ],
      "groups": 1,
      "input_size": 1,
      "kernel_size": [
        3
      ],
      "output_size": 8,
      "shape": [
        null,
        null,
        8
      ],
      "type": "conv1d",
      "weights": [
        [
          [
            [
              -0.017999999225139618,
              -0.01643478311598301,
              -0.014869565144181252,
              -0.013304348103702068,
              -0.01173913013190031,
              -0.010173913091421127,
              -0.008608696050941944,
              -0.007043478079140186
            ]
          ],
          [
            [
              -0.005478261038661003,
              -0.003913043532520533,
              -0.002347826026380062,
              -0.0007826086948625743,
              0.0007826086948625743,
              0.002347826026380062,
              0.003913043532520533,
              0.005478261038661003
            ]
          ],
          [
            [
              0.007043478079140186,
              0.008608696050941944,
              0.010173913091421127,
              0.01173913013190031,
              0.013304348103702068,
              0.014869565144181252,
              0.01643478311598301,
              0.017999999225139618
            ]
          ]
        ],
        [
          -0.005499999970197678,
          -0.0039285714738070965,
          -0.0023571427445858717,
          -0.0007857143064029515,
          0.0007857143064029515,
          0.0023571427445858717,
          0.0039285714738070965,
          0.005499999970197678
        ]
      ]
    },
    {
      "activation": "",
      "epsilon": 0.01,
      "input_size": 8,
      "output_size": 8,
      "shape": [
        null,
        null,
        8
      ],
      "type": "batchnorm",
      "weights": [
        [
          0.8199999928474426,
          0.8714285492897034,
          0.9228571653366089,
          0.9742857217788696,
          1.0257142782211304,
          1.0771428346633911,
          1.1285713911056519,
          1.1799999475479126
        ],
        [
          -0.02500000037252903,
          -0.01785714365541935,
          -0.010714286006987095,
          -0.0035714285913854837,
          0.0035714285913854837,
          0.010714286006987095,
          0.01785714365541935,
          0.02500000037252903
        ],
        [
          -0.03999999910593033,
          -0.02857142873108387,
          -0.017142856493592262,
          -0.0057142856530845165,
          0.0057142856530845165,
          0.017142856493592262,
          0.02857142873108387,
          0.03999999910593033
        ],
        [
          0.699999988079071,
          0.7857142686843872,
          0.8714285492897034,
          0.9571428298950195,
          1.0428571701049805,
          1.1285713911056519,
          1.2142857313156128,
          1.2999999523162842
        ]
      ]
    },
    {
      "activation": "",
      "input_size": 8,
      "output_size": 8,
      "shape": [
        null,
        null,
        8
      ],
      "type": "prelu",
      "weights": [
        [
          [
            0.18000000715255737,
            0.18000000715255737,
            0.18000000715255737,
            0.18000000715255737,
            0.18000000715255737,
            0.18000000715255737,
            0.18000000715255737,
            0.18000000715255737
          ]
        ]
      ]
    },
    {
      "activation": "tanh",
      "input_size": 8,
      "output_size": 1,
      "shape": [
        null,
        null,
        1
      ],
      "type": "dense",
      "weights": [
        [
          [
            -0.029999999329447746
          ],
          [
            -0.02142857201397419
          ],
          [
            -0.012857142835855484
          ],
          [
            -0.004285714123398066
          ],
          [
            0.004285714123398066
          ],
          [
            0.012857142835855484
          ],
          [
            0.02142857201397419
          ],
          [
            0.029999999329447746
          ]
        ],
        [
          -0.008500000461935997
        ]
      ]
    }
  ],
  "metadata": {
    "architecture": "conv1d_bn_prelu",
    "backend": "keras",
    "conv_activation": "tanh",
    "conv_activation_alpha": 1.0,
    "latency_samples": 0,
    "loss": {
      "esr": 0.0,
      "mae": 0.0,
      "peak_residual": 0.0,
      "realtime_factor": 0.0,
      "rms_residual": 0.0,
      "rmse": 0.0
    },
    "rtneural_commit": "1fb1f075a5d66e85bfc8f488c3f3626840cb3a1d",
    "sample_rate": 48000,
    "schema": "rttrainer-rtneural-json-v0",
    "schema_version": 1
  }
}
