{
  "in_shape": [
    null,
    null,
    1
  ],
  "layers": [
    {
      "activation": "tanh",
      "hidden_size": 10,
      "input_size": 1,
      "shape": [
        null,
        null,
        10
      ],
      "type": "gru",
      "weights": [
        [
          [
            -0.03400000184774399,
            -0.03165517374873161,
            -0.02931034564971924,
            -0.026965517550706863,
            -0.02462068945169449,
            -0.022275861352682114,
            -0.019931035116314888,
            -0.017586207017302513,
            -0.015241378918290138,
            -0.012896551750600338,
            -0.010551724582910538,
            -0.008206896483898163,
            -0.005862068850547075,
            -0.0035172414500266314,
            -0.0011724138166755438,
            0.0011724138166755438,
            0.0035172414500266314,
            0.005862068850547075,
            0.008206896483898163,
            0.010551724582910538,
            0.012896551750600338,
            0.015241378918290138,
            0.017586207017302513,
            0.019931035116314888,
            0.022275861352682114,
            0.02462068945169449,
            0.026965517550706863,
            0.02931034564971924,
            0.03165517374873161,
            0.03400000184774399
          ]
        ],
        [
          [
            -0.017999999225139618,
            -0.01787959784269333,
            -0.01775919646024704,
            -0.01763879507780075,
            -0.01751839555799961,
            -0.017397994175553322,
            -0.017277592793107033,
            -0.017157191410660744,
            -0.017036790028214455,
            -0.016916388645768166,
            -0.016795987263321877,
            -0.016675585880875587,
            -0.0165551844984293,
            -0.01643478311598301,
            -0.01631438173353672,
            -0.01619398035109043,
            -0.016073578968644142,
            -0.015953177586197853,
            -0.015832776203751564,
            -0.015712374821305275,
            -0.015591973438858986,
            -0.015471572056412697,
            -0.015351170673966408,
            -0.015230769291520119,
            -0.01511036790907383,
            -0.01498996652662754,
            -0.014869565144181252,
            -0.014749163761734962,
            -0.014628762379288673,
            -0.014508360996842384
          ],
          [
            -0.014387959614396095,
            -0.014267558231949806,
            -0.014147156849503517,
            -0.014026755467057228,
            -0.013906354084610939,
            -0.013785953633487225,
            -0.013665552251040936,
            -0.013545150868594646,
            -0.013424749486148357,
            -0.013304348103702068,
            -0.01318394672125578,
            -0.01306354533880949,
            -0.012943143956363201,
            -0.012822742573916912,
            -0.012702341191470623,
            -0.012581939809024334,
            -0.012461538426578045,
            -0.012341137044131756,
            -0.012220735661685467,
            -0.012100334279239178,
            -0.011979932896792889,
            -0.0118595315143466,
            -0.01173913013190031,
            -0.011618728749454021,
            -0.011498327367007732,
            -0.011377925984561443,
            -0.011257525533437729,
            -0.01113712415099144,
            -0.01101672276854515,
            -0.010896321386098862
          ],
          [
            -0.010775920003652573,
            -0.010655518621206284,
            -0.010535117238759995,
            -0.010414715856313705,
            -0.010294314473867416,
            -0.010173913091421127,
            -0.010053511708974838,
            -0.00993311032652855,
            -0.00981270894408226,
            -0.009692307561635971,
            -0.009571906179189682,
            -0.009451504796743393,
            -0.009331103414297104,
            -0.009210702031850815,
            -0.009090300649404526,
            -0.008969899266958237,
            -0.008849497884511948,
            -0.008729097433388233,
            -0.008608696050941944,
            -0.008488294668495655,
            -0.008367893286049366,
            -0.008247491903603077,
            -0.008127090521156788,
            -0.008006689138710499,
            -0.00788628775626421,
            -0.007765886373817921,
            -0.007645484991371632,
            -0.0075250836089253426,
            -0.0074046822264790535,
            -0.0072842808440327644
          ],
          [
            -0.007163879461586475,
            -0.007043478079140186,
            -0.006923076696693897,
            -0.0068026757799088955,
            -0.006682274397462606,
            -0.006561873015016317,
            -0.006441471632570028,
            -0.006321070250123739,
            -0.00620066886767745,
            -0.006080267485231161,
            -0.005959866102784872,
            -0.005839464720338583,
            -0.005719063337892294,
            -0.005598662421107292,
            -0.005478261038661003,
            -0.005357859656214714,
            -0.005237458273768425,
            -0.005117056891322136,
            -0.004996655508875847,
            -0.004876254126429558,
            -0.004755852743983269,
            -0.00463545136153698,
            -0.004515049979090691,
            -0.0043946485966444016,
            -0.0042742476798594,
            -0.004153846297413111,
            -0.004033444914966822,
            -0.003913043532520533,
            -0.0037926421500742435,
            -0.0036722407676279545
          ],
          [
            -0.0035518393851816654,
            -0.00343143823556602,
            -0.003311036853119731,
            -0.003190635470673442,
            -0.003070234088227153,
            -0.0029498327057808638,
            -0.0028294313233345747,
            -0.0027090301737189293,
            -0.0025886287912726402,
            -0.002468227408826351,
            -0.002347826026380062,
            -0.002227424643933773,
            -0.0021070234943181276,
            -0.0019866221118718386,
            -0.0018662207294255495,
            -0.0017458193469792604,
            -0.0016254180809482932,
            -0.0015050166985020041,
            -0.001384615432471037,
            -0.0012642140500247478,
            -0.0011438126675784588,
            -0.0010234114015474916,
            -0.0009030100191012025,
            -0.0007826086948625743,
            -0.0006622073706239462,
            -0.000541806046385318,
            -0.00042140469304285944,
            -0.00030100333970040083,
            -0.00018060200090985745,
            -6.020066939527169e-05
          ],
          [
            6.020066939527169e-05,
            0.00018060200090985745,
            0.00030100333970040083,
            0.00042140469304285944,
            0.000541806046385318,
            0.0006622073706239462,
            0.0007826086948625743,
            0.0009030100191012025,
            0.0010234114015474916,
            0.0011438126675784588,
            0.0012642140500247478,
            0.001384615432471037,
            0.0015050166985020041,
            0.0016254180809482932,
            0.0017458193469792604,
            0.0018662207294255495,
            0.0019866221118718386,
            0.0021070234943181276,
            0.002227424643933773,
            0.002347826026380062,
            0.002468227408826351,
            0.0025886287912726402,
            0.0027090301737189293,
            0.0028294313233345747,
            0.0029498327057808638,
            0.003070234088227153,
            0.003190635470673442,
            0.003311036853119731,
            0.00343143823556602,
            0.0035518393851816654
          ],
          [
            0.0036722407676279545,
            0.0037926421500742435,
            0.003913043532520533,
            0.004033444914966822,
            0.004153846297413111,
            0.0042742476798594,
            0.0043946485966444016,
            0.004515049979090691,
            0.00463545136153698,
            0.004755852743983269,
            0.004876254126429558,
            0.004996655508875847,
            0.005117056891322136,
            0.005237458273768425,
            0.005357859656214714,
            0.005478261038661003,
            0.005598662421107292,
            0.005719063337892294,
            0.005839464720338583,
            0.005959866102784872,
            0.006080267485231161,
            0.00620066886767745,
            0.006321070250123739,
            0.006441471632570028,
            0.006561873015016317,
            0.006682274397462606,
            0.0068026757799088955,
            0.006923076696693897,
            0.007043478079140186,
            0.007163879461586475
          ],
          [
            0.0072842808440327644,
            0.0074046822264790535,
            0.0075250836089253426,
            0.007645484991371632,
            0.007765886373817921,
            0.00788628775626421,
            0.008006689138710499,
            0.008127090521156788,
            0.008247491903603077,
            0.008367893286049366,
            0.008488294668495655,
            0.008608696050941944,
            0.008729097433388233,
            0.008849497884511948,
            0.008969899266958237,
            0.009090300649404526,
            0.009210702031850815,
            0.009331103414297104,
            0.009451504796743393,
            0.009571906179189682,
            0.009692307561635971,
            0.00981270894408226,
            0.00993311032652855,
            0.010053511708974838,
            0.010173913091421127,
            0.010294314473867416,
            0.010414715856313705,
            0.010535117238759995,
            0.010655518621206284,
            0.010775920003652573
          ],
          [
            0.010896321386098862,
            0.01101672276854515,
            0.01113712415099144,
            0.011257525533437729,
            0.011377925984561443,
            0.011498327367007732,
            0.011618728749454021,
            0.01173913013190031,
            0.0118595315143466,
            0.011979932896792889,
            0.012100334279239178,
            0.012220735661685467,
            0.012341137044131756,
            0.012461538426578045,
            0.012581939809024334,
            0.012702341191470623,
            0.012822742573916912,
            0.012943143956363201,
            0.01306354533880949,
            0.01318394672125578,
            0.013304348103702068,
            0.013424749486148357,
            0.013545150868594646,
            0.013665552251040936,
            0.013785953633487225,
            0.013906354084610939,
            0.014026755467057228,
            0.014147156849503517,
            0.014267558231949806,
            0.014387959614396095
          ],
          [
            0.014508360996842384,
            0.014628762379288673,
            0.014749163761734962,
            0.014869565144181252,
            0.01498996652662754,
            0.01511036790907383,
            0.015230769291520119,
            0.015351170673966408,
            0.015471572056412697,
            0.015591973438858986,
            0.015712374821305275,
            0.015832776203751564,
            0.015953177586197853,
            0.016073578968644142,
            0.01619398035109043,
            0.01631438173353672,
            0.01643478311598301,
            0.0165551844984293,
            0.016675585880875587,
            0.016795987263321877,
            0.016916388645768166,
            0.017036790028214455,
            0.017157191410660744,
            0.017277592793107033,
            0.017397994175553322,
            0.01751839555799961,
            0.01763879507780075,
            0.01775919646024704,
            0.01787959784269333,
            0.017999999225139618
          ]
        ],
        [
          [
            -0.02199999988079071,
            -0.02125423774123192,
            -0.020508473739027977,
            -0.019762711599469185,
            -0.019016949459910393,
            -0.0182711873203516,
            -0.01752542331814766,
            -0.016779661178588867,
            -0.016033899039030075,
            -0.015288135968148708,
            -0.014542372897267342,
            -0.013796609826385975,
            -0.013050847686827183,
            -0.012305084615945816,
            -0.011559322476387024,
            -0.010813559405505657,
            -0.01006779633462429,
            -0.009322034195065498,
            -0.008576271124184132,
            -0.007830508053302765,
            -0.007084745913743973,
            -0.006338982842862606,
            -0.005593220237642527,
            -0.004847457632422447,
            -0.004101695027202368,
            -0.0033559321891516447,
            -0.0026101695839315653,
            -0.0018644067458808422,
            -0.001118644024245441,
            -0.0003728813608177006
          ],
          [
            0.0003728813608177006,
            0.001118644024245441,
            0.0018644067458808422,
            0.0026101695839315653,
            0.0033559321891516447,
            0.004101695027202368,
            0.004847457632422447,
            0.005593220237642527,
            0.006338982842862606,
            0.007084745913743973,
            0.007830508053302765,
            0.008576271124184132,
            0.009322034195065498,
            0.01006779633462429,
            0.010813559405505657,
            0.011559322476387024,
            0.012305084615945816,
            0.013050847686827183,
            0.013796609826385975,
            0.014542372897267342,
            0.015288135968148708,
            0.016033899039030075,
            0.016779661178588867,
            0.01752542331814766,
            0.0182711873203516,
            0.019016949459910393,
            0.019762711599469185,
            0.020508473739027977,
            0.02125423774123192,
            0.02199999988079071
          ]
        ]
      ]
    },
    {
      "activation": "",
      "input_size": 10,
      "output_size": 1,
      "shape": [
        null,
        null,
        1
      ],
      "type": "dense",
      "weights": [
        [
          [
            -0.017999999225139618
          ],
          [
            -0.014000000432133675
          ],
          [
            -0.009999999776482582
          ],
          [
            -0.006000000052154064
          ],
          [
            -0.0020000000949949026
          ],
          [
            0.0020000000949949026
          ],
          [
            0.006000000052154064
          ],
          [
            0.009999999776482582
          ],
          [
            0.014000000432133675
          ],
          [
            0.017999999225139618
          ]
        ],
        [
          -0.005499999970197678
        ]
      ]
    }
  ],
  "metadata": {
    "architecture": "gru_light",
    "backend": "keras",
    "latency_samples": 0,
    "loss": {
      "esr": 0.0,
      "mae": 0.0,
      "peak_residual": 0.0,
      "realtime_factor": 0.0,
      "rms_residual": 0.0,
      "rmse": 0.0
    },
    "rtneural_commit": "1fb1f075a5d66e85bfc8f488c3f3626840cb3a1d",
    "sample_rate": 48000,
    "schema": "rttrainer-rtneural-json-v0",
    "schema_version": 1
  }
}
