{
  "in_shape": [
    null,
    null,
    1
  ],
  "layers": [
    {
      "activation": "tanh",
      "hidden_size": 12,
      "input_size": 1,
      "shape": [
        null,
        null,
        12
      ],
      "type": "lstm",
      "weights": [
        [
          [
            -0.017999999225139618,
            -0.017234042286872864,
            -0.01646808534860611,
            -0.015702128410339355,
            -0.014936170540750027,
            -0.014170212671160698,
            -0.013404255732893944,
            -0.012638297863304615,
            -0.011872339993715286,
            -0.011106383055448532,
            -0.010340425185859203,
            -0.00957446824759245,
            -0.00880851037800312,
            -0.008042553439736366,
            -0.0072765955701470375,
            -0.006510638166218996,
            -0.005744680762290955,
            -0.004978723358362913,
            -0.004212765954434872,
            -0.00344680855050683,
            -0.0026808511465787888,
            -0.0019148936262354255,
            -0.001148936222307384,
            -0.0003829787310678512,
            0.0003829787310678512,
            0.001148936222307384,
            0.0019148936262354255,
            0.0026808511465787888,
            0.00344680855050683,
            0.004212765954434872,
            0.004978723358362913,
            0.005744680762290955,
            0.006510638166218996,
            0.0072765955701470375,
            0.008042553439736366,
            0.00880851037800312,
            0.00957446824759245,
            0.010340425185859203,
            0.011106383055448532,
            0.011872339993715286,
            0.012638297863304615,
            0.013404255732893944,
            0.014170212671160698,
            0.014936170540750027,
            0.015702128410339355,
            0.01646808534860611,
            0.017234042286872864,
            0.017999999225139618
          ]
        ],
        [
          [
            -0.02199999988079071,
            -0.021923478692770004,
            -0.02184695564210415,
            -0.021770434454083443,
            -0.021693913266062737,
            -0.02161739207804203,
            -0.021540869027376175,
            -0.02146434783935547,
            -0.021387826651334763,
            -0.021311303600668907,
            -0.0212347824126482,
            -0.021158261224627495,
            -0.02108174003660679,
            -0.021005216985940933,
            -0.020928695797920227,
            -0.02085217460989952,
            -0.020775651559233665,
            -0.02069913037121296,
            -0.020622609183192253,
            -0.020546086132526398,
            -0.02046956494450569,
            -0.020393043756484985,
            -0.02031652256846428,
            -0.020239999517798424,
            -0.020163478329777718,
            -0.02008695714175701,
            -0.020010434091091156,
            -0.01993391290307045,
            -0.019857391715049744,
            -0.019780868664383888,
            -0.019704347476363182,
            -0.019627826288342476,
            -0.01955130510032177,
            -0.019474782049655914,
            -0.019398260861635208,
            -0.019321739673614502,
            -0.019245216622948647,
            -0.01916869543492794,
            -0.019092174246907234,
            -0.019015653058886528,
            -0.018939130008220673,
            -0.018862608820199966,
            -0.01878608763217926,
            -0.018709564581513405,
            -0.0186330433934927,
            -0.018556522205471992,
            -0.018479999154806137,
            -0.01840347796678543
          ],
          [
            -0.018326956778764725,
            -0.01825043559074402,
            -0.018173912540078163,
            -0.018097391352057457,
            -0.01802087016403675,
            -0.017944347113370895,
            -0.01786782592535019,
            -0.017791304737329483,
            -0.017714781686663628,
            -0.01763826049864292,
            -0.017561739310622215,
            -0.01748521812260151,
            -0.017408695071935654,
            -0.017332173883914948,
            -0.01725565269589424,
            -0.017179129645228386,
            -0.01710260845720768,
            -0.017026087269186974,
            -0.016949566081166267,
            -0.016873043030500412,
            -0.016796521842479706,
            -0.016720000654459,
            -0.016643477603793144,
            -0.016566956415772438,
            -0.016490435227751732,
            -0.016413912177085876,
            -0.01633739098906517,
            -0.016260869801044464,
            -0.016184348613023758,
            -0.016107825562357903,
            -0.016031304374337196,
            -0.01595478318631649,
            -0.015878260135650635,
            -0.01580173894762993,
            -0.015725217759609222,
            -0.015648696571588516,
            -0.01557217352092266,
            -0.015495652332901955,
            -0.015419130213558674,
            -0.015342609025537968,
            -0.015266086906194687,
            -0.015189564786851406,
            -0.0151130435988307,
            -0.015036521479487419,
            -0.014960000291466713,
            -0.014883478172123432,
            -0.014806956984102726,
            -0.014730434864759445
          ],
          [
            -0.014653912745416164,
            -0.014577391557395458,
            -0.014500869438052177,
            -0.014424348250031471,
            -0.01434782613068819,
            -0.01427130401134491,
            -0.014194782823324203,
            -0.014118260703980923,
            -0.014041739515960217,
            -0.013965217396616936,
            -0.013888695277273655,
            -0.013812174089252949,
            -0.013735651969909668,
            -0.013659130781888962,
            -0.013582608662545681,
            -0.0135060865432024,
            -0.013429565355181694,
            -0.013353043235838413,
            -0.013276522047817707,
            -0.013199999928474426,
            -0.013123477809131145,
            -0.01304695662111044,
            -0.012970434501767159,
            -0.012893913313746452,
            -0.012817391194403172,
            -0.012740870006382465,
            -0.012664347887039185,
            -0.012587825767695904,
            -0.012511304579675198,
            -0.012434782460331917,
            -0.01235826127231121,
            -0.01228173915296793,
            -0.012205217033624649,
            -0.012128695845603943,
            -0.012052173726260662,
            -0.011975652538239956,
            -0.011899130418896675,
            -0.011822608299553394,
            -0.011746087111532688,
            -0.011669564992189407,
            -0.011593043804168701,
            -0.01151652168482542,
            -0.01143999956548214,
            -0.011363478377461433,
            -0.011286956258118153,
            -0.011210435070097446,
            -0.011133912950754166,
            -0.01105739176273346
          ],
          [
            -0.010980869643390179,
            -0.010904347524046898,
            -0.010827826336026192,
            -0.010751304216682911,
            -0.010674783028662205,
            -0.010598260909318924,
            -0.010521738789975643,
            -0.010445217601954937,
            -0.010368695482611656,
            -0.01029217429459095,
            -0.01021565217524767,
            -0.010139130055904388,
            -0.010062608867883682,
            -0.009986086748540401,
            -0.009909565560519695,
            -0.009833043441176414,
            -0.009756521321833134,
            -0.009680000133812428,
            -0.009603478014469147,
            -0.00952695682644844,
            -0.00945043470710516,
            -0.009373912587761879,
            -0.009297391399741173,
            -0.009220869280397892,
            -0.009144348092377186,
            -0.009067825973033905,
            -0.008991304785013199,
            -0.008914782665669918,
            -0.008838260546326637,
            -0.008761739358305931,
            -0.00868521723896265,
            -0.008608696050941944,
            -0.008532173931598663,
            -0.008455651812255383,
            -0.008379130624234676,
            -0.008302608504891396,
            -0.00822608731687069,
            -0.008149565197527409,
            -0.008073043078184128,
            -0.007996521890163422,
            -0.00791999977082014,
            -0.007843478582799435,
            -0.007766956463456154,
            -0.00769043480977416,
            -0.007613913156092167,
            -0.007537391502410173,
            -0.007460869383066893,
            -0.007384347729384899
          ],
          [
            -0.007307826075702906,
            -0.007231304422020912,
            -0.007154782768338919,
            -0.007078260648995638,
            -0.007001738995313644,
            -0.006925217341631651,
            -0.0068486956879496574,
            -0.006772174034267664,
            -0.0066956523805856705,
            -0.00661913026124239,
            -0.006542608607560396,
            -0.006466086953878403,
            -0.006389565300196409,
            -0.006313043646514416,
            -0.006236521527171135,
            -0.0061599998734891415,
            -0.006083478219807148,
            -0.0060069565661251545,
            -0.005930434912443161,
            -0.0058539132587611675,
            -0.005777391139417887,
            -0.005700869485735893,
            -0.0056243478320539,
            -0.005547826178371906,
            -0.005471304524689913,
            -0.005394782405346632,
            -0.0053182607516646385,
            -0.005241739097982645,
            -0.0051652174443006516,
            -0.005088695790618658,
            -0.005012174136936665,
            -0.004935652017593384,
            -0.00485913036391139,
            -0.004782608710229397,
            -0.004706087056547403,
            -0.00462956540286541,
            -0.004553043283522129,
            -0.004476521629840136,
            -0.004399999976158142,
            -0.004323478322476149,
            -0.004246956668794155,
            -0.004170435015112162,
            -0.004093912895768881,
            -0.004017391242086887,
            -0.003940869588404894,
            -0.0038643479347229004,
            -0.0037878260482102633,
            -0.0037113043945282698
          ],
          [
            -0.0036347825080156326,
            -0.003558260854333639,
            -0.0034817392006516457,
            -0.0034052173141390085,
            -0.003328695660457015,
            -0.0032521740067750216,
            -0.0031756521202623844,
            -0.003099130466580391,
            -0.003022608580067754,
            -0.0029460869263857603,
            -0.002869565272703767,
            -0.0027930433861911297,
            -0.002716521732509136,
            -0.0026400000788271427,
            -0.0025634781923145056,
            -0.002486956538632512,
            -0.0024104348849505186,
            -0.0023339129984378815,
            -0.002257391344755888,
            -0.002180869458243251,
            -0.0021043478045612574,
            -0.002027826150879264,
            -0.0019513043807819486,
            -0.0018747826106846333,
            -0.001798260840587318,
            -0.0017217391869053245,
            -0.0016452174168080091,
            -0.0015686956467106938,
            -0.0014921738766133785,
            -0.001415652222931385,
            -0.0013391304528340697,
            -0.0012626086827367544,
            -0.001186086912639439,
            -0.0011095652589574456,
            -0.0010330434888601303,
            -0.000956521718762815,
            -0.0008800000068731606,
            -0.0008034782367758453,
            -0.0007269565248861909,
            -0.0006504347547888756,
            -0.0005739130428992212,
            -0.0004973913310095668,
            -0.00042086956091225147,
            -0.0003443478199187666,
            -0.00026782607892528176,
            -0.00019130435248371214,
            -0.00011478261149022728,
            -3.826087049674243e-05
          ],
          [
            3.826087049674243e-05,
            0.00011478261149022728,
            0.00019130435248371214,
            0.00026782607892528176,
            0.0003443478199187666,
            0.00042086956091225147,
            0.0004973913310095668,
            0.0005739130428992212,
            0.0006504347547888756,
            0.0007269565248861909,
            0.0008034782367758453,
            0.0008800000068731606,
            0.000956521718762815,
            0.0010330434888601303,
            0.0011095652589574456,
            0.001186086912639439,
            0.0012626086827367544,
            0.0013391304528340697,
            0.001415652222931385,
            0.0014921738766133785,
            0.0015686956467106938,
            0.0016452174168080091,
            0.0017217391869053245,
            0.001798260840587318,
            0.0018747826106846333,
            0.0019513043807819486,
            0.002027826150879264,
            0.0021043478045612574,
            0.002180869458243251,
            0.002257391344755888,
            0.0023339129984378815,
            0.0024104348849505186,
            0.002486956538632512,
            0.0025634781923145056,
            0.0026400000788271427,
            0.002716521732509136,
            0.0027930433861911297,
            0.002869565272703767,
            0.0029460869263857603,
            0.003022608580067754,
            0.003099130466580391,
            0.0031756521202623844,
            0.0032521740067750216,
            0.003328695660457015,
            0.0034052173141390085,
            0.0034817392006516457,
            0.003558260854333639,
            0.0036347825080156326
          ],
          [
            0.0037113043945282698,
            0.0037878260482102633,
            0.0038643479347229004,
            0.003940869588404894,
            0.004017391242086887,
            0.004093912895768881,
            0.004170435015112162,
            0.004246956668794155,
            0.004323478322476149,
            0.004399999976158142,
            0.004476521629840136,
            0.004553043283522129,
            0.00462956540286541,
            0.004706087056547403,
            0.004782608710229397,
            0.00485913036391139,
            0.004935652017593384,
            0.005012174136936665,
            0.005088695790618658,
            0.0051652174443006516,
            0.005241739097982645,
            0.0053182607516646385,
            0.005394782405346632,
            0.005471304524689913,
            0.005547826178371906,
            0.0056243478320539,
            0.005700869485735893,
            0.005777391139417887,
            0.0058539132587611675,
            0.005930434912443161,
            0.0060069565661251545,
            0.006083478219807148,
            0.0061599998734891415,
            0.006236521527171135,
            0.006313043646514416,
            0.006389565300196409,
            0.006466086953878403,
            0.006542608607560396,
            0.00661913026124239,
            0.0066956523805856705,
            0.006772174034267664,
            0.0068486956879496574,
            0.006925217341631651,
            0.007001738995313644,
            0.007078260648995638,
            0.007154782768338919,
            0.007231304422020912,
            0.007307826075702906
          ],
          [
            0.007384347729384899,
            0.007460869383066893,
            0.007537391502410173,
            0.007613913156092167,
            0.00769043480977416,
            0.007766956463456154,
            0.007843478582799435,
            0.00791999977082014,
            0.007996521890163422,
            0.008073043078184128,
            0.008149565197527409,
            0.00822608731687069,
            0.008302608504891396,
            0.008379130624234676,
            0.008455651812255383,
            0.008532173931598663,
            0.008608696050941944,
            0.00868521723896265,
            0.008761739358305931,
            0.008838260546326637,
            0.008914782665669918,
            0.008991304785013199,
            0.009067825973033905,
            0.009144348092377186,
            0.009220869280397892,
            0.009297391399741173,
            0.009373912587761879,
            0.00945043470710516,
            0.00952695682644844,
            0.009603478014469147,
            0.009680000133812428,
            0.009756521321833134,
            0.009833043441176414,
            0.009909565560519695,
            0.009986086748540401,
            0.010062608867883682,
            0.010139130055904388,
            0.01021565217524767,
            0.01029217429459095,
            0.010368695482611656,
            0.010445217601954937,
            0.010521738789975643,
            0.010598260909318924,
            0.010674783028662205,
            0.010751304216682911,
            0.010827826336026192,
            0.010904347524046898,
            0.010980869643390179
          ],
          [
            0.01105739176273346,
            0.011133912950754166,
            0.011210435070097446,
            0.011286956258118153,
            0.011363478377461433,
            0.01143999956548214,
            0.01151652168482542,
            0.011593043804168701,
            0.011669564992189407,
            0.011746087111532688,
            0.011822608299553394,
            0.011899130418896675,
            0.011975652538239956,
            0.012052173726260662,
            0.012128695845603943,
            0.012205217033624649,
            0.01228173915296793,
            0.01235826127231121,
            0.012434782460331917,
            0.012511304579675198,
            0.012587825767695904,
            0.012664347887039185,
            0.012740870006382465,
            0.012817391194403172,
            0.012893913313746452,
            0.012970434501767159,
            0.01304695662111044,
            0.013123477809131145,
            0.013199999928474426,
            0.013276522047817707,
            0.013353043235838413,
            0.013429565355181694,
            0.0135060865432024,
            0.013582608662545681,
            0.013659130781888962,
            0.013735651969909668,
            0.013812174089252949,
            0.013888695277273655,
            0.013965217396616936,
            0.014041739515960217,
            0.014118260703980923,
            0.014194782823324203,
            0.01427130401134491,
            0.01434782613068819,
            0.014424348250031471,
            0.014500869438052177,
            0.014577391557395458,
            0.014653912745416164
          ],
          [
            0.014730434864759445,
            0.014806956984102726,
            0.014883478172123432,
            0.014960000291466713,
            0.015036521479487419,
            0.0151130435988307,
            0.015189564786851406,
            0.015266086906194687,
            0.015342609025537968,
            0.015419130213558674,
            0.015495652332901955,
            0.01557217352092266,
            0.015648696571588516,
            0.015725217759609222,
            0.01580173894762993,
            0.015878260135650635,
            0.01595478318631649,
            0.016031304374337196,
            0.016107825562357903,
            0.016184348613023758,
            0.016260869801044464,
            0.01633739098906517,
            0.016413912177085876,
            0.016490435227751732,
            0.016566956415772438,
            0.016643477603793144,
            0.016720000654459,
            0.016796521842479706,
            0.016873043030500412,
            0.016949566081166267,
            0.017026087269186974,
            0.01710260845720768,
            0.017179129645228386,
            0.01725565269589424,
            0.017332173883914948,
            0.017408695071935654,
            0.01748521812260151,
            0.017561739310622215,
            0.01763826049864292,
            0.017714781686663628,
            0.017791304737329483,
            0.01786782592535019,
            0.017944347113370895,
            0.01802087016403675,
            0.018097391352057457,
            0.018173912540078163,
            0.01825043559074402,
            0.018326956778764725
          ],
          [
            0.01840347796678543,
            0.018479999154806137,
            0.018556522205471992,
            0.0186330433934927,
            0.018709564581513405,
            0.01878608763217926,
            0.018862608820199966,
            0.018939130008220673,
            0.019015653058886528,
            0.019092174246907234,
            0.01916869543492794,
            0.019245216622948647,
            0.019321739673614502,
            0.019398260861635208,
            0.019474782049655914,
            0.01955130510032177,
            0.019627826288342476,
            0.019704347476363182,
            0.019780868664383888,
            0.019857391715049744,
            0.01993391290307045,
            0.020010434091091156,
            0.02008695714175701,
            0.020163478329777718,
            0.020239999517798424,
            0.02031652256846428,
            0.020393043756484985,
            0.02046956494450569,
            0.020546086132526398,
            0.020622609183192253,
            0.02069913037121296,
            0.020775651559233665,
            0.02085217460989952,
            0.020928695797920227,
            0.021005216985940933,
            0.02108174003660679,
            0.021158261224627495,
            0.0212347824126482,
            0.021311303600668907,
            0.021387826651334763,
            0.02146434783935547,
            0.021540869027376175,
            0.02161739207804203,
            0.021693913266062737,
            0.021770434454083443,
            0.02184695564210415,
            0.021923478692770004,
            0.02199999988079071
          ]
        ],
        [
          -0.006500000134110451,
          -0.006223404314368963,
          -0.005946808494627476,
          -0.005670212674885988,
          -0.005393616855144501,
          -0.0051170215010643005,
          -0.004840425681322813,
          -0.0045638298615813255,
          -0.004287234041839838,
          -0.0040106382220983505,
          -0.0037340426351875067,
          -0.003457446815446019,
          -0.0031808509957045317,
          -0.002904255408793688,
          -0.0026276595890522003,
          -0.002351063769310713,
          -0.002074468182399869,
          -0.0017978723626583815,
          -0.001521276542916894,
          -0.0012446808395907283,
          -0.0009680850780569017,
          -0.000691489374730736,
          -0.00041489361319690943,
          -0.00013829786621499807,
          0.00013829786621499807,
          0.00041489361319690943,
          0.000691489374730736,
          0.0009680850780569017,
          0.0012446808395907283,
          0.001521276542916894,
          0.0017978723626583815,
          0.002074468182399869,
          0.002351063769310713,
          0.0026276595890522003,
          0.002904255408793688,
          0.0031808509957045317,
          0.003457446815446019,
          0.0037340426351875067,
          0.0040106382220983505,
          0.004287234041839838,
          0.0045638298615813255,
          0.004840425681322813,
          0.0051170215010643005,
          0.005393616855144501,
          0.005670212674885988,
          0.005946808494627476,
          0.006223404314368963,
          0.006500000134110451
        ]
      ]
    },
    {
      "activation": "tanh",
      "input_size": 12,
      "output_size": 1,
      "shape": [
        null,
        null,
        1
      ],
      "type": "dense",
      "weights": [
        [
          [
            -0.02199999988079071
          ],
          [
            -0.017999999225139618
          ],
          [
            -0.014000000432133675
          ],
          [
            -0.009999999776482582
          ],
          [
            -0.006000000052154064
          ],
          [
            -0.0020000000949949026
          ],
          [
            0.0020000000949949026
          ],
          [
            0.006000000052154064
          ],
          [
            0.009999999776482582
          ],
          [
            0.014000000432133675
          ],
          [
            0.017999999225139618
          ],
          [
            0.02199999988079071
          ]
        ],
        [
          -0.006500000134110451
        ]
      ]
    }
  ],
  "metadata": {
    "architecture": "lstm_light",
    "backend": "keras",
    "latency_samples": 0,
    "loss": {
      "esr": 0.0,
      "mae": 0.0,
      "peak_residual": 0.0,
      "realtime_factor": 0.0,
      "rms_residual": 0.0,
      "rmse": 0.0
    },
    "rtneural_commit": "1fb1f075a5d66e85bfc8f488c3f3626840cb3a1d",
    "sample_rate": 48000,
    "schema": "rttrainer-rtneural-json-v0",
    "schema_version": 1
  }
}
