{
  "in_shape": [
    null,
    null,
    1
  ],
  "layers": [
    {
      "activation": "tanh",
      "dilation": [
        1
      ],
      "groups": 1,
      "input_size": 1,
      "kernel_size": [
        3
      ],
      "output_size": 16,
      "shape": [
        null,
        null,
        16
      ],
      "type": "conv1d",
      "weights": [
        [
          [
            [
              -0.026000000536441803,
              -0.024893617257475853,
              -0.023787233978509903,
              -0.022680850699543953,
              -0.021574467420578003,
              -0.020468086004257202,
              -0.019361702725291252,
              -0.018255319446325302,
              -0.017148936167359352,
              -0.016042552888393402,
              -0.014936170540750027,
              -0.013829787261784077,
              -0.012723403982818127,
              -0.011617021635174751,
              -0.010510638356208801,
              -0.009404255077242851
            ]
          ],
          [
            [
              -0.008297872729599476,
              -0.007191489450633526,
              -0.006085106171667576,
              -0.004978723358362913,
              -0.0038723403122276068,
              -0.002765957498922944,
              -0.0016595744527876377,
              -0.0005531914648599923,
              0.0005531914648599923,
              0.0016595744527876377,
              0.002765957498922944,
              0.0038723403122276068,
              0.004978723358362913,
              0.006085106171667576,
              0.007191489450633526,
              0.008297872729599476
            ]
          ],
          [
            [
              0.009404255077242851,
              0.010510638356208801,
              0.011617021635174751,
              0.012723403982818127,
              0.013829787261784077,
              0.014936170540750027,
              0.016042552888393402,
              0.017148936167359352,
              0.018255319446325302,
              0.019361702725291252,
              0.020468086004257202,
              0.021574467420578003,
              0.022680850699543953,
              0.023787233978509903,
              0.024893617257475853,
              0.026000000536441803
            ]
          ]
        ],
        [
          -0.007499999832361937,
          -0.006500000134110451,
          -0.005499999970197678,
          -0.0044999998062849045,
          -0.0035000001080334187,
          -0.0024999999441206455,
          -0.001500000013038516,
          -0.0005000000237487257,
          0.0005000000237487257,
          0.001500000013038516,
          0.0024999999441206455,
          0.0035000001080334187,
          0.0044999998062849045,
          0.005499999970197678,
          0.006500000134110451,
          0.007499999832361937
        ]
      ]
    },
    {
      "activation": "",
      "dilation": [
        2
      ],
      "groups": 16,
      "input_size": 16,
      "kernel_size": [
        3
      ],
      "output_size": 16,
      "shape": [
        null,
        null,
        16
      ],
      "type": "conv1d",
      "weights": [
        [
          [
            [
              -0.029999999329447746,
              -0.028723403811454773,
              -0.0274468082934618,
              -0.026170212775468826,
              -0.024893617257475853,
              -0.02361702173948288,
              -0.022340426221489906,
              -0.021063830703496933,
              -0.01978723332285881,
              -0.018510637804865837,
              -0.017234042286872864,
              -0.01595744676887989,
              -0.014680851250886917,
              -0.013404255732893944,
              -0.012127659283578396,
              -0.010851063765585423
            ]
          ],
          [
            [
              -0.00957446824759245,
              -0.008297872729599476,
              -0.007021276745945215,
              -0.005744680762290955,
              -0.004468085244297981,
              -0.0031914892606437206,
              -0.0019148936262354255,
              -0.0006382978754118085,
              0.0006382978754118085,
              0.0019148936262354255,
              0.0031914892606437206,
              0.004468085244297981,
              0.005744680762290955,
              0.007021276745945215,
              0.008297872729599476,
              0.00957446824759245
            ]
          ],
          [
            [
              0.010851063765585423,
              0.012127659283578396,
              0.013404255732893944,
              0.014680851250886917,
              0.01595744676887989,
              0.017234042286872864,
              0.018510637804865837,
              0.01978723332285881,
              0.021063830703496933,
              0.022340426221489906,
              0.02361702173948288,
              0.024893617257475853,
              0.026170212775468826,
              0.0274468082934618,
              0.028723403811454773,
              0.029999999329447746
            ]
          ]
        ],
        [
          -0.008500000461935997,
          -0.007366666570305824,
          -0.006233333144336939,
          -0.005100000184029341,
          -0.003966666758060455,
          -0.00283333333209157,
          -0.0017000000225380063,
          -0.0005666666547767818,
          0.0005666666547767818,
          0.0017000000225380063,
          0.00283333333209157,
          0.003966666758060455,
          0.005100000184029341,
          0.006233333144336939,
          0.007366666570305824,
          0.008500000461935997
        ]
      ]
    },
    {
      "activation": "tanh",
      "dilation": [
        1
      ],
      "groups": 1,
      "input_size": 16,
      "kernel_size": [
        1
      ],
      "output_size": 16,
      "shape": [
        null,
        null,
        16
      ],
      "type": "conv1d",
      "weights": [
        [
          [
            [
              -0.03400000184774399,
              -0.03373333439230919,
              -0.03346666693687439,
              -0.03319999948143959,
              -0.03293333202600479,
              -0.03266666829586029,
              -0.03240000084042549,
              -0.03213333338499069,
              -0.03186666592955589,
              -0.031599998474121094,
              -0.03133333474397659,
              -0.031066667288541794,
              -0.030799999833106995,
              -0.030533334240317345,
              -0.030266666784882545,
              -0.029999999329447746
            ],
            [
              -0.029733333736658096,
              -0.029466666281223297,
              -0.029200000688433647,
              -0.028933333232998848,
              -0.02866666577756405,
              -0.0284000001847744,
              -0.0281333327293396,
              -0.02786666713654995,
              -0.02759999968111515,
              -0.0273333340883255,
              -0.0270666666328907,
              -0.026799999177455902,
              -0.026533333584666252,
              -0.026266666129231453,
              -0.026000000536441803,
              -0.025733333081007004
            ],
            [
              -0.025466667488217354,
              -0.025200000032782555,
              -0.024933332577347755,
              -0.024666666984558105,
              -0.024399999529123306,
              -0.024133333936333656,
              -0.023866666480898857,
              -0.023600000888109207,
              -0.023333333432674408,
              -0.02306666597723961,
              -0.02280000038444996,
              -0.02253333292901516,
              -0.02226666733622551,
              -0.02199999988079071,
              -0.02173333242535591,
              -0.02146666683256626
            ],
            [
              -0.021199999377131462,
              -0.020933333784341812,
              -0.020666666328907013,
              -0.020400000736117363,
              -0.020133333280682564,
              -0.019866665825247765,
              -0.019600000232458115,
              -0.019333332777023315,
              -0.019066667184233665,
              -0.018799999728798866,
              -0.018533334136009216,
              -0.018266666680574417,
              -0.017999999225139618,
              -0.017733333632349968,
              -0.01746666617691517,
              -0.01720000058412552
            ],
            [
              -0.01693333312869072,
              -0.01666666753590107,
              -0.01640000008046627,
              -0.01613333262503147,
              -0.01586666703224182,
              -0.015599999576807022,
              -0.015333333052694798,
              -0.015066666528582573,
              -0.014800000004470348,
              -0.014533333480358124,
              -0.0142666669562459,
              -0.014000000432133675,
              -0.013733332976698875,
              -0.01346666645258665,
              -0.013199999928474426,
              -0.012933333404362202
            ],
            [
              -0.012666666880249977,
              -0.012400000356137753,
              -0.012133332900702953,
              -0.011866666376590729,
              -0.011599999852478504,
              -0.01133333332836628,
              -0.011066666804254055,
              -0.01080000028014183,
              -0.010533333756029606,
              -0.010266666300594807,
              -0.009999999776482582,
              -0.009733333252370358,
              -0.009466666728258133,
              -0.009200000204145908,
              -0.008933333680033684,
              -0.008666666224598885
            ],
            [
              -0.00839999970048666,
              -0.008133333176374435,
              -0.00786666665226221,
              -0.007600000128149986,
              -0.007333333138376474,
              -0.00706666661426425,
              -0.006800000090152025,
              -0.006533333566039801,
              -0.006266666576266289,
              -0.006000000052154064,
              -0.00573333352804184,
              -0.005466666538268328,
              -0.005200000014156103,
              -0.0049333334900438786,
              -0.004666666500270367,
              -0.004399999976158142
            ],
            [
              -0.0041333334520459175,
              -0.0038666666951030493,
              -0.003599999938160181,
              -0.0033333334140479565,
              -0.0030666666571050882,
              -0.00279999990016222,
              -0.0025333333760499954,
              -0.002266666619107127,
              -0.0020000000949949026,
              -0.0017333333380520344,
              -0.001466666697524488,
              -0.0012000000569969416,
              -0.0009333333582617342,
              -0.0006666666595265269,
              -0.00039999998989515007,
              -0.00013333333481568843
            ],
            [
              0.00013333333481568843,
              0.00039999998989515007,
              0.0006666666595265269,
              0.0009333333582617342,
              0.0012000000569969416,
              0.001466666697524488,
              0.0017333333380520344,
              0.0020000000949949026,
              0.002266666619107127,
              0.0025333333760499954,
              0.00279999990016222,
              0.0030666666571050882,
              0.0033333334140479565,
              0.003599999938160181,
              0.0038666666951030493,
              0.0041333334520459175
            ],
            [
              0.004399999976158142,
              0.004666666500270367,
              0.0049333334900438786,
              0.005200000014156103,
              0.005466666538268328,
              0.00573333352804184,
              0.006000000052154064,
              0.006266666576266289,
              0.006533333566039801,
              0.006800000090152025,
              0.00706666661426425,
              0.007333333138376474,
              0.007600000128149986,
              0.00786666665226221,
              0.008133333176374435,
              0.00839999970048666
            ],
            [
              0.008666666224598885,
              0.008933333680033684,
              0.009200000204145908,
              0.009466666728258133,
              0.009733333252370358,
              0.009999999776482582,
              0.010266666300594807,
              0.010533333756029606,
              0.01080000028014183,
              0.011066666804254055,
              0.01133333332836628,
              0.011599999852478504,
              0.011866666376590729,
              0.012133332900702953,
              0.012400000356137753,
              0.012666666880249977
            ],
            [
              0.012933333404362202,
              0.013199999928474426,
              0.01346666645258665,
              0.013733332976698875,
              0.014000000432133675,
              0.0142666669562459,
              0.014533333480358124,
              0.014800000004470348,
              0.015066666528582573,
              0.015333333052694798,
              0.015599999576807022,
              0.01586666703224182,
              0.01613333262503147,
              0.01640000008046627,
              0.01666666753590107,
              0.01693333312869072
            ],
            [
              0.01720000058412552,
              0.01746666617691517,
              0.017733333632349968,
              0.017999999225139618,
              0.018266666680574417,
              0.018533334136009216,
              0.018799999728798866,
              0.019066667184233665,
              0.019333332777023315,
              0.019600000232458115,
              0.019866665825247765,
              0.020133333280682564,
              0.020400000736117363,
              0.020666666328907013,
              0.020933333784341812,
              0.021199999377131462
            ],
            [
              0.02146666683256626,
              0.02173333242535591,
              0.02199999988079071,
              0.02226666733622551,
              0.02253333292901516,
              0.02280000038444996,
              0.02306666597723961,
              0.023333333432674408,
              0.023600000888109207,
              0.023866666480898857,
              0.024133333936333656,
              0.024399999529123306,
              0.024666666984558105,
              0.024933332577347755,
              0.025200000032782555,
              0.025466667488217354
            ],
            [
              0.025733333081007004,
              0.026000000536441803,
              0.026266666129231453,
              0.026533333584666252,
              0.026799999177455902,
              0.0270666666328907,
              0.0273333340883255,
              0.02759999968111515,
              0.02786666713654995,
              0.0281333327293396,
              0.0284000001847744,
              0.02866666577756405,
              0.028933333232998848,
              0.029200000688433647,
              0.029466666281223297,
              0.029733333736658096
            ],
            [
              0.029999999329447746,
              0.030266666784882545,
              0.030533334240317345,
              0.030799999833106995,
              0.031066667288541794,
              0.03133333474397659,
              0.031599998474121094,
              0.03186666592955589,
              0.03213333338499069,
              0.03240000084042549,
              0.03266666829586029,
              0.03293333202600479,
              0.03319999948143959,
              0.03346666693687439,
              0.03373333439230919,
              0.03400000184774399
            ]
          ]
        ],
        [
          -0.0044999998062849045,
          -0.0038999998942017555,
          -0.0032999999821186066,
          -0.0027000000700354576,
          -0.002099999925121665,
          -0.001500000013038516,
          -0.0008999999845400453,
          -0.0003000000142492354,
          0.0003000000142492354,
          0.0008999999845400453,
          0.001500000013038516,
          0.002099999925121665,
          0.0027000000700354576,
          0.0032999999821186066,
          0.0038999998942017555,
          0.0044999998062849045
        ]
      ]
    },
    {
      "activation": "",
      "dilation": [
        4
      ],
      "groups": 16,
      "input_size": 16,
      "kernel_size": [
        3
      ],
      "output_size": 16,
      "shape": [
        null,
        null,
        16
      ],
      "type": "conv1d",
      "weights": [
        [
          [
            [
              -0.017999999225139618,
              -0.017234042286872864,
              -0.01646808534860611,
              -0.015702128410339355,
              -0.014936170540750027,
              -0.014170212671160698,
              -0.013404255732893944,
              -0.012638297863304615,
              -0.011872339993715286,
              -0.011106383055448532,
              -0.010340425185859203,
              -0.00957446824759245,
              -0.00880851037800312,
              -0.008042553439736366,
              -0.0072765955701470375,
              -0.006510638166218996
            ]
          ],
          [
            [
              -0.005744680762290955,
              -0.004978723358362913,
              -0.004212765954434872,
              -0.00344680855050683,
              -0.0026808511465787888,
              -0.0019148936262354255,
              -0.001148936222307384,
              -0.0003829787310678512,
              0.0003829787310678512,
              0.001148936222307384,
              0.0019148936262354255,
              0.0026808511465787888,
              0.00344680855050683,
              0.004212765954434872,
              0.004978723358362913,
              0.005744680762290955
            ]
          ],
          [
            [
              0.006510638166218996,
              0.0072765955701470375,
              0.008042553439736366,
              0.00880851037800312,
              0.00957446824759245,
              0.010340425185859203,
              0.011106383055448532,
              0.011872339993715286,
              0.012638297863304615,
              0.013404255732893944,
              0.014170212671160698,
              0.014936170540750027,
              0.015702128410339355,
              0.01646808534860611,
              0.017234042286872864,
              0.017999999225139618
            ]
          ]
        ],
        [
          -0.005499999970197678,
          -0.004766666796058416,
          -0.004033333156257868,
          -0.0032999999821186066,
          -0.0025666665751487017,
          -0.0018333332845941186,
          -0.0010999999940395355,
          -0.000366666674381122,
          0.000366666674381122,
          0.0010999999940395355,
          0.0018333332845941186,
          0.0025666665751487017,
          0.0032999999821186066,
          0.004033333156257868,
          0.004766666796058416,
          0.005499999970197678
        ]
      ]
    },
    {
      "activation": "tanh",
      "dilation": [
        1
      ],
      "groups": 1,
      "input_size": 16,
      "kernel_size": [
        1
      ],
      "output_size": 16,
      "shape": [
        null,
        null,
        16
      ],
      "type": "conv1d",
      "weights": [
        [
          [
            [
              -0.02199999988079071,
              -0.02182745188474655,
              -0.021654902026057243,
              -0.021482352167367935,
              -0.021309804171323776,
              -0.021137254312634468,
              -0.02096470631659031,
              -0.020792156457901,
              -0.020619608461856842,
              -0.020447058603167534,
              -0.020274510607123375,
              -0.020101960748434067,
              -0.01992941088974476,
              -0.0197568628937006,
              -0.01958431303501129,
              -0.019411765038967133
            ],
            [
              -0.019239215180277824,
              -0.019066667184233665,
              -0.018894117325544357,
              -0.0187215693295002,
              -0.01854901947081089,
              -0.01837647147476673,
              -0.018203921616077423,
              -0.018031371757388115,
              -0.017858823761343956,
              -0.017686273902654648,
              -0.01751372590661049,
              -0.01734117604792118,
              -0.017168628051877022,
              -0.016996078193187714,
              -0.016823530197143555,
              -0.016650980338454247
            ],
            [
              -0.01647843047976494,
              -0.01630588248372078,
              -0.01613333262503147,
              -0.015960784628987312,
              -0.015788234770298004,
              -0.01561568584293127,
              -0.015443136915564537,
              -0.015270587988197803,
              -0.01509803906083107,
              -0.014925490133464336,
              -0.014752941206097603,
              -0.01458039227873087,
              -0.014407843351364136,
              -0.014235294423997402,
              -0.014062745496630669,
              -0.01389019563794136
            ],
            [
              -0.013717646710574627,
              -0.013545097783207893,
              -0.01337254885584116,
              -0.013199999928474426,
              -0.013027451001107693,
              -0.01285490207374096,
              -0.012682353146374226,
              -0.012509804219007492,
              -0.012337255291640759,
              -0.01216470543295145,
              -0.011992156505584717,
              -0.011819607578217983,
              -0.01164705865085125,
              -0.011474509723484516,
              -0.011301960796117783,
              -0.011129411868751049
            ],
            [
              -0.010956862941384315,
              -0.010784314014017582,
              -0.010611765086650848,
              -0.01043921522796154,
              -0.010266666300594807,
              -0.010094117373228073,
              -0.00992156844586134,
              -0.009749019518494606,
              -0.009576470591127872,
              -0.009403921663761139,
              -0.009231372736394405,
              -0.009058823809027672,
              -0.008886274881660938,
              -0.008713725954294205,
              -0.008541176095604897,
              -0.008368627168238163
            ],
            [
              -0.00819607824087143,
              -0.008023529313504696,
              -0.007850980386137962,
              -0.007678431458771229,
              -0.007505882531404495,
              -0.007333333138376474,
              -0.007160784211009741,
              -0.006988235283643007,
              -0.006815686356276274,
              -0.00664313742890954,
              -0.006470588035881519,
              -0.006298039108514786,
              -0.006125490181148052,
              -0.005952941253781319,
              -0.005780392326414585,
              -0.005607842933386564
            ],
            [
              -0.005435294006019831,
              -0.005262745078653097,
              -0.005090196151286364,
              -0.00491764722391963,
              -0.004745097830891609,
              -0.004572548903524876,
              -0.004399999976158142,
              -0.0042274510487914085,
              -0.004054902121424675,
              -0.0038823529612272978,
              -0.0037098040338605642,
              -0.003537254873663187,
              -0.0033647059462964535,
              -0.0031921567860990763,
              -0.0030196078587323427,
              -0.002847058931365609
            ],
            [
              -0.002674509771168232,
              -0.0025019608438014984,
              -0.002329411683604121,
              -0.0021568627562373877,
              -0.001984313828870654,
              -0.001811764668673277,
              -0.0016392157413065434,
              -0.001466666697524488,
              -0.0012941176537424326,
              -0.0011215686099603772,
              -0.0009490196243859828,
              -0.0007764705806039274,
              -0.0006039215950295329,
              -0.00043137255124747753,
              -0.0002588235365692526,
              -8.627450733911246e-05
            ],
            [
              8.627450733911246e-05,
              0.0002588235365692526,
              0.00043137255124747753,
              0.0006039215950295329,
              0.0007764705806039274,
              0.0009490196243859828,
              0.0011215686099603772,
              0.0012941176537424326,
              0.001466666697524488,
              0.0016392157413065434,
              0.001811764668673277,
              0.001984313828870654,
              0.0021568627562373877,
              0.002329411683604121,
              0.0025019608438014984,
              0.002674509771168232
            ],
            [
              0.002847058931365609,
              0.0030196078587323427,
              0.0031921567860990763,
              0.0033647059462964535,
              0.003537254873663187,
              0.0037098040338605642,
              0.0038823529612272978,
              0.004054902121424675,
              0.0042274510487914085,
              0.004399999976158142,
              0.004572548903524876,
              0.004745097830891609,
              0.00491764722391963,
              0.005090196151286364,
              0.005262745078653097,
              0.005435294006019831
            ],
            [
              0.005607842933386564,
              0.005780392326414585,
              0.005952941253781319,
              0.006125490181148052,
              0.006298039108514786,
              0.006470588035881519,
              0.00664313742890954,
              0.006815686356276274,
              0.006988235283643007,
              0.007160784211009741,
              0.007333333138376474,
              0.007505882531404495,
              0.007678431458771229,
              0.007850980386137962,
              0.008023529313504696,
              0.00819607824087143
            ],
            [
              0.008368627168238163,
              0.008541176095604897,
              0.008713725954294205,
              0.008886274881660938,
              0.009058823809027672,
              0.009231372736394405,
              0.009403921663761139,
              0.009576470591127872,
              0.009749019518494606,
              0.00992156844586134,
              0.010094117373228073,
              0.010266666300594807,
              0.01043921522796154,
              0.010611765086650848,
              0.010784314014017582,
              0.010956862941384315
            ],
            [
              0.011129411868751049,
              0.011301960796117783,
              0.011474509723484516,
              0.01164705865085125,
              0.011819607578217983,
              0.011992156505584717,
              0.01216470543295145,
              0.012337255291640759,
              0.012509804219007492,
              0.012682353146374226,
              0.01285490207374096,
              0.013027451001107693,
              0.013199999928474426,
              0.01337254885584116,
              0.013545097783207893,
              0.013717646710574627
            ],
            [
              0.01389019563794136,
              0.014062745496630669,
              0.014235294423997402,
              0.014407843351364136,
              0.01458039227873087,
              0.014752941206097603,
              0.014925490133464336,
              0.01509803906083107,
              0.015270587988197803,
              0.015443136915564537,
              0.01561568584293127,
              0.015788234770298004,
              0.015960784628987312,
              0.01613333262503147,
              0.01630588248372078,
              0.01647843047976494
            ],
            [
              0.016650980338454247,
              0.016823530197143555,
              0.016996078193187714,
              0.017168628051877022,
              0.01734117604792118,
              0.01751372590661049,
              0.017686273902654648,
              0.017858823761343956,
              0.018031371757388115,
              0.018203921616077423,
              0.01837647147476673,
              0.01854901947081089,
              0.0187215693295002,
              0.018894117325544357,
              0.019066667184233665,
              0.019239215180277824
            ],
            [
              0.019411765038967133,
              0.01958431303501129,
              0.0197568628937006,
              0.01992941088974476,
              0.020101960748434067,
              0.020274510607123375,
              0.020447058603167534,
              0.020619608461856842,
              0.020792156457901,
              0.02096470631659031,
              0.021137254312634468,
              0.021309804171323776,
              0.021482352167367935,
              0.021654902026057243,
              0.02182745188474655,
              0.02199999988079071
            ]
          ]
        ],
        [
          -0.006500000134110451,
          -0.00563333323225379,
          -0.004766666796058416,
          -0.0038999998942017555,
          -0.0030333332251757383,
          -0.002166666556149721,
          -0.0013000000035390258,
          -0.0004333333345130086,
          0.0004333333345130086,
          0.0013000000035390258,
          0.002166666556149721,
          0.0030333332251757383,
          0.0038999998942017555,
          0.004766666796058416,
          0.00563333323225379,
          0.006500000134110451
        ]
      ]
    },
    {
      "activation": "",
      "dilation": [
        8
      ],
      "groups": 16,
      "input_size": 16,
      "kernel_size": [
        3
      ],
      "output_size": 16,
      "shape": [
        null,
        null,
        16
      ],
      "type": "conv1d",
      "weights": [
        [
          [
            [
              -0.026000000536441803,
              -0.024893617257475853,
              -0.023787233978509903,
              -0.022680850699543953,
              -0.021574467420578003,
              -0.020468086004257202,
              -0.019361702725291252,
              -0.018255319446325302,
              -0.017148936167359352,
              -0.016042552888393402,
              -0.014936170540750027,
              -0.013829787261784077,
              -0.012723403982818127,
              -0.011617021635174751,
              -0.010510638356208801,
              -0.009404255077242851
            ]
          ],
          [
            [
              -0.008297872729599476,
              -0.007191489450633526,
              -0.006085106171667576,
              -0.004978723358362913,
              -0.0038723403122276068,
              -0.002765957498922944,
              -0.0016595744527876377,
              -0.0005531914648599923,
              0.0005531914648599923,
              0.0016595744527876377,
              0.002765957498922944,
              0.0038723403122276068,
              0.004978723358362913,
              0.006085106171667576,
              0.007191489450633526,
              0.008297872729599476
            ]
          ],
          [
            [
              0.009404255077242851,
              0.010510638356208801,
              0.011617021635174751,
              0.012723403982818127,
              0.013829787261784077,
              0.014936170540750027,
              0.016042552888393402,
              0.017148936167359352,
              0.018255319446325302,
              0.019361702725291252,
              0.020468086004257202,
              0.021574467420578003,
              0.022680850699543953,
              0.023787233978509903,
              0.024893617257475853,
              0.026000000536441803
            ]
          ]
        ],
        [
          -0.007499999832361937,
          -0.006500000134110451,
          -0.005499999970197678,
          -0.0044999998062849045,
          -0.0035000001080334187,
          -0.0024999999441206455,
          -0.001500000013038516,
          -0.0005000000237487257,
          0.0005000000237487257,
          0.001500000013038516,
          0.0024999999441206455,
          0.0035000001080334187,
          0.0044999998062849045,
          0.005499999970197678,
          0.006500000134110451,
          0.007499999832361937
        ]
      ]
    },
    {
      "activation": "tanh",
      "dilation": [
        1
      ],
      "groups": 1,
      "input_size": 16,
      "kernel_size": [
        1
      ],
      "output_size": 16,
      "shape": [
        null,
        null,
        16
      ],
      "type": "conv1d",
      "weights": [
        [
          [
            [
              -0.029999999329447746,
              -0.029764706268906593,
              -0.02952941134572029,
              -0.029294118285179138,
              -0.029058823361992836,
              -0.028823530301451683,
              -0.02858823537826538,
              -0.02835294045507908,
              -0.028117647394537926,
              -0.027882352471351624,
              -0.02764705941081047,
              -0.02741176448762417,
              -0.027176471427083015,
              -0.026941176503896713,
              -0.02670588158071041,
              -0.026470588520169258
            ],
            [
              -0.026235293596982956,
              -0.026000000536441803,
              -0.0257647056132555,
              -0.025529412552714348,
              -0.025294117629528046,
              -0.025058822706341743,
              -0.02482352964580059,
              -0.02458823472261429,
              -0.024352941662073135,
              -0.024117646738886833,
              -0.02388235367834568,
              -0.023647058755159378,
              -0.023411763831973076,
              -0.023176470771431923,
              -0.02294117584824562,
              -0.022705882787704468
            ],
            [
              -0.022470587864518166,
              -0.022235294803977013,
              -0.02199999988079071,
              -0.021764704957604408,
              -0.021529411897063255,
              -0.021294116973876953,
              -0.0210588239133358,
              -0.020823528990149498,
              -0.020588235929608345,
              -0.020352941006422043,
              -0.02011764794588089,
              -0.019882353022694588,
              -0.019647058099508286,
              -0.019411765038967133,
              -0.01917647011578083,
              -0.018941177055239677
            ],
            [
              -0.018705882132053375,
              -0.018470589071512222,
              -0.01823529414832592,
              -0.017999999225139618,
              -0.017764706164598465,
              -0.017529411241412163,
              -0.01729411818087101,
              -0.017058823257684708,
              -0.016823530197143555,
              -0.016588235273957253,
              -0.01635294035077095,
              -0.016117647290229797,
              -0.015882352367043495,
              -0.015647059306502342,
              -0.01541176438331604,
              -0.015176470391452312
            ],
            [
              -0.014941176399588585,
              -0.014705882407724857,
              -0.01447058841586113,
              -0.014235294423997402,
              -0.014000000432133675,
              -0.013764705508947372,
              -0.013529411517083645,
              -0.013294117525219917,
              -0.01305882353335619,
              -0.012823529541492462,
              -0.012588235549628735,
              -0.012352941557765007,
              -0.012117646634578705,
              -0.011882352642714977,
              -0.01164705865085125,
              -0.011411764658987522
            ],
            [
              -0.011176470667123795,
              -0.010941176675260067,
              -0.01070588268339634,
              -0.010470588691532612,
              -0.01023529376834631,
              -0.009999999776482582,
              -0.009764705784618855,
              -0.009529411792755127,
              -0.0092941178008914,
              -0.009058823809027672,
              -0.008823529817163944,
              -0.008588234893977642,
              -0.008352940902113914,
              -0.008117646910250187,
              -0.00788235291838646,
              -0.007647058926522732
            ],
            [
              -0.007411764934659004,
              -0.007176470477133989,
              -0.006941176485270262,
              -0.006705882493406534,
              -0.006470588035881519,
              -0.006235294044017792,
              -0.006000000052154064,
              -0.005764706060290337,
              -0.005529411602765322,
              -0.005294117610901594,
              -0.005058823619037867,
              -0.004823529627174139,
              -0.004588235169649124,
              -0.004352941177785397,
              -0.004117647185921669,
              -0.0038823529612272978
            ],
            [
              -0.0036470587365329266,
              -0.003411764744669199,
              -0.0031764705199748278,
              -0.0029411765281111,
              -0.002705882303416729,
              -0.0024705883115530014,
              -0.00223529408685863,
              -0.0020000000949949026,
              -0.0017647058703005314,
              -0.001529411762021482,
              -0.0012941176537424326,
              -0.0010588235454633832,
              -0.0008235294371843338,
              -0.0005882352706976235,
              -0.0003529411624185741,
              -0.00011764706141548231
            ],
            [
              0.00011764706141548231,
              0.0003529411624185741,
              0.0005882352706976235,
              0.0008235294371843338,
              0.0010588235454633832,
              0.0012941176537424326,
              0.001529411762021482,
              0.0017647058703005314,
              0.0020000000949949026,
              0.00223529408685863,
              0.0024705883115530014,
              0.002705882303416729,
              0.0029411765281111,
              0.0031764705199748278,
              0.003411764744669199,
              0.0036470587365329266
            ],
            [
              0.0038823529612272978,
              0.004117647185921669,
              0.004352941177785397,
              0.004588235169649124,
              0.004823529627174139,
              0.005058823619037867,
              0.005294117610901594,
              0.005529411602765322,
              0.005764706060290337,
              0.006000000052154064,
              0.006235294044017792,
              0.006470588035881519,
              0.006705882493406534,
              0.006941176485270262,
              0.007176470477133989,
              0.007411764934659004
            ],
            [
              0.007647058926522732,
              0.00788235291838646,
              0.008117646910250187,
              0.008352940902113914,
              0.008588234893977642,
              0.008823529817163944,
              0.009058823809027672,
              0.0092941178008914,
              0.009529411792755127,
              0.009764705784618855,
              0.009999999776482582,
              0.01023529376834631,
              0.010470588691532612,
              0.01070588268339634,
              0.010941176675260067,
              0.011176470667123795
            ],
            [
              0.011411764658987522,
              0.01164705865085125,
              0.011882352642714977,
              0.012117646634578705,
              0.012352941557765007,
              0.012588235549628735,
              0.012823529541492462,
              0.01305882353335619,
              0.013294117525219917,
              0.013529411517083645,
              0.013764705508947372,
              0.014000000432133675,
              0.014235294423997402,
              0.01447058841586113,
              0.014705882407724857,
              0.014941176399588585
            ],
            [
              0.015176470391452312,
              0.01541176438331604,
              0.015647059306502342,
              0.015882352367043495,
              0.016117647290229797,
              0.01635294035077095,
              0.016588235273957253,
              0.016823530197143555,
              0.017058823257684708,
              0.01729411818087101,
              0.017529411241412163,
              0.017764706164598465,
              0.017999999225139618,
              0.01823529414832592,
              0.018470589071512222,
              0.018705882132053375
            ],
            [
              0.018941177055239677,
              0.01917647011578083,
              0.019411765038967133,
              0.019647058099508286,
              0.019882353022694588,
              0.02011764794588089,
              0.020352941006422043,
              0.020588235929608345,
              0.020823528990149498,
              0.0210588239133358,
              0.021294116973876953,
              0.021529411897063255,
              0.021764704957604408,
              0.02199999988079071,
              0.022235294803977013,
              0.022470587864518166
            ],
            [
              0.022705882787704468,
              0.02294117584824562,
              0.023176470771431923,
              0.023411763831973076,
              0.023647058755159378,
              0.02388235367834568,
              0.024117646738886833,
              0.024352941662073135,
              0.02458823472261429,
              0.02482352964580059,
              0.025058822706341743,
              0.025294117629528046,
              0.025529412552714348,
              0.0257647056132555,
              0.026000000536441803,
              0.026235293596982956
            ],
            [
              0.026470588520169258,
              0.02670588158071041,
              0.026941176503896713,
              0.027176471427083015,
              0.02741176448762417,
              0.02764705941081047,
              0.027882352471351624,
              0.028117647394537926,
              0.02835294045507908,
              0.02858823537826538,
              0.028823530301451683,
              0.029058823361992836,
              0.029294118285179138,
              0.02952941134572029,
              0.029764706268906593,
              0.029999999329447746
            ]
          ]
        ],
        [
          -0.008500000461935997,
          -0.007366666570305824,
          -0.006233333144336939,
          -0.005100000184029341,
          -0.003966666758060455,
          -0.00283333333209157,
          -0.0017000000225380063,
          -0.0005666666547767818,
          0.0005666666547767818,
          0.0017000000225380063,
          0.00283333333209157,
          0.003966666758060455,
          0.005100000184029341,
          0.006233333144336939,
          0.007366666570305824,
          0.008500000461935997
        ]
      ]
    },
    {
      "activation": "",
      "dilation": [
        16
      ],
      "groups": 16,
      "input_size": 16,
      "kernel_size": [
        3
      ],
      "output_size": 16,
      "shape": [
        null,
        null,
        16
      ],
      "type": "conv1d",
      "weights": [
        [
          [
            [
              -0.03400000184774399,
              -0.03255319222807884,
              -0.031106382608413696,
              -0.0296595748513937,
              -0.028212765231728554,
              -0.026765957474708557,
              -0.02531914971768856,
              -0.023872340098023415,
              -0.022425532341003418,
              -0.020978722721338272,
              -0.019531914964318275,
              -0.01808510720729828,
              -0.016638297587633133,
              -0.015191488899290562,
              -0.013744681142270565,
              -0.012297872453927994
            ]
          ],
          [
            [
              -0.010851063765585423,
              -0.009404255077242851,
              -0.00795744638890028,
              -0.006510638166218996,
              -0.005063829943537712,
              -0.003617021255195141,
              -0.0021702127996832132,
              -0.0007234042277559638,
              0.0007234042277559638,
              0.0021702127996832132,
              0.003617021255195141,
              0.005063829943537712,
              0.006510638166218996,
              0.00795744638890028,
              0.009404255077242851,
              0.010851063765585423
            ]
          ],
          [
            [
              0.012297872453927994,
              0.013744681142270565,
              0.015191488899290562,
              0.016638297587633133,
              0.01808510720729828,
              0.019531914964318275,
              0.020978722721338272,
              0.022425532341003418,
              0.023872340098023415,
              0.02531914971768856,
              0.026765957474708557,
              0.028212765231728554,
              0.0296595748513937,
              0.031106382608413696,
              0.03255319222807884,
              0.03400000184774399
            ]
          ]
        ],
        [
          -0.0044999998062849045,
          -0.0038999998942017555,
          -0.0032999999821186066,
          -0.0027000000700354576,
          -0.002099999925121665,
          -0.001500000013038516,
          -0.0008999999845400453,
          -0.0003000000142492354,
          0.0003000000142492354,
          0.0008999999845400453,
          0.001500000013038516,
          0.002099999925121665,
          0.0027000000700354576,
          0.0032999999821186066,
          0.0038999998942017555,
          0.0044999998062849045
        ]
      ]
    },
    {
      "activation": "tanh",
      "dilation": [
        1
      ],
      "groups": 1,
      "input_size": 16,
      "kernel_size": [
        1
      ],
      "output_size": 16,
      "shape": [
        null,
        null,
        16
      ],
      "type": "conv1d",
      "weights": [
        [
          [
            [
              -0.017999999225139618,
              -0.017858823761343956,
              -0.017717646434903145,
              -0.017576470971107483,
              -0.017435293644666672,
              -0.01729411818087101,
              -0.0171529408544302,
              -0.017011765390634537,
              -0.016870588064193726,
              -0.016729412600398064,
              -0.016588235273957253,
              -0.01644705794751644,
              -0.01630588248372078,
              -0.016164705157279968,
              -0.016023529693484306,
              -0.015882352367043495
            ],
            [
              -0.015741176903247833,
              -0.015599999576807022,
              -0.015458823181688786,
              -0.015317646786570549,
              -0.015176470391452312,
              -0.015035293996334076,
              -0.01489411760121584,
              -0.014752941206097603,
              -0.014611764810979366,
              -0.01447058841586113,
              -0.014329412020742893,
              -0.014188235625624657,
              -0.01404705923050642,
              -0.013905881904065609,
              -0.013764705508947372,
              -0.013623529113829136
            ],
            [
              -0.0134823527187109,
              -0.013341176323592663,
              -0.013199999928474426,
              -0.01305882353335619,
              -0.012917647138237953,
              -0.012776470743119717,
              -0.01263529434800148,
              -0.012494117952883244,
              -0.012352941557765007,
              -0.01221176516264677,
              -0.01207058783620596,
              -0.011929411441087723,
              -0.011788235045969486,
              -0.01164705865085125,
              -0.011505882255733013,
              -0.011364705860614777
            ],
            [
              -0.01122352946549654,
              -0.011082353070378304,
              -0.010941176675260067,
              -0.01080000028014183,
              -0.010658823885023594,
              -0.010517647489905357,
              -0.010376470163464546,
              -0.01023529376834631,
              -0.010094117373228073,
              -0.009952940978109837,
              -0.0098117645829916,
              -0.009670588187873363,
              -0.009529411792755127,
              -0.00938823539763689,
              -0.009247059002518654,
              -0.009105882607400417
            ],
            [
              -0.00896470621228218,
              -0.008823529817163944,
              -0.008682352490723133,
              -0.008541176095604897,
              -0.00839999970048666,
              -0.008258823305368423,
              -0.008117646910250187,
              -0.00797647051513195,
              -0.007835294120013714,
              -0.007694117724895477,
              -0.007552941329777241,
              -0.007411764934659004,
              -0.00727058807387948,
              -0.007129411678761244,
              -0.006988235283643007,
              -0.006847058888524771
            ],
            [
              -0.006705882493406534,
              -0.006564706098288298,
              -0.006423529237508774,
              -0.006282352842390537,
              -0.006141176447272301,
              -0.006000000052154064,
              -0.005858823657035828,
              -0.005717647261917591,
              -0.005576470401138067,
              -0.005435294006019831,
              -0.005294117610901594,
              -0.005152941215783358,
              -0.005011764820665121,
              -0.0048705884255468845,
              -0.004729411564767361,
              -0.004588235169649124
            ],
            [
              -0.004447058774530888,
              -0.004305882379412651,
              -0.0041647059842944145,
              -0.004023529589176178,
              -0.0038823529612272978,
              -0.0037411765661090612,
              -0.003599999938160181,
              -0.0034588235430419445,
              -0.003317647147923708,
              -0.0031764705199748278,
              -0.0030352941248565912,
              -0.0028941177297383547,
              -0.0027529411017894745,
              -0.002611764706671238,
              -0.0024705883115530014,
              -0.002329411683604121
            ],
            [
              -0.0021882352884858847,
              -0.002047058893367648,
              -0.0019058823818340898,
              -0.0017647058703005314,
              -0.001623529358766973,
              -0.0014823529636487365,
              -0.001341176452115178,
              -0.0012000000569969416,
              -0.0010588235454633832,
              -0.0009176470339298248,
              -0.0007764705806039274,
              -0.0006352941272780299,
              -0.0004941176739521325,
              -0.0003529411624185741,
              -0.00021176470909267664,
              -7.058823393890634e-05
            ],
            [
              7.058823393890634e-05,
              0.00021176470909267664,
              0.0003529411624185741,
              0.0004941176739521325,
              0.0006352941272780299,
              0.0007764705806039274,
              0.0009176470339298248,
              0.0010588235454633832,
              0.0012000000569969416,
              0.001341176452115178,
              0.0014823529636487365,
              0.001623529358766973,
              0.0017647058703005314,
              0.0019058823818340898,
              0.002047058893367648,
              0.0021882352884858847
            ],
            [
              0.002329411683604121,
              0.0024705883115530014,
              0.002611764706671238,
              0.0027529411017894745,
              0.0028941177297383547,
              0.0030352941248565912,
              0.0031764705199748278,
              0.003317647147923708,
              0.0034588235430419445,
              0.003599999938160181,
              0.0037411765661090612,
              0.0038823529612272978,
              0.004023529589176178,
              0.0041647059842944145,
              0.004305882379412651,
              0.004447058774530888
            ],
            [
              0.004588235169649124,
              0.004729411564767361,
              0.0048705884255468845,
              0.005011764820665121,
              0.005152941215783358,
              0.005294117610901594,
              0.005435294006019831,
              0.005576470401138067,
              0.005717647261917591,
              0.005858823657035828,
              0.006000000052154064,
              0.006141176447272301,
              0.006282352842390537,
              0.006423529237508774,
              0.006564706098288298,
              0.006705882493406534
            ],
            [
              0.006847058888524771,
              0.006988235283643007,
              0.007129411678761244,
              0.00727058807387948,
              0.007411764934659004,
              0.007552941329777241,
              0.007694117724895477,
              0.007835294120013714,
              0.00797647051513195,
              0.008117646910250187,
              0.008258823305368423,
              0.00839999970048666,
              0.008541176095604897,
              0.008682352490723133,
              0.008823529817163944,
              0.00896470621228218
            ],
            [
              0.009105882607400417,
              0.009247059002518654,
              0.00938823539763689,
              0.009529411792755127,
              0.009670588187873363,
              0.0098117645829916,
              0.009952940978109837,
              0.010094117373228073,
              0.01023529376834631,
              0.010376470163464546,
              0.010517647489905357,
              0.010658823885023594,
              0.01080000028014183,
              0.010941176675260067,
              0.011082353070378304,
              0.01122352946549654
            ],
            [
              0.011364705860614777,
              0.011505882255733013,
              0.01164705865085125,
              0.011788235045969486,
              0.011929411441087723,
              0.01207058783620596,
              0.01221176516264677,
              0.012352941557765007,
              0.012494117952883244,
              0.01263529434800148,
              0.012776470743119717,
              0.012917647138237953,
              0.01305882353335619,
              0.013199999928474426,
              0.013341176323592663,
              0.0134823527187109
            ],
            [
              0.013623529113829136,
              0.013764705508947372,
              0.013905881904065609,
              0.01404705923050642,
              0.014188235625624657,
              0.014329412020742893,
              0.01447058841586113,
              0.014611764810979366,
              0.014752941206097603,
              0.01489411760121584,
              0.015035293996334076,
              0.015176470391452312,
              0.015317646786570549,
              0.015458823181688786,
              0.015599999576807022,
              0.015741176903247833
            ],
            [
              0.015882352367043495,
              0.016023529693484306,
              0.016164705157279968,
              0.01630588248372078,
              0.01644705794751644,
              0.016588235273957253,
              0.016729412600398064,
              0.016870588064193726,
              0.017011765390634537,
              0.0171529408544302,
              0.01729411818087101,
              0.017435293644666672,
              0.017576470971107483,
              0.017717646434903145,
              0.017858823761343956,
              0.017999999225139618
            ]
          ]
        ],
        [
          -0.005499999970197678,
          -0.004766666796058416,
          -0.004033333156257868,
          -0.0032999999821186066,
          -0.0025666665751487017,
          -0.0018333332845941186,
          -0.0010999999940395355,
          -0.000366666674381122,
          0.000366666674381122,
          0.0010999999940395355,
          0.0018333332845941186,
          0.0025666665751487017,
          0.0032999999821186066,
          0.004033333156257868,
          0.004766666796058416,
          0.005499999970197678
        ]
      ]
    },
    {
      "activation": "",
      "dilation": [
        32
      ],
      "groups": 16,
      "input_size": 16,
      "kernel_size": [
        3
      ],
      "output_size": 16,
      "shape": [
        null,
        null,
        16
      ],
      "type": "conv1d",
      "weights": [
        [
          [
            [
              -0.02199999988079071,
              -0.021063830703496933,
              -0.020127659663558006,
              -0.01919148862361908,
              -0.018255319446325302,
              -0.017319148406386375,
              -0.016382979229092598,
              -0.015446808189153671,
              -0.01451063808053732,
              -0.013574467971920967,
              -0.012638297863304615,
              -0.011702127754688263,
              -0.01076595764607191,
              -0.009829787537455559,
              -0.008893617428839207,
              -0.00795744638890028
            ]
          ],
          [
            [
              -0.007021276745945215,
              -0.006085106171667576,
              -0.005148936063051224,
              -0.004212765954434872,
              -0.0032765958458185196,
              -0.002340425504371524,
              -0.00140425527933985,
              -0.00046808511251583695,
              0.00046808511251583695,
              0.00140425527933985,
              0.002340425504371524,
              0.0032765958458185196,
              0.004212765954434872,
              0.005148936063051224,
              0.006085106171667576,
              0.007021276745945215
            ]
          ],
          [
            [
              0.00795744638890028,
              0.008893617428839207,
              0.009829787537455559,
              0.01076595764607191,
              0.011702127754688263,
              0.012638297863304615,
              0.013574467971920967,
              0.01451063808053732,
              0.015446808189153671,
              0.016382979229092598,
              0.017319148406386375,
              0.018255319446325302,
              0.01919148862361908,
              0.020127659663558006,
              0.021063830703496933,
              0.02199999988079071
            ]
          ]
        ],
        [
          -0.006500000134110451,
          -0.00563333323225379,
          -0.004766666796058416,
          -0.0038999998942017555,
          -0.0030333332251757383,
          -0.002166666556149721,
          -0.0013000000035390258,
          -0.0004333333345130086,
          0.0004333333345130086,
          0.0013000000035390258,
          0.002166666556149721,
          0.0030333332251757383,
          0.0038999998942017555,
          0.004766666796058416,
          0.00563333323225379,
          0.006500000134110451
        ]
      ]
    },
    {
      "activation": "tanh",
      "dilation": [
        1
      ],
      "groups": 1,
      "input_size": 16,
      "kernel_size": [
        1
      ],
      "output_size": 16,
      "shape": [
        null,
        null,
        16
      ],
      "type": "conv1d",
      "weights": [
        [
          [
            [
              -0.026000000536441803,
              -0.025796078145503998,
              -0.025592157617211342,
              -0.025388235226273537,
              -0.02518431283533573,
              -0.024980392307043076,
              -0.02477646991610527,
              -0.024572549387812614,
              -0.02436862699687481,
              -0.024164706468582153,
              -0.023960784077644348,
              -0.023756863549351692,
              -0.023552941158413887,
              -0.023349018767476082,
              -0.023145098239183426,
              -0.02294117584824562
            ],
            [
              -0.022737255319952965,
              -0.02253333292901516,
              -0.022329412400722504,
              -0.0221254900097847,
              -0.021921569481492043,
              -0.021717647090554237,
              -0.021513724699616432,
              -0.021309804171323776,
              -0.02110588178038597,
              -0.020901961252093315,
              -0.02069803886115551,
              -0.020494118332862854,
              -0.02029019594192505,
              -0.020086275413632393,
              -0.019882353022694588,
              -0.019678430631756783
            ],
            [
              -0.019474510103464127,
              -0.01927058771252632,
              -0.019066667184233665,
              -0.01886274479329586,
              -0.018658824265003204,
              -0.0184549018740654,
              -0.018250979483127594,
              -0.018047058954834938,
              -0.017843136563897133,
              -0.017639216035604477,
              -0.017435293644666672,
              -0.017231373116374016,
              -0.01702745072543621,
              -0.016823530197143555,
              -0.01661960780620575,
              -0.016415685415267944
            ],
            [
              -0.01621176488697529,
              -0.016007842496037483,
              -0.015803921967744827,
              -0.015599999576807022,
              -0.015396078117191792,
              -0.015192156657576561,
              -0.01498823519796133,
              -0.0147843137383461,
              -0.01458039227873087,
              -0.014376470819115639,
              -0.014172549359500408,
              -0.013968627899885178,
              -0.013764705508947372,
              -0.013560784049332142,
              -0.013356862589716911,
              -0.01315294113010168
            ],
            [
              -0.01294901967048645,
              -0.01274509821087122,
              -0.012541176751255989,
              -0.012337255291640759,
              -0.012133332900702953,
              -0.011929411441087723,
              -0.011725489981472492,
              -0.011521568521857262,
              -0.011317647062242031,
              -0.0111137256026268,
              -0.01090980414301157,
              -0.01070588268339634,
              -0.010501961223781109,
              -0.010298038832843304,
              -0.010094117373228073,
              -0.009890195913612843
            ],
            [
              -0.009686274453997612,
              -0.009482352994382381,
              -0.009278431534767151,
              -0.00907451007515192,
              -0.00887058861553669,
              -0.008666666224598885,
              -0.008462744764983654,
              -0.008258823305368423,
              -0.008054901845753193,
              -0.007850980386137962,
              -0.007647058926522732,
              -0.007443137466907501,
              -0.007239215541630983,
              -0.007035294082015753,
              -0.006831372622400522,
              -0.006627451162785292
            ],
            [
              -0.006423529237508774,
              -0.006219607777893543,
              -0.006015686318278313,
              -0.005811764858663082,
              -0.005607842933386564,
              -0.005403921473771334,
              -0.005200000014156103,
              -0.004996078554540873,
              -0.004792157094925642,
              -0.004588235169649124,
              -0.004384313710033894,
              -0.004180392250418663,
              -0.0039764707908034325,
              -0.0037725490983575583,
              -0.003568627405911684,
              -0.0033647059462964535
            ],
            [
              -0.0031607842538505793,
              -0.0029568627942353487,
              -0.0027529411017894745,
              -0.002549019642174244,
              -0.0023450979497283697,
              -0.002141176490113139,
              -0.0019372549140825868,
              -0.0017333333380520344,
              -0.001529411762021482,
              -0.0013254901859909296,
              -0.0011215686099603772,
              -0.0009176470339298248,
              -0.0007137255161069334,
              -0.000509803940076381,
              -0.0003058823640458286,
              -0.00010196078073931858
            ],
            [
              0.00010196078073931858,
              0.0003058823640458286,
              0.000509803940076381,
              0.0007137255161069334,
              0.0009176470339298248,
              0.0011215686099603772,
              0.0013254901859909296,
              0.001529411762021482,
              0.0017333333380520344,
              0.0019372549140825868,
              0.002141176490113139,
              0.0023450979497283697,
              0.002549019642174244,
              0.0027529411017894745,
              0.0029568627942353487,
              0.0031607842538505793
            ],
            [
              0.0033647059462964535,
              0.003568627405911684,
              0.0037725490983575583,
              0.0039764707908034325,
              0.004180392250418663,
              0.004384313710033894,
              0.004588235169649124,
              0.004792157094925642,
              0.004996078554540873,
              0.005200000014156103,
              0.005403921473771334,
              0.005607842933386564,
              0.005811764858663082,
              0.006015686318278313,
              0.006219607777893543,
              0.006423529237508774
            ],
            [
              0.006627451162785292,
              0.006831372622400522,
              0.007035294082015753,
              0.007239215541630983,
              0.007443137466907501,
              0.007647058926522732,
              0.007850980386137962,
              0.008054901845753193,
              0.008258823305368423,
              0.008462744764983654,
              0.008666666224598885,
              0.00887058861553669,
              0.00907451007515192,
              0.009278431534767151,
              0.009482352994382381,
              0.009686274453997612
            ],
            [
              0.009890195913612843,
              0.010094117373228073,
              0.010298038832843304,
              0.010501961223781109,
              0.01070588268339634,
              0.01090980414301157,
              0.0111137256026268,
              0.011317647062242031,
              0.011521568521857262,
              0.011725489981472492,
              0.011929411441087723,
              0.012133332900702953,
              0.012337255291640759,
              0.012541176751255989,
              0.01274509821087122,
              0.01294901967048645
            ],
            [
              0.01315294113010168,
              0.013356862589716911,
              0.013560784049332142,
              0.013764705508947372,
              0.013968627899885178,
              0.014172549359500408,
              0.014376470819115639,
              0.01458039227873087,
              0.0147843137383461,
              0.01498823519796133,
              0.015192156657576561,
              0.015396078117191792,
              0.015599999576807022,
              0.015803921967744827,
              0.016007842496037483,
              0.01621176488697529
            ],
            [
              0.016415685415267944,
              0.01661960780620575,
              0.016823530197143555,
              0.01702745072543621,
              0.017231373116374016,
              0.017435293644666672,
              0.017639216035604477,
              0.017843136563897133,
              0.018047058954834938,
              0.018250979483127594,
              0.0184549018740654,
              0.018658824265003204,
              0.01886274479329586,
              0.019066667184233665,
              0.01927058771252632,
              0.019474510103464127
            ],
            [
              0.019678430631756783,
              0.019882353022694588,
              0.020086275413632393,
              0.02029019594192505,
              0.020494118332862854,
              0.02069803886115551,
              0.020901961252093315,
              0.02110588178038597,
              0.021309804171323776,
              0.021513724699616432,
              0.021717647090554237,
              0.021921569481492043,
              0.0221254900097847,
              0.022329412400722504,
              0.02253333292901516,
              0.022737255319952965
            ],
            [
              0.02294117584824562,
              0.023145098239183426,
              0.023349018767476082,
              0.023552941158413887,
              0.023756863549351692,
              0.023960784077644348,
              0.024164706468582153,
              0.02436862699687481,
              0.024572549387812614,
              0.02477646991610527,
              0.024980392307043076,
              0.02518431283533573,
              0.025388235226273537,
              0.025592157617211342,
              0.025796078145503998,
              0.026000000536441803
            ]
          ]
        ],
        [
          -0.007499999832361937,
          -0.006500000134110451,
          -0.005499999970197678,
          -0.0044999998062849045,
          -0.0035000001080334187,
          -0.0024999999441206455,
          -0.001500000013038516,
          -0.0005000000237487257,
          0.0005000000237487257,
          0.001500000013038516,
          0.0024999999441206455,
          0.0035000001080334187,
          0.0044999998062849045,
          0.005499999970197678,
          0.006500000134110451,
          0.007499999832361937
        ]
      ]
    },
    {
      "activation": "",
      "dilation": [
        64
      ],
      "groups": 16,
      "input_size": 16,
      "kernel_size": [
        3
      ],
      "output_size": 16,
      "shape": [
        null,
        null,
        16
      ],
      "type": "conv1d",
      "weights": [
        [
          [
            [
              -0.029999999329447746,
              -0.028723403811454773,
              -0.0274468082934618,
              -0.026170212775468826,
              -0.024893617257475853,
              -0.02361702173948288,
              -0.022340426221489906,
              -0.021063830703496933,
              -0.01978723332285881,
              -0.018510637804865837,
              -0.017234042286872864,
              -0.01595744676887989,
              -0.014680851250886917,
              -0.013404255732893944,
              -0.012127659283578396,
              -0.010851063765585423
            ]
          ],
          [
            [
              -0.00957446824759245,
              -0.008297872729599476,
              -0.007021276745945215,
              -0.005744680762290955,
              -0.004468085244297981,
              -0.0031914892606437206,
              -0.0019148936262354255,
              -0.0006382978754118085,
              0.0006382978754118085,
              0.0019148936262354255,
              0.0031914892606437206,
              0.004468085244297981,
              0.005744680762290955,
              0.007021276745945215,
              0.008297872729599476,
              0.00957446824759245
            ]
          ],
          [
            [
              0.010851063765585423,
              0.012127659283578396,
              0.013404255732893944,
              0.014680851250886917,
              0.01595744676887989,
              0.017234042286872864,
              0.018510637804865837,
              0.01978723332285881,
              0.021063830703496933,
              0.022340426221489906,
              0.02361702173948288,
              0.024893617257475853,
              0.026170212775468826,
              0.0274468082934618,
              0.028723403811454773,
              0.029999999329447746
            ]
          ]
        ],
        [
          -0.008500000461935997,
          -0.007366666570305824,
          -0.006233333144336939,
          -0.005100000184029341,
          -0.003966666758060455,
          -0.00283333333209157,
          -0.0017000000225380063,
          -0.0005666666547767818,
          0.0005666666547767818,
          0.0017000000225380063,
          0.00283333333209157,
          0.003966666758060455,
          0.005100000184029341,
          0.006233333144336939,
          0.007366666570305824,
          0.008500000461935997
        ]
      ]
    },
    {
      "activation": "tanh",
      "dilation": [
        1
      ],
      "groups": 1,
      "input_size": 16,
      "kernel_size": [
        1
      ],
      "output_size": 16,
      "shape": [
        null,
        null,
        16
      ],
      "type": "conv1d",
      "weights": [
        [
          [
            [
              -0.03400000184774399,
              -0.03373333439230919,
              -0.03346666693687439,
              -0.03319999948143959,
              -0.03293333202600479,
              -0.03266666829586029,
              -0.03240000084042549,
              -0.03213333338499069,
              -0.03186666592955589,
              -0.031599998474121094,
              -0.03133333474397659,
              -0.031066667288541794,
              -0.030799999833106995,
              -0.030533334240317345,
              -0.030266666784882545,
              -0.029999999329447746
            ],
            [
              -0.029733333736658096,
              -0.029466666281223297,
              -0.029200000688433647,
              -0.028933333232998848,
              -0.02866666577756405,
              -0.0284000001847744,
              -0.0281333327293396,
              -0.02786666713654995,
              -0.02759999968111515,
              -0.0273333340883255,
              -0.0270666666328907,
              -0.026799999177455902,
              -0.026533333584666252,
              -0.026266666129231453,
              -0.026000000536441803,
              -0.025733333081007004
            ],
            [
              -0.025466667488217354,
              -0.025200000032782555,
              -0.024933332577347755,
              -0.024666666984558105,
              -0.024399999529123306,
              -0.024133333936333656,
              -0.023866666480898857,
              -0.023600000888109207,
              -0.023333333432674408,
              -0.02306666597723961,
              -0.02280000038444996,
              -0.02253333292901516,
              -0.02226666733622551,
              -0.02199999988079071,
              -0.02173333242535591,
              -0.02146666683256626
            ],
            [
              -0.021199999377131462,
              -0.020933333784341812,
              -0.020666666328907013,
              -0.020400000736117363,
              -0.020133333280682564,
              -0.019866665825247765,
              -0.019600000232458115,
              -0.019333332777023315,
              -0.019066667184233665,
              -0.018799999728798866,
              -0.018533334136009216,
              -0.018266666680574417,
              -0.017999999225139618,
              -0.017733333632349968,
              -0.01746666617691517,
              -0.01720000058412552
            ],
            [
              -0.01693333312869072,
              -0.01666666753590107,
              -0.01640000008046627,
              -0.01613333262503147,
              -0.01586666703224182,
              -0.015599999576807022,
              -0.015333333052694798,
              -0.015066666528582573,
              -0.014800000004470348,
              -0.014533333480358124,
              -0.0142666669562459,
              -0.014000000432133675,
              -0.013733332976698875,
              -0.01346666645258665,
              -0.013199999928474426,
              -0.012933333404362202
            ],
            [
              -0.012666666880249977,
              -0.012400000356137753,
              -0.012133332900702953,
              -0.011866666376590729,
              -0.011599999852478504,
              -0.01133333332836628,
              -0.011066666804254055,
              -0.01080000028014183,
              -0.010533333756029606,
              -0.010266666300594807,
              -0.009999999776482582,
              -0.009733333252370358,
              -0.009466666728258133,
              -0.009200000204145908,
              -0.008933333680033684,
              -0.008666666224598885
            ],
            [
              -0.00839999970048666,
              -0.008133333176374435,
              -0.00786666665226221,
              -0.007600000128149986,
              -0.007333333138376474,
              -0.00706666661426425,
              -0.006800000090152025,
              -0.006533333566039801,
              -0.006266666576266289,
              -0.006000000052154064,
              -0.00573333352804184,
              -0.005466666538268328,
              -0.005200000014156103,
              -0.0049333334900438786,
              -0.004666666500270367,
              -0.004399999976158142
            ],
            [
              -0.0041333334520459175,
              -0.0038666666951030493,
              -0.003599999938160181,
              -0.0033333334140479565,
              -0.0030666666571050882,
              -0.00279999990016222,
              -0.0025333333760499954,
              -0.002266666619107127,
              -0.0020000000949949026,
              -0.0017333333380520344,
              -0.001466666697524488,
              -0.0012000000569969416,
              -0.0009333333582617342,
              -0.0006666666595265269,
              -0.00039999998989515007,
              -0.00013333333481568843
            ],
            [
              0.00013333333481568843,
              0.00039999998989515007,
              0.0006666666595265269,
              0.0009333333582617342,
              0.0012000000569969416,
              0.001466666697524488,
              0.0017333333380520344,
              0.0020000000949949026,
              0.002266666619107127,
              0.0025333333760499954,
              0.00279999990016222,
              0.0030666666571050882,
              0.0033333334140479565,
              0.003599999938160181,
              0.0038666666951030493,
              0.0041333334520459175
            ],
            [
              0.004399999976158142,
              0.004666666500270367,
              0.0049333334900438786,
              0.005200000014156103,
              0.005466666538268328,
              0.00573333352804184,
              0.006000000052154064,
              0.006266666576266289,
              0.006533333566039801,
              0.006800000090152025,
              0.00706666661426425,
              0.007333333138376474,
              0.007600000128149986,
              0.00786666665226221,
              0.008133333176374435,
              0.00839999970048666
            ],
            [
              0.008666666224598885,
              0.008933333680033684,
              0.009200000204145908,
              0.009466666728258133,
              0.009733333252370358,
              0.009999999776482582,
              0.010266666300594807,
              0.010533333756029606,
              0.01080000028014183,
              0.011066666804254055,
              0.01133333332836628,
              0.011599999852478504,
              0.011866666376590729,
              0.012133332900702953,
              0.012400000356137753,
              0.012666666880249977
            ],
            [
              0.012933333404362202,
              0.013199999928474426,
              0.01346666645258665,
              0.013733332976698875,
              0.014000000432133675,
              0.0142666669562459,
              0.014533333480358124,
              0.014800000004470348,
              0.015066666528582573,
              0.015333333052694798,
              0.015599999576807022,
              0.01586666703224182,
              0.01613333262503147,
              0.01640000008046627,
              0.01666666753590107,
              0.01693333312869072
            ],
            [
              0.01720000058412552,
              0.01746666617691517,
              0.017733333632349968,
              0.017999999225139618,
              0.018266666680574417,
              0.018533334136009216,
              0.018799999728798866,
              0.019066667184233665,
              0.019333332777023315,
              0.019600000232458115,
              0.019866665825247765,
              0.020133333280682564,
              0.020400000736117363,
              0.020666666328907013,
              0.020933333784341812,
              0.021199999377131462
            ],
            [
              0.02146666683256626,
              0.02173333242535591,
              0.02199999988079071,
              0.02226666733622551,
              0.02253333292901516,
              0.02280000038444996,
              0.02306666597723961,
              0.023333333432674408,
              0.023600000888109207,
              0.023866666480898857,
              0.024133333936333656,
              0.024399999529123306,
              0.024666666984558105,
              0.024933332577347755,
              0.025200000032782555,
              0.025466667488217354
            ],
            [
              0.025733333081007004,
              0.026000000536441803,
              0.026266666129231453,
              0.026533333584666252,
              0.026799999177455902,
              0.0270666666328907,
              0.0273333340883255,
              0.02759999968111515,
              0.02786666713654995,
              0.0281333327293396,
              0.0284000001847744,
              0.02866666577756405,
              0.028933333232998848,
              0.029200000688433647,
              0.029466666281223297,
              0.029733333736658096
            ],
            [
              0.029999999329447746,
              0.030266666784882545,
              0.030533334240317345,
              0.030799999833106995,
              0.031066667288541794,
              0.03133333474397659,
              0.031599998474121094,
              0.03186666592955589,
              0.03213333338499069,
              0.03240000084042549,
              0.03266666829586029,
              0.03293333202600479,
              0.03319999948143959,
              0.03346666693687439,
              0.03373333439230919,
              0.03400000184774399
            ]
          ]
        ],
        [
          -0.0044999998062849045,
          -0.0038999998942017555,
          -0.0032999999821186066,
          -0.0027000000700354576,
          -0.002099999925121665,
          -0.001500000013038516,
          -0.0008999999845400453,
          -0.0003000000142492354,
          0.0003000000142492354,
          0.0008999999845400453,
          0.001500000013038516,
          0.002099999925121665,
          0.0027000000700354576,
          0.0032999999821186066,
          0.0038999998942017555,
          0.0044999998062849045
        ]
      ]
    },
    {
      "activation": "",
      "dilation": [
        128
      ],
      "groups": 16,
      "input_size": 16,
      "kernel_size": [
        3
      ],
      "output_size": 16,
      "shape": [
        null,
        null,
        16
      ],
      "type": "conv1d",
      "weights": [
        [
          [
            [
              -0.017999999225139618,
              -0.017234042286872864,
              -0.01646808534860611,
              -0.015702128410339355,
              -0.014936170540750027,
              -0.014170212671160698,
              -0.013404255732893944,
              -0.012638297863304615,
              -0.011872339993715286,
              -0.011106383055448532,
              -0.010340425185859203,
              -0.00957446824759245,
              -0.00880851037800312,
              -0.008042553439736366,
              -0.0072765955701470375,
              -0.006510638166218996
            ]
          ],
          [
            [
              -0.005744680762290955,
              -0.004978723358362913,
              -0.004212765954434872,
              -0.00344680855050683,
              -0.0026808511465787888,
              -0.0019148936262354255,
              -0.001148936222307384,
              -0.0003829787310678512,
              0.0003829787310678512,
              0.001148936222307384,
              0.0019148936262354255,
              0.0026808511465787888,
              0.00344680855050683,
              0.004212765954434872,
              0.004978723358362913,
              0.005744680762290955
            ]
          ],
          [
            [
              0.006510638166218996,
              0.0072765955701470375,
              0.008042553439736366,
              0.00880851037800312,
              0.00957446824759245,
              0.010340425185859203,
              0.011106383055448532,
              0.011872339993715286,
              0.012638297863304615,
              0.013404255732893944,
              0.014170212671160698,
              0.014936170540750027,
              0.015702128410339355,
              0.01646808534860611,
              0.017234042286872864,
              0.017999999225139618
            ]
          ]
        ],
        [
          -0.005499999970197678,
          -0.004766666796058416,
          -0.004033333156257868,
          -0.0032999999821186066,
          -0.0025666665751487017,
          -0.0018333332845941186,
          -0.0010999999940395355,
          -0.000366666674381122,
          0.000366666674381122,
          0.0010999999940395355,
          0.0018333332845941186,
          0.0025666665751487017,
          0.0032999999821186066,
          0.004033333156257868,
          0.004766666796058416,
          0.005499999970197678
        ]
      ]
    },
    {
      "activation": "tanh",
      "dilation": [
        1
      ],
      "groups": 1,
      "input_size": 16,
      "kernel_size": [
        1
      ],
      "output_size": 16,
      "shape": [
        null,
        null,
        16
      ],
      "type": "conv1d",
      "weights": [
        [
          [
            [
              -0.02199999988079071,
              -0.02182745188474655,
              -0.021654902026057243,
              -0.021482352167367935,
              -0.021309804171323776,
              -0.021137254312634468,
              -0.02096470631659031,
              -0.020792156457901,
              -0.020619608461856842,
              -0.020447058603167534,
              -0.020274510607123375,
              -0.020101960748434067,
              -0.01992941088974476,
              -0.0197568628937006,
              -0.01958431303501129,
              -0.019411765038967133
            ],
            [
              -0.019239215180277824,
              -0.019066667184233665,
              -0.018894117325544357,
              -0.0187215693295002,
              -0.01854901947081089,
              -0.01837647147476673,
              -0.018203921616077423,
              -0.018031371757388115,
              -0.017858823761343956,
              -0.017686273902654648,
              -0.01751372590661049,
              -0.01734117604792118,
              -0.017168628051877022,
              -0.016996078193187714,
              -0.016823530197143555,
              -0.016650980338454247
            ],
            [
              -0.01647843047976494,
              -0.01630588248372078,
              -0.01613333262503147,
              -0.015960784628987312,
              -0.015788234770298004,
              -0.01561568584293127,
              -0.015443136915564537,
              -0.015270587988197803,
              -0.01509803906083107,
              -0.014925490133464336,
              -0.014752941206097603,
              -0.01458039227873087,
              -0.014407843351364136,
              -0.014235294423997402,
              -0.014062745496630669,
              -0.01389019563794136
            ],
            [
              -0.013717646710574627,
              -0.013545097783207893,
              -0.01337254885584116,
              -0.013199999928474426,
              -0.013027451001107693,
              -0.01285490207374096,
              -0.012682353146374226,
              -0.012509804219007492,
              -0.012337255291640759,
              -0.01216470543295145,
              -0.011992156505584717,
              -0.011819607578217983,
              -0.01164705865085125,
              -0.011474509723484516,
              -0.011301960796117783,
              -0.011129411868751049
            ],
            [
              -0.010956862941384315,
              -0.010784314014017582,
              -0.010611765086650848,
              -0.01043921522796154,
              -0.010266666300594807,
              -0.010094117373228073,
              -0.00992156844586134,
              -0.009749019518494606,
              -0.009576470591127872,
              -0.009403921663761139,
              -0.009231372736394405,
              -0.009058823809027672,
              -0.008886274881660938,
              -0.008713725954294205,
              -0.008541176095604897,
              -0.008368627168238163
            ],
            [
              -0.00819607824087143,
              -0.008023529313504696,
              -0.007850980386137962,
              -0.007678431458771229,
              -0.007505882531404495,
              -0.007333333138376474,
              -0.007160784211009741,
              -0.006988235283643007,
              -0.006815686356276274,
              -0.00664313742890954,
              -0.006470588035881519,
              -0.006298039108514786,
              -0.006125490181148052,
              -0.005952941253781319,
              -0.005780392326414585,
              -0.005607842933386564
            ],
            [
              -0.005435294006019831,
              -0.005262745078653097,
              -0.005090196151286364,
              -0.00491764722391963,
              -0.004745097830891609,
              -0.004572548903524876,
              -0.004399999976158142,
              -0.0042274510487914085,
              -0.004054902121424675,
              -0.0038823529612272978,
              -0.0037098040338605642,
              -0.003537254873663187,
              -0.0033647059462964535,
              -0.0031921567860990763,
              -0.0030196078587323427,
              -0.002847058931365609
            ],
            [
              -0.002674509771168232,
              -0.0025019608438014984,
              -0.002329411683604121,
              -0.0021568627562373877,
              -0.001984313828870654,
              -0.001811764668673277,
              -0.0016392157413065434,
              -0.001466666697524488,
              -0.0012941176537424326,
              -0.0011215686099603772,
              -0.0009490196243859828,
              -0.0007764705806039274,
              -0.0006039215950295329,
              -0.00043137255124747753,
              -0.0002588235365692526,
              -8.627450733911246e-05
            ],
            [
              8.627450733911246e-05,
              0.0002588235365692526,
              0.00043137255124747753,
              0.0006039215950295329,
              0.0007764705806039274,
              0.0009490196243859828,
              0.0011215686099603772,
              0.0012941176537424326,
              0.001466666697524488,
              0.0016392157413065434,
              0.001811764668673277,
              0.001984313828870654,
              0.0021568627562373877,
              0.002329411683604121,
              0.0025019608438014984,
              0.002674509771168232
            ],
            [
              0.002847058931365609,
              0.0030196078587323427,
              0.0031921567860990763,
              0.0033647059462964535,
              0.003537254873663187,
              0.0037098040338605642,
              0.0038823529612272978,
              0.004054902121424675,
              0.0042274510487914085,
              0.004399999976158142,
              0.004572548903524876,
              0.004745097830891609,
              0.00491764722391963,
              0.005090196151286364,
              0.005262745078653097,
              0.005435294006019831
            ],
            [
              0.005607842933386564,
              0.005780392326414585,
              0.005952941253781319,
              0.006125490181148052,
              0.006298039108514786,
              0.006470588035881519,
              0.00664313742890954,
              0.006815686356276274,
              0.006988235283643007,
              0.007160784211009741,
              0.007333333138376474,
              0.007505882531404495,
              0.007678431458771229,
              0.007850980386137962,
              0.008023529313504696,
              0.00819607824087143
            ],
            [
              0.008368627168238163,
              0.008541176095604897,
              0.008713725954294205,
              0.008886274881660938,
              0.009058823809027672,
              0.009231372736394405,
              0.009403921663761139,
              0.009576470591127872,
              0.009749019518494606,
              0.00992156844586134,
              0.010094117373228073,
              0.010266666300594807,
              0.01043921522796154,
              0.010611765086650848,
              0.010784314014017582,
              0.010956862941384315
            ],
            [
              0.011129411868751049,
              0.011301960796117783,
              0.011474509723484516,
              0.01164705865085125,
              0.011819607578217983,
              0.011992156505584717,
              0.01216470543295145,
              0.012337255291640759,
              0.012509804219007492,
              0.012682353146374226,
              0.01285490207374096,
              0.013027451001107693,
              0.013199999928474426,
              0.01337254885584116,
              0.013545097783207893,
              0.013717646710574627
            ],
            [
              0.01389019563794136,
              0.014062745496630669,
              0.014235294423997402,
              0.014407843351364136,
              0.01458039227873087,
              0.014752941206097603,
              0.014925490133464336,
              0.01509803906083107,
              0.015270587988197803,
              0.015443136915564537,
              0.01561568584293127,
              0.015788234770298004,
              0.015960784628987312,
              0.01613333262503147,
              0.01630588248372078,
              0.01647843047976494
            ],
            [
              0.016650980338454247,
              0.016823530197143555,
              0.016996078193187714,
              0.017168628051877022,
              0.01734117604792118,
              0.01751372590661049,
              0.017686273902654648,
              0.017858823761343956,
              0.018031371757388115,
              0.018203921616077423,
              0.01837647147476673,
              0.01854901947081089,
              0.0187215693295002,
              0.018894117325544357,
              0.019066667184233665,
              0.019239215180277824
            ],
            [
              0.019411765038967133,
              0.01958431303501129,
              0.0197568628937006,
              0.01992941088974476,
              0.020101960748434067,
              0.020274510607123375,
              0.020447058603167534,
              0.020619608461856842,
              0.020792156457901,
              0.02096470631659031,
              0.021137254312634468,
              0.021309804171323776,
              0.021482352167367935,
              0.021654902026057243,
              0.02182745188474655,
              0.02199999988079071
            ]
          ]
        ],
        [
          -0.006500000134110451,
          -0.00563333323225379,
          -0.004766666796058416,
          -0.0038999998942017555,
          -0.0030333332251757383,
          -0.002166666556149721,
          -0.0013000000035390258,
          -0.0004333333345130086,
          0.0004333333345130086,
          0.0013000000035390258,
          0.002166666556149721,
          0.0030333332251757383,
          0.0038999998942017555,
          0.004766666796058416,
          0.00563333323225379,
          0.006500000134110451
        ]
      ]
    },
    {
      "activation": "tanh",
      "input_size": 16,
      "output_size": 1,
      "shape": [
        null,
        null,
        1
      ],
      "type": "dense",
      "weights": [
        [
          [
            -0.026000000536441803
          ],
          [
            -0.02253333292901516
          ],
          [
            -0.019066667184233665
          ],
          [
            -0.015599999576807022
          ],
          [
            -0.012133332900702953
          ],
          [
            -0.008666666224598885
          ],
          [
            -0.005200000014156103
          ],
          [
            -0.0017333333380520344
          ],
          [
            0.0017333333380520344
          ],
          [
            0.005200000014156103
          ],
          [
            0.008666666224598885
          ],
          [
            0.012133332900702953
          ],
          [
            0.015599999576807022
          ],
          [
            0.019066667184233665
          ],
          [
            0.02253333292901516
          ],
          [
            0.026000000536441803
          ]
        ],
        [
          -0.007499999832361937
        ]
      ]
    }
  ],
  "metadata": {
    "architecture": "wavenet_tcn_separable_fast",
    "backend": "keras",
    "latency_samples": 0,
    "loss": {
      "esr": 0.0,
      "mae": 0.0,
      "peak_residual": 0.0,
      "realtime_factor": 0.0,
      "rms_residual": 0.0,
      "rmse": 0.0
    },
    "rtneural_commit": "1fb1f075a5d66e85bfc8f488c3f3626840cb3a1d",
    "sample_rate": 48000,
    "schema": "rttrainer-rtneural-json-v0",
    "schema_version": 1
  }
}
