{
  "in_shape": [
    null,
    null,
    1
  ],
  "layers": [
    {
      "activation": "",
      "dilation": [
        1
      ],
      "groups": 1,
      "input_size": 1,
      "kernel_size": [
        7
      ],
      "output_size": 8,
      "shape": [
        null,
        null,
        8
      ],
      "type": "conv1d",
      "weights": [
        [
          [
            [
              -0.03400000184774399,
              -0.032763637602329254,
              -0.03152727335691452,
              -0.030290909111499786,
              -0.029054544866085052,
              -0.027818182483315468,
              -0.026581818237900734,
              -0.025345453992486
            ]
          ],
          [
            [
              -0.024109091609716415,
              -0.02287272736430168,
              -0.021636363118886948,
              -0.020400000736117363,
              -0.01916363649070263,
              -0.017927272245287895,
              -0.01669090986251831,
              -0.015454545617103577
            ]
          ],
          [
            [
              -0.014218181371688843,
              -0.012981818057596684,
              -0.011745454743504524,
              -0.01050909049808979,
              -0.009272727183997631,
              -0.008036363869905472,
              -0.006800000090152025,
              -0.005563636310398579
            ]
          ],
          [
            [
              -0.004327272530645132,
              -0.003090908983722329,
              -0.0018545454367995262,
              -0.0006181818316690624,
              0.0006181818316690624,
              0.0018545454367995262,
              0.003090908983722329,
              0.004327272530645132
            ]
          ],
          [
            [
              0.005563636310398579,
              0.006800000090152025,
              0.008036363869905472,
              0.009272727183997631,
              0.01050909049808979,
              0.011745454743504524,
              0.012981818057596684,
              0.014218181371688843
            ]
          ],
          [
            [
              0.015454545617103577,
              0.01669090986251831,
              0.017927272245287895,
              0.01916363649070263,
              0.020400000736117363,
              0.021636363118886948,
              0.02287272736430168,
              0.024109091609716415
            ]
          ],
          [
            [
              0.025345453992486,
              0.026581818237900734,
              0.027818182483315468,
              0.029054544866085052,
              0.030290909111499786,
              0.03152727335691452,
              0.032763637602329254,
              0.03400000184774399
            ]
          ]
        ],
        [
          -0.0044999998062849045,
          -0.003214285708963871,
          -0.0019285713788121939,
          -0.0006428571650758386,
          0.0006428571650758386,
          0.0019285713788121939,
          0.003214285708963871,
          0.0044999998062849045
        ]
      ]
    },
    {
      "activation": "",
      "dilation": [
        2
      ],
      "groups": 1,
      "input_size": 8,
      "kernel_size": [
        7
      ],
      "output_size": 8,
      "shape": [
        null,
        null,
        8
      ],
      "type": "conv1d",
      "weights": [
        [
          [
            [
              -0.017999999225139618,
              -0.01791946217417717,
              -0.01783892698585987,
              -0.017758389934897423,
              -0.017677852883934975,
              -0.017597315832972527,
              -0.01751677878201008,
              -0.01743624173104763
            ],
            [
              -0.017355704680085182,
              -0.017275167629122734,
              -0.017194630578160286,
              -0.017114093527197838,
              -0.01703355647623539,
              -0.01695301942527294,
              -0.016872482374310493,
              -0.016791947185993195
            ],
            [
              -0.016711410135030746,
              -0.0166308730840683,
              -0.01655033603310585,
              -0.016469798982143402,
              -0.016389261931180954,
              -0.016308724880218506,
              -0.016228187829256058,
              -0.01614765077829361
            ],
            [
              -0.01606711372733116,
              -0.015986576676368713,
              -0.015906039625406265,
              -0.015825502574443817,
              -0.01574496552348137,
              -0.01566443033516407,
              -0.015583892352879047,
              -0.0155033553019166
            ],
            [
              -0.015422819182276726,
              -0.015342282131314278,
              -0.01526174508035183,
              -0.015181208029389381,
              -0.015100670978426933,
              -0.015020133927464485,
              -0.014939596876502037,
              -0.014859060756862164
            ],
            [
              -0.014778523705899715,
              -0.014697986654937267,
              -0.01461744960397482,
              -0.014536912553012371,
              -0.014456375502049923,
              -0.01437583938241005,
              -0.014295302331447601,
              -0.014214765280485153
            ],
            [
              -0.014134228229522705,
              -0.014053691178560257,
              -0.013973154127597809,
              -0.01389261707663536,
              -0.013812080956995487,
              -0.013731543906033039,
              -0.013651006855070591,
              -0.013570469804108143
            ],
            [
              -0.013489932753145695,
              -0.013409395702183247,
              -0.013328858651220798,
              -0.013248322531580925,
              -0.013167785480618477,
              -0.013087248429656029,
              -0.01300671137869358,
              -0.012926174327731133
            ]
          ],
          [
            [
              -0.012845637276768684,
              -0.012765100225806236,
              -0.012684564106166363,
              -0.012604027055203915,
              -0.012523490004241467,
              -0.012442952953279018,
              -0.01236241590231657,
              -0.012281878851354122
            ],
            [
              -0.012201342731714249,
              -0.0121208056807518,
              -0.012040268629789352,
              -0.011959731578826904,
              -0.011879194527864456,
              -0.011798657476902008,
              -0.01171812042593956,
              -0.011637584306299686
            ],
            [
              -0.011557047255337238,
              -0.01147651020437479,
              -0.011395973153412342,
              -0.011315436102449894,
              -0.011234899051487446,
              -0.011154362000524998,
              -0.011073825880885124,
              -0.010993288829922676
            ],
            [
              -0.010912751778960228,
              -0.01083221472799778,
              -0.010751677677035332,
              -0.010671140626072884,
              -0.010590603575110435,
              -0.010510067455470562,
              -0.010429530404508114,
              -0.010348993353545666
            ],
            [
              -0.010268456302583218,
              -0.01018791925162077,
              -0.010107382200658321,
              -0.010026846081018448,
              -0.009946309030056,
              -0.009865771979093552,
              -0.009785234928131104,
              -0.009704697877168655
            ],
            [
              -0.009624160826206207,
              -0.00954362377524376,
              -0.009463087655603886,
              -0.009382550604641438,
              -0.00930201355367899,
              -0.009221476502716541,
              -0.009140939451754093,
              -0.009060402400791645
            ],
            [
              -0.008979865349829197,
              -0.008899329230189323,
              -0.008818792179226875,
              -0.008738255128264427,
              -0.008657718077301979,
              -0.008577181026339531,
              -0.008496643975377083,
              -0.008416106924414635
            ],
            [
              -0.008335570804774761,
              -0.008255033753812313,
              -0.008174496702849865,
              -0.008093959651887417,
              -0.008013422600924969,
              -0.00793288554996252,
              -0.007852349430322647,
              -0.007771811913698912
            ]
          ],
          [
            [
              -0.007691275328397751,
              -0.007610738277435303,
              -0.007530201226472855,
              -0.007449664641171694,
              -0.007369127590209246,
              -0.0072885905392467976,
              -0.0072080534882843494,
              -0.007127516902983189
            ],
            [
              -0.0070469798520207405,
              -0.006966442801058292,
              -0.006885906215757132,
              -0.0068053691647946835,
              -0.006724832113832235,
              -0.0066442955285310745,
              -0.006563758477568626,
              -0.006483221426606178
            ],
            [
              -0.00640268437564373,
              -0.006322147790342569,
              -0.006241610739380121,
              -0.006161073688417673,
              -0.006080537103116512,
              -0.006000000052154064,
              -0.005919463001191616,
              -0.005838925950229168
            ],
            [
              -0.005758389364928007,
              -0.005677852313965559,
              -0.005597315263003111,
              -0.00551677867770195,
              -0.005436241626739502,
              -0.005355704575777054,
              -0.005275167990475893,
              -0.005194630939513445
            ],
            [
              -0.005114093888550997,
              -0.005033556837588549,
              -0.004953020252287388,
              -0.00487248320132494,
              -0.004791946150362492,
              -0.004711409565061331,
              -0.004630872514098883,
              -0.0045503354631364346
            ],
            [
              -0.004469798877835274,
              -0.004389261826872826,
              -0.0043087247759103775,
              -0.004228187724947929,
              -0.004147651139646769,
              -0.0040671140886843204,
              -0.003986577037721872,
              -0.003906040219590068
            ],
            [
              -0.0038255034014582634,
              -0.0037449663504958153,
              -0.003664429532364011,
              -0.0035838927142322063,
              -0.0035033556632697582,
              -0.0034228188451379538,
              -0.0033422817941755056,
              -0.003261744976043701
            ],
            [
              -0.0031812081579118967,
              -0.0031006711069494486,
              -0.003020134288817644,
              -0.002939597237855196,
              -0.0028590604197233915,
              -0.002778523601591587,
              -0.002697986550629139,
              -0.0026174497324973345
            ]
          ],
          [
            [
              -0.0025369126815348864,
              -0.002456375863403082,
              -0.0023758388124406338,
              -0.0022953019943088293,
              -0.002214765176177025,
              -0.0021342281252145767,
              -0.0020536913070827723,
              -0.001973154256120324
            ],
            [
              -0.0018926174379885197,
              -0.0018120805034413934,
              -0.001731543568894267,
              -0.0016510067507624626,
              -0.0015704698162153363,
              -0.00148993288166821,
              -0.0014093959471210837,
              -0.0013288590125739574
            ],
            [
              -0.001248322194442153,
              -0.0011677852598950267,
              -0.0010872483253479004,
              -0.001006711390800774,
              -0.0009261745144613087,
              -0.0008456375799141824,
              -0.0007651006453670561,
              -0.0006845637690275908
            ],
            [
              -0.0006040268344804645,
              -0.0005234899581409991,
              -0.0004429530235938728,
              -0.00036241611815057695,
              -0.00028187918360345066,
              -0.00020134227816015482,
              -0.00012080537271685898,
              -4.0268456359626725e-05
            ],
            [
              4.0268456359626725e-05,
              0.00012080537271685898,
              0.00020134227816015482,
              0.00028187918360345066,
              0.00036241611815057695,
              0.0004429530235938728,
              0.0005234899581409991,
              0.0006040268344804645
            ],
            [
              0.0006845637690275908,
              0.0007651006453670561,
              0.0008456375799141824,
              0.0009261745144613087,
              0.001006711390800774,
              0.0010872483253479004,
              0.0011677852598950267,
              0.001248322194442153
            ],
            [
              0.0013288590125739574,
              0.0014093959471210837,
              0.00148993288166821,
              0.0015704698162153363,
              0.0016510067507624626,
              0.001731543568894267,
              0.0018120805034413934,
              0.0018926174379885197
            ],
            [
              0.001973154256120324,
              0.0020536913070827723,
              0.0021342281252145767,
              0.002214765176177025,
              0.0022953019943088293,
              0.0023758388124406338,
              0.002456375863403082,
              0.0025369126815348864
            ]
          ],
          [
            [
              0.0026174497324973345,
              0.002697986550629139,
              0.002778523601591587,
              0.0028590604197233915,
              0.002939597237855196,
              0.003020134288817644,
              0.0031006711069494486,
              0.0031812081579118967
            ],
            [
              0.003261744976043701,
              0.0033422817941755056,
              0.0034228188451379538,
              0.0035033556632697582,
              0.0035838927142322063,
              0.003664429532364011,
              0.0037449663504958153,
              0.0038255034014582634
            ],
            [
              0.003906040219590068,
              0.003986577037721872,
              0.0040671140886843204,
              0.004147651139646769,
              0.004228187724947929,
              0.0043087247759103775,
              0.004389261826872826,
              0.004469798877835274
            ],
            [
              0.0045503354631364346,
              0.004630872514098883,
              0.004711409565061331,
              0.004791946150362492,
              0.00487248320132494,
              0.004953020252287388,
              0.005033556837588549,
              0.005114093888550997
            ],
            [
              0.005194630939513445,
              0.005275167990475893,
              0.005355704575777054,
              0.005436241626739502,
              0.00551677867770195,
              0.005597315263003111,
              0.005677852313965559,
              0.005758389364928007
            ],
            [
              0.005838925950229168,
              0.005919463001191616,
              0.006000000052154064,
              0.006080537103116512,
              0.006161073688417673,
              0.006241610739380121,
              0.006322147790342569,
              0.00640268437564373
            ],
            [
              0.006483221426606178,
              0.006563758477568626,
              0.0066442955285310745,
              0.006724832113832235,
              0.0068053691647946835,
              0.006885906215757132,
              0.006966442801058292,
              0.0070469798520207405
            ],
            [
              0.007127516902983189,
              0.0072080534882843494,
              0.0072885905392467976,
              0.007369127590209246,
              0.007449664641171694,
              0.007530201226472855,
              0.007610738277435303,
              0.007691275328397751
            ]
          ],
          [
            [
              0.007771811913698912,
              0.007852349430322647,
              0.00793288554996252,
              0.008013422600924969,
              0.008093959651887417,
              0.008174496702849865,
              0.008255033753812313,
              0.008335570804774761
            ],
            [
              0.008416106924414635,
              0.008496643975377083,
              0.008577181026339531,
              0.008657718077301979,
              0.008738255128264427,
              0.008818792179226875,
              0.008899329230189323,
              0.008979865349829197
            ],
            [
              0.009060402400791645,
              0.009140939451754093,
              0.009221476502716541,
              0.00930201355367899,
              0.009382550604641438,
              0.009463087655603886,
              0.00954362377524376,
              0.009624160826206207
            ],
            [
              0.009704697877168655,
              0.009785234928131104,
              0.009865771979093552,
              0.009946309030056,
              0.010026846081018448,
              0.010107382200658321,
              0.01018791925162077,
              0.010268456302583218
            ],
            [
              0.010348993353545666,
              0.010429530404508114,
              0.010510067455470562,
              0.010590603575110435,
              0.010671140626072884,
              0.010751677677035332,
              0.01083221472799778,
              0.010912751778960228
            ],
            [
              0.010993288829922676,
              0.011073825880885124,
              0.011154362000524998,
              0.011234899051487446,
              0.011315436102449894,
              0.011395973153412342,
              0.01147651020437479,
              0.011557047255337238
            ],
            [
              0.011637584306299686,
              0.01171812042593956,
              0.011798657476902008,
              0.011879194527864456,
              0.011959731578826904,
              0.012040268629789352,
              0.0121208056807518,
              0.012201342731714249
            ],
            [
              0.012281878851354122,
              0.01236241590231657,
              0.012442952953279018,
              0.012523490004241467,
              0.012604027055203915,
              0.012684564106166363,
              0.012765100225806236,
              0.012845637276768684
            ]
          ],
          [
            [
              0.012926174327731133,
              0.01300671137869358,
              0.013087248429656029,
              0.013167785480618477,
              0.013248322531580925,
              0.013328858651220798,
              0.013409395702183247,
              0.013489932753145695
            ],
            [
              0.013570469804108143,
              0.013651006855070591,
              0.013731543906033039,
              0.013812080956995487,
              0.01389261707663536,
              0.013973154127597809,
              0.014053691178560257,
              0.014134228229522705
            ],
            [
              0.014214765280485153,
              0.014295302331447601,
              0.01437583938241005,
              0.014456375502049923,
              0.014536912553012371,
              0.01461744960397482,
              0.014697986654937267,
              0.014778523705899715
            ],
            [
              0.014859060756862164,
              0.014939596876502037,
              0.015020133927464485,
              0.015100670978426933,
              0.015181208029389381,
              0.01526174508035183,
              0.015342282131314278,
              0.015422819182276726
            ],
            [
              0.0155033553019166,
              0.015583892352879047,
              0.01566443033516407,
              0.01574496552348137,
              0.015825502574443817,
              0.015906039625406265,
              0.015986576676368713,
              0.01606711372733116
            ],
            [
              0.01614765077829361,
              0.016228187829256058,
              0.016308724880218506,
              0.016389261931180954,
              0.016469798982143402,
              0.01655033603310585,
              0.0166308730840683,
              0.016711410135030746
            ],
            [
              0.016791947185993195,
              0.016872482374310493,
              0.01695301942527294,
              0.01703355647623539,
              0.017114093527197838,
              0.017194630578160286,
              0.017275167629122734,
              0.017355704680085182
            ],
            [
              0.01743624173104763,
              0.01751677878201008,
              0.017597315832972527,
              0.017677852883934975,
              0.017758389934897423,
              0.01783892698585987,
              0.01791946217417717,
              0.017999999225139618
            ]
          ]
        ],
        [
          -0.005499999970197678,
          -0.0039285714738070965,
          -0.0023571427445858717,
          -0.0007857143064029515,
          0.0007857143064029515,
          0.0023571427445858717,
          0.0039285714738070965,
          0.005499999970197678
        ]
      ]
    },
    {
      "activation": "",
      "dilation": [
        4
      ],
      "groups": 1,
      "input_size": 8,
      "kernel_size": [
        7
      ],
      "output_size": 8,
      "shape": [
        null,
        null,
        8
      ],
      "type": "conv1d",
      "weights": [
        [
          [
            [
              -0.02199999988079071,
              -0.02190156653523445,
              -0.021803131327033043,
              -0.021704697981476784,
              -0.021606264635920525,
              -0.021507829427719116,
              -0.021409396082162857,
              -0.021310962736606598
            ],
            [
              -0.02121252752840519,
              -0.02111409418284893,
              -0.02101566083729267,
              -0.020917225629091263,
              -0.020818792283535004,
              -0.020720357075333595,
              -0.020621923729777336,
              -0.020523490384221077
            ],
            [
              -0.02042505517601967,
              -0.02032662183046341,
              -0.02022818848490715,
              -0.020129753276705742,
              -0.020031319931149483,
              -0.019932886585593224,
              -0.019834451377391815,
              -0.019736018031835556
            ],
            [
              -0.019637584686279297,
              -0.01953914947807789,
              -0.01944071613252163,
              -0.01934228278696537,
              -0.019243847578763962,
              -0.019145414233207703,
              -0.019046979025006294,
              -0.018948545679450035
            ],
            [
              -0.018850112333893776,
              -0.018751677125692368,
              -0.01865324378013611,
              -0.01855481043457985,
              -0.01845637522637844,
              -0.01835794188082218,
              -0.018259508535265923,
              -0.018161073327064514
            ],
            [
              -0.018062639981508255,
              -0.017964206635951996,
              -0.017865771427750587,
              -0.01776733808219433,
              -0.01766890287399292,
              -0.01757046952843666,
              -0.0174720361828804,
              -0.017373600974678993
            ],
            [
              -0.017275167629122734,
              -0.017176734283566475,
              -0.017078299075365067,
              -0.016979865729808807,
              -0.016881432384252548,
              -0.01678299717605114,
              -0.01668456383049488,
              -0.01658613048493862
            ],
            [
              -0.016487695276737213,
              -0.016389261931180954,
              -0.016290828585624695,
              -0.016192393377423286,
              -0.016093960031867027,
              -0.01599552482366562,
              -0.01589709147810936,
              -0.0157986581325531
            ]
          ],
          [
            [
              -0.015700222924351692,
              -0.015601789578795433,
              -0.0155033553019166,
              -0.01540492195636034,
              -0.015306487679481506,
              -0.015208053402602673,
              -0.015109620057046413,
              -0.01501118578016758
            ],
            [
              -0.014912751503288746,
              -0.014814317226409912,
              -0.014715883880853653,
              -0.01461744960397482,
              -0.014519015327095985,
              -0.014420581981539726,
              -0.014322147704660892,
              -0.014223713427782059
            ],
            [
              -0.0141252800822258,
              -0.014026845805346966,
              -0.013928411528468132,
              -0.013829977251589298,
              -0.013731543906033039,
              -0.013633109629154205,
              -0.013534675352275372,
              -0.013436242006719112
            ],
            [
              -0.013337807729840279,
              -0.013239373452961445,
              -0.013140939176082611,
              -0.013042505830526352,
              -0.012944071553647518,
              -0.012845637276768684,
              -0.012747203931212425,
              -0.012648769654333591
            ],
            [
              -0.012550335377454758,
              -0.012451901100575924,
              -0.012353467755019665,
              -0.012255033478140831,
              -0.012156599201261997,
              -0.012058165855705738,
              -0.011959731578826904,
              -0.01186129730194807
            ],
            [
              -0.011762863956391811,
              -0.011664429679512978,
              -0.011565995402634144,
              -0.01146756112575531,
              -0.011369127780199051,
              -0.011270693503320217,
              -0.011172259226441383,
              -0.011073825880885124
            ],
            [
              -0.01097539160400629,
              -0.010876957327127457,
              -0.010778523050248623,
              -0.010680089704692364,
              -0.01058165542781353,
              -0.010483221150934696,
              -0.010384787805378437,
              -0.010286353528499603
            ],
            [
              -0.01018791925162077,
              -0.01008948590606451,
              -0.009991051629185677,
              -0.009892617352306843,
              -0.009794183075428009,
              -0.00969574972987175,
              -0.009597315452992916,
              -0.009498881176114082
            ]
          ],
          [
            [
              -0.009400447830557823,
              -0.00930201355367899,
              -0.009203579276800156,
              -0.009105144999921322,
              -0.009006711654365063,
              -0.008908277377486229,
              -0.008809843100607395,
              -0.008711409755051136
            ],
            [
              -0.008612975478172302,
              -0.008514541201293468,
              -0.008416106924414635,
              -0.008317673578858376,
              -0.008219239301979542,
              -0.008120805025100708,
              -0.008022371679544449,
              -0.007923937402665615
            ],
            [
              -0.007825503125786781,
              -0.007727069314569235,
              -0.007628635503351688,
              -0.007530201226472855,
              -0.007431767415255308,
              -0.007333333138376474,
              -0.007234899327158928,
              -0.0071364655159413815
            ],
            [
              -0.007038031239062548,
              -0.006939597427845001,
              -0.0068411631509661674,
              -0.006742729339748621,
              -0.0066442955285310745,
              -0.006545861251652241,
              -0.006447427440434694,
              -0.0063489931635558605
            ],
            [
              -0.006250559352338314,
              -0.00615212507545948,
              -0.006053691264241934,
              -0.005955257453024387,
              -0.005856823176145554,
              -0.005758389364928007,
              -0.005659955088049173,
              -0.005561521276831627
            ],
            [
              -0.00546308746561408,
              -0.005364653188735247,
              -0.0052662193775177,
              -0.005167785100638866,
              -0.00506935128942132,
              -0.004970917012542486,
              -0.00487248320132494,
              -0.004774049390107393
            ],
            [
              -0.0046756151132285595,
              -0.004577181302011013,
              -0.004478747025132179,
              -0.004380313213914633,
              -0.004281879402697086,
              -0.0041834451258182526,
              -0.004085011314600706,
              -0.003986577037721872
            ],
            [
              -0.003888143226504326,
              -0.0037897091824561357,
              -0.0036912751384079456,
              -0.0035928410943597555,
              -0.0034944070503115654,
              -0.003395973239094019,
              -0.003297539195045829,
              -0.0031991051509976387
            ]
          ],
          [
            [
              -0.0031006711069494486,
              -0.0030022370629012585,
              -0.0029038030188530684,
              -0.002805369207635522,
              -0.0027069351635873318,
              -0.0026085011195391417,
              -0.0025100670754909515,
              -0.0024116330314427614
            ],
            [
              -0.002313199220225215,
              -0.002214765176177025,
              -0.0021163311321288347,
              -0.0020178970880806446,
              -0.0019194630440324545,
              -0.0018210291163995862,
              -0.001722595072351396,
              -0.001624161028303206
            ],
            [
              -0.0015257271006703377,
              -0.0014272930566221476,
              -0.0013288590125739574,
              -0.0012304250849410892,
              -0.001131991040892899,
              -0.001033556996844709,
              -0.0009351230692118406,
              -0.0008366890251636505
            ],
            [
              -0.0007382550393231213,
              -0.0006398210534825921,
              -0.000541387009434402,
              -0.0004429530235938728,
              -0.0003445190086495131,
              -0.0002460850228089839,
              -0.00014765100786462426,
              -4.921700383420102e-05
            ],
            [
              4.921700383420102e-05,
              0.00014765100786462426,
              0.0002460850228089839,
              0.0003445190086495131,
              0.0004429530235938728,
              0.000541387009434402,
              0.0006398210534825921,
              0.0007382550393231213
            ],
            [
              0.0008366890251636505,
              0.0009351230692118406,
              0.001033556996844709,
              0.001131991040892899,
              0.0012304250849410892,
              0.0013288590125739574,
              0.0014272930566221476,
              0.0015257271006703377
            ],
            [
              0.001624161028303206,
              0.001722595072351396,
              0.0018210291163995862,
              0.0019194630440324545,
              0.0020178970880806446,
              0.0021163311321288347,
              0.002214765176177025,
              0.002313199220225215
            ],
            [
              0.0024116330314427614,
              0.0025100670754909515,
              0.0026085011195391417,
              0.0027069351635873318,
              0.002805369207635522,
              0.0029038030188530684,
              0.0030022370629012585,
              0.0031006711069494486
            ]
          ],
          [
            [
              0.0031991051509976387,
              0.003297539195045829,
              0.003395973239094019,
              0.0034944070503115654,
              0.0035928410943597555,
              0.0036912751384079456,
              0.0037897091824561357,
              0.003888143226504326
            ],
            [
              0.003986577037721872,
              0.004085011314600706,
              0.0041834451258182526,
              0.004281879402697086,
              0.004380313213914633,
              0.004478747025132179,
              0.004577181302011013,
              0.0046756151132285595
            ],
            [
              0.004774049390107393,
              0.00487248320132494,
              0.004970917012542486,
              0.00506935128942132,
              0.005167785100638866,
              0.0052662193775177,
              0.005364653188735247,
              0.00546308746561408
            ],
            [
              0.005561521276831627,
              0.005659955088049173,
              0.005758389364928007,
              0.005856823176145554,
              0.005955257453024387,
              0.006053691264241934,
              0.00615212507545948,
              0.006250559352338314
            ],
            [
              0.0063489931635558605,
              0.006447427440434694,
              0.006545861251652241,
              0.0066442955285310745,
              0.006742729339748621,
              0.0068411631509661674,
              0.006939597427845001,
              0.007038031239062548
            ],
            [
              0.0071364655159413815,
              0.007234899327158928,
              0.007333333138376474,
              0.007431767415255308,
              0.007530201226472855,
              0.007628635503351688,
              0.007727069314569235,
              0.007825503125786781
            ],
            [
              0.007923937402665615,
              0.008022371679544449,
              0.008120805025100708,
              0.008219239301979542,
              0.008317673578858376,
              0.008416106924414635,
              0.008514541201293468,
              0.008612975478172302
            ],
            [
              0.008711409755051136,
              0.008809843100607395,
              0.008908277377486229,
              0.009006711654365063,
              0.009105144999921322,
              0.009203579276800156,
              0.00930201355367899,
              0.009400447830557823
            ]
          ],
          [
            [
              0.009498881176114082,
              0.009597315452992916,
              0.00969574972987175,
              0.009794183075428009,
              0.009892617352306843,
              0.009991051629185677,
              0.01008948590606451,
              0.01018791925162077
            ],
            [
              0.010286353528499603,
              0.010384787805378437,
              0.010483221150934696,
              0.01058165542781353,
              0.010680089704692364,
              0.010778523050248623,
              0.010876957327127457,
              0.01097539160400629
            ],
            [
              0.011073825880885124,
              0.011172259226441383,
              0.011270693503320217,
              0.011369127780199051,
              0.01146756112575531,
              0.011565995402634144,
              0.011664429679512978,
              0.011762863956391811
            ],
            [
              0.01186129730194807,
              0.011959731578826904,
              0.012058165855705738,
              0.012156599201261997,
              0.012255033478140831,
              0.012353467755019665,
              0.012451901100575924,
              0.012550335377454758
            ],
            [
              0.012648769654333591,
              0.012747203931212425,
              0.012845637276768684,
              0.012944071553647518,
              0.013042505830526352,
              0.013140939176082611,
              0.013239373452961445,
              0.013337807729840279
            ],
            [
              0.013436242006719112,
              0.013534675352275372,
              0.013633109629154205,
              0.013731543906033039,
              0.013829977251589298,
              0.013928411528468132,
              0.014026845805346966,
              0.0141252800822258
            ],
            [
              0.014223713427782059,
              0.014322147704660892,
              0.014420581981539726,
              0.014519015327095985,
              0.01461744960397482,
              0.014715883880853653,
              0.014814317226409912,
              0.014912751503288746
            ],
            [
              0.01501118578016758,
              0.015109620057046413,
              0.015208053402602673,
              0.015306487679481506,
              0.01540492195636034,
              0.0155033553019166,
              0.015601789578795433,
              0.015700222924351692
            ]
          ],
          [
            [
              0.0157986581325531,
              0.01589709147810936,
              0.01599552482366562,
              0.016093960031867027,
              0.016192393377423286,
              0.016290828585624695,
              0.016389261931180954,
              0.016487695276737213
            ],
            [
              0.01658613048493862,
              0.01668456383049488,
              0.01678299717605114,
              0.016881432384252548,
              0.016979865729808807,
              0.017078299075365067,
              0.017176734283566475,
              0.017275167629122734
            ],
            [
              0.017373600974678993,
              0.0174720361828804,
              0.01757046952843666,
              0.01766890287399292,
              0.01776733808219433,
              0.017865771427750587,
              0.017964206635951996,
              0.018062639981508255
            ],
            [
              0.018161073327064514,
              0.018259508535265923,
              0.01835794188082218,
              0.01845637522637844,
              0.01855481043457985,
              0.01865324378013611,
              0.018751677125692368,
              0.018850112333893776
            ],
            [
              0.018948545679450035,
              0.019046979025006294,
              0.019145414233207703,
              0.019243847578763962,
              0.01934228278696537,
              0.01944071613252163,
              0.01953914947807789,
              0.019637584686279297
            ],
            [
              0.019736018031835556,
              0.019834451377391815,
              0.019932886585593224,
              0.020031319931149483,
              0.020129753276705742,
              0.02022818848490715,
              0.02032662183046341,
              0.02042505517601967
            ],
            [
              0.020523490384221077,
              0.020621923729777336,
              0.020720357075333595,
              0.020818792283535004,
              0.020917225629091263,
              0.02101566083729267,
              0.02111409418284893,
              0.02121252752840519
            ],
            [
              0.021310962736606598,
              0.021409396082162857,
              0.021507829427719116,
              0.021606264635920525,
              0.021704697981476784,
              0.021803131327033043,
              0.02190156653523445,
              0.02199999988079071
            ]
          ]
        ],
        [
          -0.006500000134110451,
          -0.004642857238650322,
          -0.002785714343190193,
          -0.0009285714477300644,
          0.0009285714477300644,
          0.002785714343190193,
          0.004642857238650322,
          0.006500000134110451
        ]
      ]
    },
    {
      "activation": "",
      "dilation": [
        8
      ],
      "groups": 1,
      "input_size": 8,
      "kernel_size": [
        7
      ],
      "output_size": 8,
      "shape": [
        null,
        null,
        8
      ],
      "type": "conv1d",
      "weights": [
        [
          [
            [
              -0.026000000536441803,
              -0.025883669033646584,
              -0.025767337530851364,
              -0.025651006028056145,
              -0.025534676387906075,
              -0.025418344885110855,
              -0.025302013382315636,
              -0.025185681879520416
            ],
            [
              -0.025069350376725197,
              -0.024953020736575127,
              -0.024836689233779907,
              -0.024720357730984688,
              -0.02460402622818947,
              -0.024487696588039398,
              -0.02437136508524418,
              -0.02425503358244896
            ],
            [
              -0.02413870207965374,
              -0.02402237057685852,
              -0.02390604093670845,
              -0.02378970943391323,
              -0.02367337793111801,
              -0.023557046428322792,
              -0.023440716788172722,
              -0.023324385285377502
            ],
            [
              -0.023208053782582283,
              -0.023091722279787064,
              -0.022975390776991844,
              -0.022859061136841774,
              -0.022742729634046555,
              -0.022626398131251335,
              -0.022510066628456116,
              -0.022393735125660896
            ],
            [
              -0.022277405485510826,
              -0.022161073982715607,
              -0.022044742479920387,
              -0.021928410977125168,
              -0.021812081336975098,
              -0.021695749834179878,
              -0.02157941833138466,
              -0.02146308682858944
            ],
            [
              -0.02134675532579422,
              -0.02123042568564415,
              -0.02111409418284893,
              -0.02099776268005371,
              -0.02088143117725849,
              -0.02076510153710842,
              -0.020648770034313202,
              -0.020532438531517982
            ],
            [
              -0.020416107028722763,
              -0.020299775525927544,
              -0.020183445885777473,
              -0.020067114382982254,
              -0.019950782880187035,
              -0.019834451377391815,
              -0.019718119874596596,
              -0.019601790234446526
            ],
            [
              -0.019485458731651306,
              -0.019369127228856087,
              -0.019252795726060867,
              -0.019136466085910797,
              -0.019020134583115578,
              -0.01890380308032036,
              -0.01878747157752514,
              -0.01867114007472992
            ]
          ],
          [
            [
              -0.01855481043457985,
              -0.01843847893178463,
              -0.01832214742898941,
              -0.01820581592619419,
              -0.01808948628604412,
              -0.0179731547832489,
              -0.017856823280453682,
              -0.017740491777658463
            ],
            [
              -0.017624160274863243,
              -0.017507830634713173,
              -0.017391499131917953,
              -0.017275167629122734,
              -0.017158836126327515,
              -0.017042506486177444,
              -0.016926174983382225,
              -0.016809843480587006
            ],
            [
              -0.016693511977791786,
              -0.016577180474996567,
              -0.016460850834846497,
              -0.016344519332051277,
              -0.016228187829256058,
              -0.01611185632646084,
              -0.01599552482366562,
              -0.01587919518351555
            ],
            [
              -0.01576286368072033,
              -0.01564653217792511,
              -0.015530201606452465,
              -0.015413870103657246,
              -0.0152975395321846,
              -0.015181208029389381,
              -0.015064876526594162,
              -0.014948545955121517
            ],
            [
              -0.014832214452326298,
              -0.014715883880853653,
              -0.014599552378058434,
              -0.014483221806585789,
              -0.01436689030379057,
              -0.014250559732317924,
              -0.014134228229522705,
              -0.014017896726727486
            ],
            [
              -0.01390156615525484,
              -0.013785234652459621,
              -0.013668904080986977,
              -0.013552572578191757,
              -0.013436242006719112,
              -0.013319910503923893,
              -0.013203579001128674,
              -0.013087248429656029
            ],
            [
              -0.01297091692686081,
              -0.012854586355388165,
              -0.012738254852592945,
              -0.0126219242811203,
              -0.012505592778325081,
              -0.012389262206852436,
              -0.012272930704057217,
              -0.012156599201261997
            ],
            [
              -0.012040268629789352,
              -0.011923937126994133,
              -0.011807606555521488,
              -0.011691275052726269,
              -0.011574944481253624,
              -0.011458612978458405,
              -0.011342281475663185,
              -0.01122595090419054
            ]
          ],
          [
            [
              -0.011109619401395321,
              -0.010993288829922676,
              -0.010876957327127457,
              -0.010760626755654812,
              -0.010644295252859592,
              -0.010527963750064373,
              -0.010411633178591728,
              -0.010295301675796509
            ],
            [
              -0.010178971104323864,
              -0.010062639601528645,
              -0.009946309030056,
              -0.00982997752726078,
              -0.009713646955788136,
              -0.009597315452992916,
              -0.009480983950197697,
              -0.009364653378725052
            ],
            [
              -0.009248321875929832,
              -0.009131991304457188,
              -0.009015659801661968,
              -0.008899329230189323,
              -0.008782997727394104,
              -0.008666666224598885,
              -0.00855033565312624,
              -0.00843400415033102
            ],
            [
              -0.008317673578858376,
              -0.008201342076063156,
              -0.008085011504590511,
              -0.007968680001795292,
              -0.007852349430322647,
              -0.007736017927527428,
              -0.0076196868903934956,
              -0.0075033558532595634
            ],
            [
              -0.007387024816125631,
              -0.007270693313330412,
              -0.00715436227619648,
              -0.007038031239062548,
              -0.006921700201928616,
              -0.0068053691647946835,
              -0.006689038127660751,
              -0.006572707090526819
            ],
            [
              -0.006456376053392887,
              -0.006340044550597668,
              -0.006223713513463736,
              -0.0061073824763298035,
              -0.005991051439195871,
              -0.005874720402061939,
              -0.005758389364928007,
              -0.005642058327794075
            ],
            [
              -0.005525727290660143,
              -0.0054093957878649235,
              -0.005293064750730991,
              -0.005176733713597059,
              -0.005060402676463127,
              -0.004944071639329195,
              -0.004827740602195263,
              -0.004711409565061331
            ],
            [
              -0.004595078527927399,
              -0.004478747025132179,
              -0.004362415987998247,
              -0.004246084950864315,
              -0.004129753913730383,
              -0.004013422876596451,
              -0.003897091606631875,
              -0.003780760569497943
            ]
          ],
          [
            [
              -0.003664429532364011,
              -0.0035480984952300787,
              -0.003431767225265503,
              -0.003315436188131571,
              -0.0031991051509976387,
              -0.0030827741138637066,
              -0.002966442843899131,
              -0.0028501118067651987
            ],
            [
              -0.0027337807696312666,
              -0.0026174497324973345,
              -0.0025011184625327587,
              -0.0023847874253988266,
              -0.0022684563882648945,
              -0.0021521253511309624,
              -0.0020357940811663866,
              -0.0019194630440324545
            ],
            [
              -0.0018031320068985224,
              -0.0016868008533492684,
              -0.0015704698162153363,
              -0.0014541386626660824,
              -0.0013378076255321503,
              -0.0012214764719828963,
              -0.0011051454348489642,
              -0.0009888142812997103
            ],
            [
              -0.0008724832441657782,
              -0.0007561521488241851,
              -0.0006398210534825921,
              -0.0005234899581409991,
              -0.0004071588336955756,
              -0.00029082773835398257,
              -0.00017449664301238954,
              -5.8165547670796514e-05
            ],
            [
              5.8165547670796514e-05,
              0.00017449664301238954,
              0.00029082773835398257,
              0.0004071588336955756,
              0.0005234899581409991,
              0.0006398210534825921,
              0.0007561521488241851,
              0.0008724832441657782
            ],
            [
              0.0009888142812997103,
              0.0011051454348489642,
              0.0012214764719828963,
              0.0013378076255321503,
              0.0014541386626660824,
              0.0015704698162153363,
              0.0016868008533492684,
              0.0018031320068985224
            ],
            [
              0.0019194630440324545,
              0.0020357940811663866,
              0.0021521253511309624,
              0.0022684563882648945,
              0.0023847874253988266,
              0.0025011184625327587,
              0.0026174497324973345,
              0.0027337807696312666
            ],
            [
              0.0028501118067651987,
              0.002966442843899131,
              0.0030827741138637066,
              0.0031991051509976387,
              0.003315436188131571,
              0.003431767225265503,
              0.0035480984952300787,
              0.003664429532364011
            ]
          ],
          [
            [
              0.003780760569497943,
              0.003897091606631875,
              0.004013422876596451,
              0.004129753913730383,
              0.004246084950864315,
              0.004362415987998247,
              0.004478747025132179,
              0.004595078527927399
            ],
            [
              0.004711409565061331,
              0.004827740602195263,
              0.004944071639329195,
              0.005060402676463127,
              0.005176733713597059,
              0.005293064750730991,
              0.0054093957878649235,
              0.005525727290660143
            ],
            [
              0.005642058327794075,
              0.005758389364928007,
              0.005874720402061939,
              0.005991051439195871,
              0.0061073824763298035,
              0.006223713513463736,
              0.006340044550597668,
              0.006456376053392887
            ],
            [
              0.006572707090526819,
              0.006689038127660751,
              0.0068053691647946835,
              0.006921700201928616,
              0.007038031239062548,
              0.00715436227619648,
              0.007270693313330412,
              0.007387024816125631
            ],
            [
              0.0075033558532595634,
              0.0076196868903934956,
              0.007736017927527428,
              0.007852349430322647,
              0.007968680001795292,
              0.008085011504590511,
              0.008201342076063156,
              0.008317673578858376
            ],
            [
              0.00843400415033102,
              0.00855033565312624,
              0.008666666224598885,
              0.008782997727394104,
              0.008899329230189323,
              0.009015659801661968,
              0.009131991304457188,
              0.009248321875929832
            ],
            [
              0.009364653378725052,
              0.009480983950197697,
              0.009597315452992916,
              0.009713646955788136,
              0.00982997752726078,
              0.009946309030056,
              0.010062639601528645,
              0.010178971104323864
            ],
            [
              0.010295301675796509,
              0.010411633178591728,
              0.010527963750064373,
              0.010644295252859592,
              0.010760626755654812,
              0.010876957327127457,
              0.010993288829922676,
              0.011109619401395321
            ]
          ],
          [
            [
              0.01122595090419054,
              0.011342281475663185,
              0.011458612978458405,
              0.011574944481253624,
              0.011691275052726269,
              0.011807606555521488,
              0.011923937126994133,
              0.012040268629789352
            ],
            [
              0.012156599201261997,
              0.012272930704057217,
              0.012389262206852436,
              0.012505592778325081,
              0.0126219242811203,
              0.012738254852592945,
              0.012854586355388165,
              0.01297091692686081
            ],
            [
              0.013087248429656029,
              0.013203579001128674,
              0.013319910503923893,
              0.013436242006719112,
              0.013552572578191757,
              0.013668904080986977,
              0.013785234652459621,
              0.01390156615525484
            ],
            [
              0.014017896726727486,
              0.014134228229522705,
              0.014250559732317924,
              0.01436689030379057,
              0.014483221806585789,
              0.014599552378058434,
              0.014715883880853653,
              0.014832214452326298
            ],
            [
              0.014948545955121517,
              0.015064876526594162,
              0.015181208029389381,
              0.0152975395321846,
              0.015413870103657246,
              0.015530201606452465,
              0.01564653217792511,
              0.01576286368072033
            ],
            [
              0.01587919518351555,
              0.01599552482366562,
              0.01611185632646084,
              0.016228187829256058,
              0.016344519332051277,
              0.016460850834846497,
              0.016577180474996567,
              0.016693511977791786
            ],
            [
              0.016809843480587006,
              0.016926174983382225,
              0.017042506486177444,
              0.017158836126327515,
              0.017275167629122734,
              0.017391499131917953,
              0.017507830634713173,
              0.017624160274863243
            ],
            [
              0.017740491777658463,
              0.017856823280453682,
              0.0179731547832489,
              0.01808948628604412,
              0.01820581592619419,
              0.01832214742898941,
              0.01843847893178463,
              0.01855481043457985
            ]
          ],
          [
            [
              0.01867114007472992,
              0.01878747157752514,
              0.01890380308032036,
              0.019020134583115578,
              0.019136466085910797,
              0.019252795726060867,
              0.019369127228856087,
              0.019485458731651306
            ],
            [
              0.019601790234446526,
              0.019718119874596596,
              0.019834451377391815,
              0.019950782880187035,
              0.020067114382982254,
              0.020183445885777473,
              0.020299775525927544,
              0.020416107028722763
            ],
            [
              0.020532438531517982,
              0.020648770034313202,
              0.02076510153710842,
              0.02088143117725849,
              0.02099776268005371,
              0.02111409418284893,
              0.02123042568564415,
              0.02134675532579422
            ],
            [
              0.02146308682858944,
              0.02157941833138466,
              0.021695749834179878,
              0.021812081336975098,
              0.021928410977125168,
              0.022044742479920387,
              0.022161073982715607,
              0.022277405485510826
            ],
            [
              0.022393735125660896,
              0.022510066628456116,
              0.022626398131251335,
              0.022742729634046555,
              0.022859061136841774,
              0.022975390776991844,
              0.023091722279787064,
              0.023208053782582283
            ],
            [
              0.023324385285377502,
              0.023440716788172722,
              0.023557046428322792,
              0.02367337793111801,
              0.02378970943391323,
              0.02390604093670845,
              0.02402237057685852,
              0.02413870207965374
            ],
            [
              0.02425503358244896,
              0.02437136508524418,
              0.024487696588039398,
              0.02460402622818947,
              0.024720357730984688,
              0.024836689233779907,
              0.024953020736575127,
              0.025069350376725197
            ],
            [
              0.025185681879520416,
              0.025302013382315636,
              0.025418344885110855,
              0.025534676387906075,
              0.025651006028056145,
              0.025767337530851364,
              0.025883669033646584,
              0.026000000536441803
            ]
          ]
        ],
        [
          -0.007499999832361937,
          -0.0053571430034935474,
          -0.003214285708963871,
          -0.0010714285308495164,
          0.0010714285308495164,
          0.003214285708963871,
          0.0053571430034935474,
          0.007499999832361937
        ]
      ]
    },
    {
      "activation": "",
      "dilation": [
        16
      ],
      "groups": 1,
      "input_size": 8,
      "kernel_size": [
        7
      ],
      "output_size": 8,
      "shape": [
        null,
        null,
        8
      ],
      "type": "conv1d",
      "weights": [
        [
          [
            [
              -0.029999999329447746,
              -0.029865771532058716,
              -0.029731543734669685,
              -0.029597315937280655,
              -0.029463088139891624,
              -0.029328858479857445,
              -0.029194630682468414,
              -0.029060402885079384
            ],
            [
              -0.028926175087690353,
              -0.028791945427656174,
              -0.028657717630267143,
              -0.028523489832878113,
              -0.028389262035489082,
              -0.028255034238100052,
              -0.028120804578065872,
              -0.027986576780676842
            ],
            [
              -0.02785234898328781,
              -0.02771812118589878,
              -0.02758389338850975,
              -0.02744966372847557,
              -0.02731543593108654,
              -0.02718120813369751,
              -0.02704698033630848,
              -0.02691275253891945
            ],
            [
              -0.02677852287888527,
              -0.02664429508149624,
              -0.026510067284107208,
              -0.026375839486718178,
              -0.026241609826683998,
              -0.026107382029294968,
              -0.025973154231905937,
              -0.025838926434516907
            ],
            [
              -0.025704698637127876,
              -0.025570468977093697,
              -0.025436241179704666,
              -0.025302013382315636,
              -0.025167785584926605,
              -0.025033557787537575,
              -0.024899328127503395,
              -0.024765100330114365
            ],
            [
              -0.024630872532725334,
              -0.024496644735336304,
              -0.024362416937947273,
              -0.024228187277913094,
              -0.024093959480524063,
              -0.023959731683135033,
              -0.023825503885746002,
              -0.023691276088356972
            ],
            [
              -0.023557046428322792,
              -0.02342281863093376,
              -0.02328859083354473,
              -0.0231543630361557,
              -0.02302013337612152,
              -0.02288590557873249,
              -0.02275167778134346,
              -0.02261744998395443
            ],
            [
              -0.0224832221865654,
              -0.02234899252653122,
              -0.02221476472914219,
              -0.02208053693175316,
              -0.021946309134364128,
              -0.021812081336975098,
              -0.021677851676940918,
              -0.021543623879551888
            ]
          ],
          [
            [
              -0.021409396082162857,
              -0.021275168284773827,
              -0.021140940487384796,
              -0.021006710827350616,
              -0.020872483029961586,
              -0.020738255232572556,
              -0.020604027435183525,
              -0.020469797775149345
            ],
            [
              -0.020335569977760315,
              -0.020201342180371284,
              -0.020067114382982254,
              -0.019932886585593224,
              -0.019798656925559044,
              -0.019664429128170013,
              -0.019530201330780983,
              -0.019395973533391953
            ],
            [
              -0.019261745736002922,
              -0.019127516075968742,
              -0.018993288278579712,
              -0.01885906048119068,
              -0.01872483268380165,
              -0.01859060488641262,
              -0.01845637522637844,
              -0.01832214742898941
            ],
            [
              -0.01818791963160038,
              -0.01805369183421135,
              -0.01791946217417717,
              -0.01778523437678814,
              -0.01765100657939911,
              -0.01751677878201008,
              -0.017382550984621048,
              -0.01724832132458687
            ],
            [
              -0.017114093527197838,
              -0.016979865729808807,
              -0.016845637932419777,
              -0.016711410135030746,
              -0.016577180474996567,
              -0.016442952677607536,
              -0.016308724880218506,
              -0.016174497082829475
            ],
            [
              -0.016040269285440445,
              -0.015906039625406265,
              -0.015771811828017235,
              -0.015637584030628204,
              -0.0155033553019166,
              -0.015369127504527569,
              -0.015234899707138538,
              -0.015100670978426933
            ],
            [
              -0.014966443181037903,
              -0.014832214452326298,
              -0.014697986654937267,
              -0.014563757926225662,
              -0.014429530128836632,
              -0.014295302331447601,
              -0.014161073602735996,
              -0.014026845805346966
            ],
            [
              -0.01389261707663536,
              -0.01375838927924633,
              -0.0136241614818573,
              -0.013489932753145695,
              -0.013355704955756664,
              -0.01322147622704506,
              -0.013087248429656029,
              -0.012953019700944424
            ]
          ],
          [
            [
              -0.012818791903555393,
              -0.012684564106166363,
              -0.012550335377454758,
              -0.012416107580065727,
              -0.012281878851354122,
              -0.012147651053965092,
              -0.012013423256576061,
              -0.011879194527864456
            ],
            [
              -0.011744966730475426,
              -0.01161073800176382,
              -0.01147651020437479,
              -0.011342281475663185,
              -0.011208053678274155,
              -0.011073825880885124,
              -0.01093959715217352,
              -0.010805369354784489
            ],
            [
              -0.010671140626072884,
              -0.010536912828683853,
              -0.010402684099972248,
              -0.010268456302583218,
              -0.010134228505194187,
              -0.009999999776482582,
              -0.009865771979093552,
              -0.009731543250381947
            ],
            [
              -0.009597315452992916,
              -0.009463087655603886,
              -0.00932885892689228,
              -0.00919463112950325,
              -0.009060402400791645,
              -0.008926174603402615,
              -0.00879194587469101,
              -0.008657718077301979
            ],
            [
              -0.008523490279912949,
              -0.008389261551201344,
              -0.008255033753812313,
              -0.008120805025100708,
              -0.007986577227711678,
              -0.007852349430322647,
              -0.007718120701611042,
              -0.007583892438560724
            ],
            [
              -0.007449664641171694,
              -0.007315436378121376,
              -0.007181208115071058,
              -0.0070469798520207405,
              -0.006912751588970423,
              -0.006778523325920105,
              -0.0066442955285310745,
              -0.006510067265480757
            ],
            [
              -0.006375839002430439,
              -0.006241610739380121,
              -0.0061073824763298035,
              -0.005973154213279486,
              -0.005838925950229168,
              -0.0057046981528401375,
              -0.00557046988978982,
              -0.005436241626739502
            ],
            [
              -0.005302013363689184,
              -0.005167785100638866,
              -0.005033556837588549,
              -0.004899329040199518,
              -0.0047651007771492004,
              -0.004630872514098883,
              -0.004496644251048565,
              -0.004362415987998247
            ]
          ],
          [
            [
              -0.004228187724947929,
              -0.004093959927558899,
              -0.003959731664508581,
              -0.0038255034014582634,
              -0.0036912751384079456,
              -0.003557046875357628,
              -0.0034228188451379538,
              -0.003288590582087636
            ],
            [
              -0.0031543623190373182,
              -0.003020134288817644,
              -0.0028859060257673264,
              -0.0027516777627170086,
              -0.0026174497324973345,
              -0.0024832214694470167,
              -0.002348993206396699,
              -0.002214765176177025
            ],
            [
              -0.002080536913126707,
              -0.0019463087664917111,
              -0.0018120805034413934,
              -0.0016778523568063974,
              -0.0015436242101714015,
              -0.0014093959471210837,
              -0.0012751678004860878,
              -0.0011409396538510919
            ],
            [
              -0.001006711390800774,
              -0.0008724832441657782,
              -0.0007382550393231213,
              -0.0006040268344804645,
              -0.00046979865874163806,
              -0.00033557048300281167,
              -0.00020134227816015482,
              -6.711409514537081e-05
            ],
            [
              6.711409514537081e-05,
              0.00020134227816015482,
              0.00033557048300281167,
              0.00046979865874163806,
              0.0006040268344804645,
              0.0007382550393231213,
              0.0008724832441657782,
              0.001006711390800774
            ],
            [
              0.0011409396538510919,
              0.0012751678004860878,
              0.0014093959471210837,
              0.0015436242101714015,
              0.0016778523568063974,
              0.0018120805034413934,
              0.0019463087664917111,
              0.002080536913126707
            ],
            [
              0.002214765176177025,
              0.002348993206396699,
              0.0024832214694470167,
              0.0026174497324973345,
              0.0027516777627170086,
              0.0028859060257673264,
              0.003020134288817644,
              0.0031543623190373182
            ],
            [
              0.003288590582087636,
              0.0034228188451379538,
              0.003557046875357628,
              0.0036912751384079456,
              0.0038255034014582634,
              0.003959731664508581,
              0.004093959927558899,
              0.004228187724947929
            ]
          ],
          [
            [
              0.004362415987998247,
              0.004496644251048565,
              0.004630872514098883,
              0.0047651007771492004,
              0.004899329040199518,
              0.005033556837588549,
              0.005167785100638866,
              0.005302013363689184
            ],
            [
              0.005436241626739502,
              0.00557046988978982,
              0.0057046981528401375,
              0.005838925950229168,
              0.005973154213279486,
              0.0061073824763298035,
              0.006241610739380121,
              0.006375839002430439
            ],
            [
              0.006510067265480757,
              0.0066442955285310745,
              0.006778523325920105,
              0.006912751588970423,
              0.0070469798520207405,
              0.007181208115071058,
              0.007315436378121376,
              0.007449664641171694
            ],
            [
              0.007583892438560724,
              0.007718120701611042,
              0.007852349430322647,
              0.007986577227711678,
              0.008120805025100708,
              0.008255033753812313,
              0.008389261551201344,
              0.008523490279912949
            ],
            [
              0.008657718077301979,
              0.00879194587469101,
              0.008926174603402615,
              0.009060402400791645,
              0.00919463112950325,
              0.00932885892689228,
              0.009463087655603886,
              0.009597315452992916
            ],
            [
              0.009731543250381947,
              0.009865771979093552,
              0.009999999776482582,
              0.010134228505194187,
              0.010268456302583218,
              0.010402684099972248,
              0.010536912828683853,
              0.010671140626072884
            ],
            [
              0.010805369354784489,
              0.01093959715217352,
              0.011073825880885124,
              0.011208053678274155,
              0.011342281475663185,
              0.01147651020437479,
              0.01161073800176382,
              0.011744966730475426
            ],
            [
              0.011879194527864456,
              0.012013423256576061,
              0.012147651053965092,
              0.012281878851354122,
              0.012416107580065727,
              0.012550335377454758,
              0.012684564106166363,
              0.012818791903555393
            ]
          ],
          [
            [
              0.012953019700944424,
              0.013087248429656029,
              0.01322147622704506,
              0.013355704955756664,
              0.013489932753145695,
              0.0136241614818573,
              0.01375838927924633,
              0.01389261707663536
            ],
            [
              0.014026845805346966,
              0.014161073602735996,
              0.014295302331447601,
              0.014429530128836632,
              0.014563757926225662,
              0.014697986654937267,
              0.014832214452326298,
              0.014966443181037903
            ],
            [
              0.015100670978426933,
              0.015234899707138538,
              0.015369127504527569,
              0.0155033553019166,
              0.015637584030628204,
              0.015771811828017235,
              0.015906039625406265,
              0.016040269285440445
            ],
            [
              0.016174497082829475,
              0.016308724880218506,
              0.016442952677607536,
              0.016577180474996567,
              0.016711410135030746,
              0.016845637932419777,
              0.016979865729808807,
              0.017114093527197838
            ],
            [
              0.01724832132458687,
              0.017382550984621048,
              0.01751677878201008,
              0.01765100657939911,
              0.01778523437678814,
              0.01791946217417717,
              0.01805369183421135,
              0.01818791963160038
            ],
            [
              0.01832214742898941,
              0.01845637522637844,
              0.01859060488641262,
              0.01872483268380165,
              0.01885906048119068,
              0.018993288278579712,
              0.019127516075968742,
              0.019261745736002922
            ],
            [
              0.019395973533391953,
              0.019530201330780983,
              0.019664429128170013,
              0.019798656925559044,
              0.019932886585593224,
              0.020067114382982254,
              0.020201342180371284,
              0.020335569977760315
            ],
            [
              0.020469797775149345,
              0.020604027435183525,
              0.020738255232572556,
              0.020872483029961586,
              0.021006710827350616,
              0.021140940487384796,
              0.021275168284773827,
              0.021409396082162857
            ]
          ],
          [
            [
              0.021543623879551888,
              0.021677851676940918,
              0.021812081336975098,
              0.021946309134364128,
              0.02208053693175316,
              0.02221476472914219,
              0.02234899252653122,
              0.0224832221865654
            ],
            [
              0.02261744998395443,
              0.02275167778134346,
              0.02288590557873249,
              0.02302013337612152,
              0.0231543630361557,
              0.02328859083354473,
              0.02342281863093376,
              0.023557046428322792
            ],
            [
              0.023691276088356972,
              0.023825503885746002,
              0.023959731683135033,
              0.024093959480524063,
              0.024228187277913094,
              0.024362416937947273,
              0.024496644735336304,
              0.024630872532725334
            ],
            [
              0.024765100330114365,
              0.024899328127503395,
              0.025033557787537575,
              0.025167785584926605,
              0.025302013382315636,
              0.025436241179704666,
              0.025570468977093697,
              0.025704698637127876
            ],
            [
              0.025838926434516907,
              0.025973154231905937,
              0.026107382029294968,
              0.026241609826683998,
              0.026375839486718178,
              0.026510067284107208,
              0.02664429508149624,
              0.02677852287888527
            ],
            [
              0.02691275253891945,
              0.02704698033630848,
              0.02718120813369751,
              0.02731543593108654,
              0.02744966372847557,
              0.02758389338850975,
              0.02771812118589878,
              0.02785234898328781
            ],
            [
              0.027986576780676842,
              0.028120804578065872,
              0.028255034238100052,
              0.028389262035489082,
              0.028523489832878113,
              0.028657717630267143,
              0.028791945427656174,
              0.028926175087690353
            ],
            [
              0.029060402885079384,
              0.029194630682468414,
              0.029328858479857445,
              0.029463088139891624,
              0.029597315937280655,
              0.029731543734669685,
              0.029865771532058716,
              0.029999999329447746
            ]
          ]
        ],
        [
          -0.008500000461935997,
          -0.006071428768336773,
          -0.003642857074737549,
          -0.0012142857303842902,
          0.0012142857303842902,
          0.003642857074737549,
          0.006071428768336773,
          0.008500000461935997
        ]
      ]
    },
    {
      "activation": "",
      "dilation": [
        32
      ],
      "groups": 1,
      "input_size": 8,
      "kernel_size": [
        7
      ],
      "output_size": 8,
      "shape": [
        null,
        null,
        8
      ],
      "type": "conv1d",
      "weights": [
        [
          [
            [
              -0.03400000184774399,
              -0.033847875893116,
              -0.03369574993848801,
              -0.033543623983860016,
              -0.033391498029232025,
              -0.033239372074604034,
              -0.03308724984526634,
              -0.03293512389063835
            ],
            [
              -0.03278299793601036,
              -0.03263087198138237,
              -0.03247874602675438,
              -0.03232662007212639,
              -0.032174497842788696,
              -0.032022371888160706,
              -0.031870245933532715,
              -0.031718119978904724
            ],
            [
              -0.03156599402427673,
              -0.03141387179493904,
              -0.03126174584031105,
              -0.03110961988568306,
              -0.03095749393105507,
              -0.030805369839072227,
              -0.030653243884444237,
              -0.030501117929816246
            ],
            [
              -0.030348993837833405,
              -0.030196867883205414,
              -0.030044741928577423,
              -0.02989261783659458,
              -0.02974049188196659,
              -0.02958836778998375,
              -0.02943624183535576,
              -0.029284115880727768
            ],
            [
              -0.029131991788744926,
              -0.028979865834116936,
              -0.028827739879488945,
              -0.028675615787506104,
              -0.028523489832878113,
              -0.028371363878250122,
              -0.02821923978626728,
              -0.02806711383163929
            ],
            [
              -0.02791498973965645,
              -0.027762863785028458,
              -0.027610737830400467,
              -0.027458613738417625,
              -0.027306487783789635,
              -0.027154361829161644,
              -0.027002237737178802,
              -0.026850111782550812
            ],
            [
              -0.02669798582792282,
              -0.02654586173593998,
              -0.02639373578131199,
              -0.026241609826683998,
              -0.026089485734701157,
              -0.025937359780073166,
              -0.025785235688090324,
              -0.025633109733462334
            ],
            [
              -0.025480983778834343,
              -0.0253288596868515,
              -0.02517673373222351,
              -0.02502460777759552,
              -0.02487248368561268,
              -0.024720357730984688,
              -0.024568231776356697,
              -0.024416107684373856
            ]
          ],
          [
            [
              -0.024263981729745865,
              -0.024111857637763023,
              -0.023959731683135033,
              -0.023807605728507042,
              -0.0236554816365242,
              -0.02350335568189621,
              -0.02335122972726822,
              -0.023199105635285378
            ],
            [
              -0.023046979680657387,
              -0.022894853726029396,
              -0.022742729634046555,
              -0.022590603679418564,
              -0.022438479587435722,
              -0.02228635363280773,
              -0.02213422767817974,
              -0.0219821035861969
            ],
            [
              -0.02182997763156891,
              -0.021677851676940918,
              -0.021525727584958076,
              -0.021373601630330086,
              -0.021221475675702095,
              -0.021069351583719254,
              -0.020917225629091263,
              -0.02076510153710842
            ],
            [
              -0.02061297558248043,
              -0.02046084962785244,
              -0.0203087255358696,
              -0.020156599581241608,
              -0.020004473626613617,
              -0.019852349534630775,
              -0.019700223580002785,
              -0.019548097625374794
            ],
            [
              -0.019395973533391953,
              -0.019243847578763962,
              -0.01909172348678112,
              -0.01893959753215313,
              -0.01878747157752514,
              -0.018635347485542297,
              -0.018483221530914307,
              -0.018331095576286316
            ],
            [
              -0.018178971484303474,
              -0.018026845529675484,
              -0.017874719575047493,
              -0.01772259548306465,
              -0.01757046952843666,
              -0.01741834543645382,
              -0.01726621948182583,
              -0.017114093527197838
            ],
            [
              -0.016961969435214996,
              -0.016809843480587006,
              -0.016657717525959015,
              -0.016505593433976173,
              -0.016353467479348183,
              -0.016201341524720192,
              -0.01604921743273735,
              -0.01589709147810936
            ],
            [
              -0.01574496552348137,
              -0.015592841431498528,
              -0.015440715476870537,
              -0.01528859045356512,
              -0.015136465430259705,
              -0.014984340406954288,
              -0.014832214452326298,
              -0.014680089429020882
            ]
          ],
          [
            [
              -0.014527964405715466,
              -0.01437583938241005,
              -0.014223713427782059,
              -0.014071588404476643,
              -0.013919463381171227,
              -0.013767337426543236,
              -0.01361521240323782,
              -0.013463087379932404
            ],
            [
              -0.013310962356626987,
              -0.013158836401998997,
              -0.01300671137869358,
              -0.012854586355388165,
              -0.012702460400760174,
              -0.012550335377454758,
              -0.012398210354149342,
              -0.012246085330843925
            ],
            [
              -0.012093959376215935,
              -0.011941834352910519,
              -0.011789709329605103,
              -0.011637584306299686,
              -0.011485458351671696,
              -0.01133333332836628,
              -0.011181208305060863,
              -0.011029082350432873
            ],
            [
              -0.010876957327127457,
              -0.01072483230382204,
              -0.010572707280516624,
              -0.010420581325888634,
              -0.010268456302583218,
              -0.010116331279277802,
              -0.009964206255972385,
              -0.009812080301344395
            ],
            [
              -0.009659955278038979,
              -0.009507830254733562,
              -0.009355704300105572,
              -0.009203579276800156,
              -0.00905145425349474,
              -0.008899329230189323,
              -0.008747203275561333,
              -0.008595078252255917
            ],
            [
              -0.0084429532289505,
              -0.008290828205645084,
              -0.008138702251017094,
              -0.007986577227711678,
              -0.007834452204406261,
              -0.007682326715439558,
              -0.007530201226472855,
              -0.0073780762031674385
            ],
            [
              -0.007225950714200735,
              -0.007073825690895319,
              -0.006921700201928616,
              -0.006769574712961912,
              -0.006617449689656496,
              -0.006465324200689793,
              -0.0063131991773843765,
              -0.006161073688417673
            ],
            [
              -0.006008948665112257,
              -0.005856823176145554,
              -0.0057046981528401375,
              -0.005552572663873434,
              -0.005400447640568018,
              -0.0052483221516013145,
              -0.005096196662634611,
              -0.004944071639329195
            ]
          ],
          [
            [
              -0.004791946150362492,
              -0.0046398211270570755,
              -0.004487695638090372,
              -0.004335570614784956,
              -0.0041834451258182526,
              -0.0040313201025128365,
              -0.003879194613546133,
              -0.0037270693574100733
            ],
            [
              -0.0035749441012740135,
              -0.0034228188451379538,
              -0.003270693589001894,
              -0.0031185683328658342,
              -0.002966442843899131,
              -0.002814317587763071,
              -0.0026621923316270113,
              -0.0025100670754909515
            ],
            [
              -0.0023579418193548918,
              -0.002205816563218832,
              -0.0020536913070827723,
              -0.0019015660509467125,
              -0.001749440678395331,
              -0.0015973154222592711,
              -0.0014451901661232114,
              -0.0012930649099871516
            ],
            [
              -0.0011409396538510919,
              -0.0009888142812997103,
              -0.0008366890251636505,
              -0.0006845637690275908,
              -0.0005324384546838701,
              -0.0003803131985478103,
              -0.0002281879133079201,
              -7.606264261994511e-05
            ],
            [
              7.606264261994511e-05,
              0.0002281879133079201,
              0.0003803131985478103,
              0.0005324384546838701,
              0.0006845637690275908,
              0.0008366890251636505,
              0.0009888142812997103,
              0.0011409396538510919
            ],
            [
              0.0012930649099871516,
              0.0014451901661232114,
              0.0015973154222592711,
              0.001749440678395331,
              0.0019015660509467125,
              0.0020536913070827723,
              0.002205816563218832,
              0.0023579418193548918
            ],
            [
              0.0025100670754909515,
              0.0026621923316270113,
              0.002814317587763071,
              0.002966442843899131,
              0.0031185683328658342,
              0.003270693589001894,
              0.0034228188451379538,
              0.0035749441012740135
            ],
            [
              0.0037270693574100733,
              0.003879194613546133,
              0.0040313201025128365,
              0.0041834451258182526,
              0.004335570614784956,
              0.004487695638090372,
              0.0046398211270570755,
              0.004791946150362492
            ]
          ],
          [
            [
              0.004944071639329195,
              0.005096196662634611,
              0.0052483221516013145,
              0.005400447640568018,
              0.005552572663873434,
              0.0057046981528401375,
              0.005856823176145554,
              0.006008948665112257
            ],
            [
              0.006161073688417673,
              0.0063131991773843765,
              0.006465324200689793,
              0.006617449689656496,
              0.006769574712961912,
              0.006921700201928616,
              0.007073825690895319,
              0.007225950714200735
            ],
            [
              0.0073780762031674385,
              0.007530201226472855,
              0.007682326715439558,
              0.007834452204406261,
              0.007986577227711678,
              0.008138702251017094,
              0.008290828205645084,
              0.0084429532289505
            ],
            [
              0.008595078252255917,
              0.008747203275561333,
              0.008899329230189323,
              0.00905145425349474,
              0.009203579276800156,
              0.009355704300105572,
              0.009507830254733562,
              0.009659955278038979
            ],
            [
              0.009812080301344395,
              0.009964206255972385,
              0.010116331279277802,
              0.010268456302583218,
              0.010420581325888634,
              0.010572707280516624,
              0.01072483230382204,
              0.010876957327127457
            ],
            [
              0.011029082350432873,
              0.011181208305060863,
              0.01133333332836628,
              0.011485458351671696,
              0.011637584306299686,
              0.011789709329605103,
              0.011941834352910519,
              0.012093959376215935
            ],
            [
              0.012246085330843925,
              0.012398210354149342,
              0.012550335377454758,
              0.012702460400760174,
              0.012854586355388165,
              0.01300671137869358,
              0.013158836401998997,
              0.013310962356626987
            ],
            [
              0.013463087379932404,
              0.01361521240323782,
              0.013767337426543236,
              0.013919463381171227,
              0.014071588404476643,
              0.014223713427782059,
              0.01437583938241005,
              0.014527964405715466
            ]
          ],
          [
            [
              0.014680089429020882,
              0.014832214452326298,
              0.014984340406954288,
              0.015136465430259705,
              0.01528859045356512,
              0.015440715476870537,
              0.015592841431498528,
              0.01574496552348137
            ],
            [
              0.01589709147810936,
              0.01604921743273735,
              0.016201341524720192,
              0.016353467479348183,
              0.016505593433976173,
              0.016657717525959015,
              0.016809843480587006,
              0.016961969435214996
            ],
            [
              0.017114093527197838,
              0.01726621948182583,
              0.01741834543645382,
              0.01757046952843666,
              0.01772259548306465,
              0.017874719575047493,
              0.018026845529675484,
              0.018178971484303474
            ],
            [
              0.018331095576286316,
              0.018483221530914307,
              0.018635347485542297,
              0.01878747157752514,
              0.01893959753215313,
              0.01909172348678112,
              0.019243847578763962,
              0.019395973533391953
            ],
            [
              0.019548097625374794,
              0.019700223580002785,
              0.019852349534630775,
              0.020004473626613617,
              0.020156599581241608,
              0.0203087255358696,
              0.02046084962785244,
              0.02061297558248043
            ],
            [
              0.02076510153710842,
              0.020917225629091263,
              0.021069351583719254,
              0.021221475675702095,
              0.021373601630330086,
              0.021525727584958076,
              0.021677851676940918,
              0.02182997763156891
            ],
            [
              0.0219821035861969,
              0.02213422767817974,
              0.02228635363280773,
              0.022438479587435722,
              0.022590603679418564,
              0.022742729634046555,
              0.022894853726029396,
              0.023046979680657387
            ],
            [
              0.023199105635285378,
              0.02335122972726822,
              0.02350335568189621,
              0.0236554816365242,
              0.023807605728507042,
              0.023959731683135033,
              0.024111857637763023,
              0.024263981729745865
            ]
          ],
          [
            [
              0.024416107684373856,
              0.024568231776356697,
              0.024720357730984688,
              0.02487248368561268,
              0.02502460777759552,
              0.02517673373222351,
              0.0253288596868515,
              0.025480983778834343
            ],
            [
              0.025633109733462334,
              0.025785235688090324,
              0.025937359780073166,
              0.026089485734701157,
              0.026241609826683998,
              0.02639373578131199,
              0.02654586173593998,
              0.02669798582792282
            ],
            [
              0.026850111782550812,
              0.027002237737178802,
              0.027154361829161644,
              0.027306487783789635,
              0.027458613738417625,
              0.027610737830400467,
              0.027762863785028458,
              0.02791498973965645
            ],
            [
              0.02806711383163929,
              0.02821923978626728,
              0.028371363878250122,
              0.028523489832878113,
              0.028675615787506104,
              0.028827739879488945,
              0.028979865834116936,
              0.029131991788744926
            ],
            [
              0.029284115880727768,
              0.02943624183535576,
              0.02958836778998375,
              0.02974049188196659,
              0.02989261783659458,
              0.030044741928577423,
              0.030196867883205414,
              0.030348993837833405
            ],
            [
              0.030501117929816246,
              0.030653243884444237,
              0.030805369839072227,
              0.03095749393105507,
              0.03110961988568306,
              0.03126174584031105,
              0.03141387179493904,
              0.03156599402427673
            ],
            [
              0.031718119978904724,
              0.031870245933532715,
              0.032022371888160706,
              0.032174497842788696,
              0.03232662007212639,
              0.03247874602675438,
              0.03263087198138237,
              0.03278299793601036
            ],
            [
              0.03293512389063835,
              0.03308724984526634,
              0.033239372074604034,
              0.033391498029232025,
              0.033543623983860016,
              0.03369574993848801,
              0.033847875893116,
              0.03400000184774399
            ]
          ]
        ],
        [
          -0.0044999998062849045,
          -0.003214285708963871,
          -0.0019285713788121939,
          -0.0006428571650758386,
          0.0006428571650758386,
          0.0019285713788121939,
          0.003214285708963871,
          0.0044999998062849045
        ]
      ]
    },
    {
      "activation": "",
      "dilation": [
        64
      ],
      "groups": 1,
      "input_size": 8,
      "kernel_size": [
        7
      ],
      "output_size": 8,
      "shape": [
        null,
        null,
        8
      ],
      "type": "conv1d",
      "weights": [
        [
          [
            [
              -0.017999999225139618,
              -0.01791946217417717,
              -0.01783892698585987,
              -0.017758389934897423,
              -0.017677852883934975,
              -0.017597315832972527,
              -0.01751677878201008,
              -0.01743624173104763
            ],
            [
              -0.017355704680085182,
              -0.017275167629122734,
              -0.017194630578160286,
              -0.017114093527197838,
              -0.01703355647623539,
              -0.01695301942527294,
              -0.016872482374310493,
              -0.016791947185993195
            ],
            [
              -0.016711410135030746,
              -0.0166308730840683,
              -0.01655033603310585,
              -0.016469798982143402,
              -0.016389261931180954,
              -0.016308724880218506,
              -0.016228187829256058,
              -0.01614765077829361
            ],
            [
              -0.01606711372733116,
              -0.015986576676368713,
              -0.015906039625406265,
              -0.015825502574443817,
              -0.01574496552348137,
              -0.01566443033516407,
              -0.015583892352879047,
              -0.0155033553019166
            ],
            [
              -0.015422819182276726,
              -0.015342282131314278,
              -0.01526174508035183,
              -0.015181208029389381,
              -0.015100670978426933,
              -0.015020133927464485,
              -0.014939596876502037,
              -0.014859060756862164
            ],
            [
              -0.014778523705899715,
              -0.014697986654937267,
              -0.01461744960397482,
              -0.014536912553012371,
              -0.014456375502049923,
              -0.01437583938241005,
              -0.014295302331447601,
              -0.014214765280485153
            ],
            [
              -0.014134228229522705,
              -0.014053691178560257,
              -0.013973154127597809,
              -0.01389261707663536,
              -0.013812080956995487,
              -0.013731543906033039,
              -0.013651006855070591,
              -0.013570469804108143
            ],
            [
              -0.013489932753145695,
              -0.013409395702183247,
              -0.013328858651220798,
              -0.013248322531580925,
              -0.013167785480618477,
              -0.013087248429656029,
              -0.01300671137869358,
              -0.012926174327731133
            ]
          ],
          [
            [
              -0.012845637276768684,
              -0.012765100225806236,
              -0.012684564106166363,
              -0.012604027055203915,
              -0.012523490004241467,
              -0.012442952953279018,
              -0.01236241590231657,
              -0.012281878851354122
            ],
            [
              -0.012201342731714249,
              -0.0121208056807518,
              -0.012040268629789352,
              -0.011959731578826904,
              -0.011879194527864456,
              -0.011798657476902008,
              -0.01171812042593956,
              -0.011637584306299686
            ],
            [
              -0.011557047255337238,
