{
  "in_shape": [
    null,
    null,
    1
  ],
  "layers": [
    {
      "activation": "tanh",
      "activation_fold": {
        "scale": 0.5555555555555556,
        "source": "tanh(x / 1.8)"
      },
      "dilation": [
        1
      ],
      "groups": 1,
      "input_size": 1,
      "kernel_size": [
        7
      ],
      "output_size": 8,
      "shape": [
        null,
        null,
        8
      ],
      "type": "conv1d",
      "weights": [
        [
          [
            [
              -0.00999999956952201,
              -0.009636363635460537,
              -0.009272727701399062,
              -0.008909090732534727,
              -0.008545454798473252,
              -0.008181818347010348,
              -0.007818181895547444,
              -0.007454545444084539
            ]
          ],
          [
            [
              -0.007090908992621634,
              -0.006727272541158729,
              -0.006363636607097255,
              -0.00600000015563435,
              -0.005636363704171446,
              -0.005272727252708541,
              -0.004909090801245636,
              -0.004545454349782732
            ]
          ],
          [
            [
              -0.004181818157020543,
              -0.003818181705557638,
              -0.0034545455127954483,
              -0.003090909061332544,
              -0.0027272726098696394,
              -0.00236363641710745,
              -0.001999999965644545,
              -0.0016363636435319981
            ]
          ],
          [
            [
              -0.001272727321419451,
              -0.0009090909346317252,
              -0.0005454545478439993,
              -0.0001818181772250682,
              0.0001818181772250682,
              0.0005454545478439993,
              0.0009090909346317252,
              0.001272727321419451
            ]
          ],
          [
            [
              0.0016363636435319981,
              0.001999999965644545,
              0.00236363641710745,
              0.0027272726098696394,
              0.003090909061332544,
              0.0034545455127954483,
              0.003818181705557638,
              0.004181818157020543
            ]
          ],
          [
            [
              0.004545454349782732,
              0.004909090801245636,
              0.005272727252708541,
              0.005636363704171446,
              0.00600000015563435,
              0.006363636607097255,
              0.006727272541158729,
              0.007090908992621634
            ]
          ],
          [
            [
              0.007454545444084539,
              0.007818181895547444,
              0.008181818347010348,
              0.008545454798473252,
              0.008909090732534727,
              0.009272727701399062,
              0.009636363635460537,
              0.00999999956952201
            ]
          ]
        ],
        [
          -0.00305555553899871,
          -0.0021825397076706094,
          -0.001309523746992151,
          -0.00043650794800163974,
          0.00043650794800163974,
          0.001309523746992151,
          0.0021825397076706094,
          0.00305555553899871
        ]
      ]
    },
    {
      "activation": "tanh",
      "activation_fold": {
        "scale": 0.5555555555555556,
        "source": "tanh(x / 1.8)"
      },
      "dilation": [
        2
      ],
      "groups": 1,
      "input_size": 8,
      "kernel_size": [
        7
      ],
      "output_size": 8,
      "shape": [
        null,
        null,
        8
      ],
      "type": "conv1d",
      "weights": [
        [
          [
            [
              -0.01222222215599484,
              -0.01216753696401914,
              -0.01211285073724058,
              -0.012058165545264881,
              -0.012003480353289181,
              -0.01194879412651062,
              -0.01189410893453492,
              -0.011839423742559222
            ],
            [
              -0.011784737515780661,
              -0.011730052323804962,
              -0.011675367131829262,
              -0.011620680905050702,
              -0.011565995713075003,
              -0.011511309486296443,
              -0.011456624294320743,
              -0.011401939102345044
            ],
            [
              -0.011347252875566483,
              -0.011292567683590783,
              -0.011237882491615085,
              -0.011183196264836524,
              -0.011128511072860824,
              -0.011073825880885124,
              -0.011019139654106565,
              -0.010964454462130865
            ],
            [
              -0.010909769270155165,
              -0.010855083043376606,
              -0.010800397851400906,
              -0.010745712659425206,
              -0.010691026432646645,
              -0.010636341240670946,
              -0.010581655013892386,
              -0.010526969821916686
            ],
            [
              -0.010472284629940987,
              -0.010417598403162427,
              -0.010362913211186727,
              -0.010308228019211028,
              -0.010253541792432468,
              -0.010198856600456769,
              -0.010144171408481069,
              -0.010089485181702508
            ],
            [
              -0.010034799989726808,
              -0.00998011479775111,
              -0.009925428570972549,
              -0.009870743378996849,
              -0.00981605715221829,
              -0.00976137196024259,
              -0.00970668676826689,
              -0.00965200054148833
            ],
            [
              -0.009597315349512631,
              -0.009542630157536931,
              -0.00948794393075837,
              -0.00943325873878267,
              -0.009378573546806972,
              -0.009323887320028411,
              -0.009269202128052711,
              -0.009214516936077012
            ],
            [
              -0.009159830709298452,
              -0.009105145517322753,
              -0.009050460325347053,
              -0.008995774098568493,
              -0.008941088906592794,
              -0.008886402679814233,
              -0.008831717487838533,
              -0.008777032295862835
            ]
          ],
          [
            [
              -0.008722346069084274,
              -0.008667660877108574,
              -0.008612975167731445,
              -0.008558289975755745,
              -0.008503604266378615,
              -0.008448918557001485,
              -0.008394233365025785,
              -0.008339547655648656
            ],
            [
              -0.008284861946271526,
              -0.008230176236894395,
              -0.008175491044918697,
              -0.008120805335541567,
              -0.008066119626164436,
              -0.008011434434188737,
              -0.007956748724811608,
              -0.007902063015434477
            ],
            [
              -0.007847377823458778,
              -0.007792692114081648,
              -0.0077380064047045186,
              -0.007683320695327388,
              -0.007628635503351688,
              -0.007573949793974559,
              -0.007519264084597429,
              -0.0074645788926217295
            ],
            [
              -0.0074098931832446,
              -0.0073552074738674695,
              -0.00730052176449034,
              -0.00724583657251464,
              -0.007191150863137511,
              -0.00713646515376038,
              -0.007081779961784681,
              -0.007027094252407551
            ],
            [
              -0.006972408543030421,
              -0.006917722833653292,
              -0.006863037641677592,
              -0.006808351932300462,
              -0.006753666222923332,
              -0.006698981030947632,
              -0.006644295321570503,
              -0.006589609612193373
            ],
            [
              -0.006534924420217673,
              -0.006480238710840544,
              -0.006425553001463413,
              -0.006370867292086284,
              -0.006316182100110584,
              -0.006261496390733454,
              -0.006206810681356325,
              -0.006152125489380625
            ],
            [
              -0.006097439780003495,
              -0.006042754070626365,
              -0.005988068361249235,
              -0.005933383169273536,
              -0.005878697459896406,
              -0.005824011750519276,
              -0.005769326558543577,
              -0.005714640849166446
            ],
            [
              -0.005659955139789317,
              -0.005605269947813617,
              -0.0055505842384364875,
              -0.005495898529059357,
              -0.005441212819682227,
              -0.005386527627706528,
              -0.005331841918329398,
              -0.0052771562089522685
            ]
          ],
          [
            [
              -0.005222471016976569,
              -0.005167785307599438,
              -0.005113099598222309,
              -0.005058413888845179,
              -0.0050037286968694795,
              -0.00494904298749235,
              -0.0048943572781152194,
              -0.004839672086139521
            ],
            [
              -0.00478498637676239,
              -0.0047303006673852606,
              -0.004675614958008131,
              -0.004620929766032431,
              -0.004566244056655301,
              -0.004511558347278171,
              -0.0044568731553024715,
              -0.004402187445925342
            ],
            [
              -0.004347501736548212,
              -0.004292816285871797,
              -0.004238130835195383,
              -0.0041834451258182526,
              -0.004128759675141838,
              -0.004074073965764708,
              -0.004019388515088294,
              -0.003964703064411879
            ],
            [
              -0.003910017355034749,
              -0.0038553319043583343,
              -0.0038006461949812043,
              -0.0037459607443047897,
              -0.003691275293628375,
              -0.003636589584251245,
              -0.0035819041335748304,
              -0.0035272184241977003
            ],
            [
              -0.0034725329735212857,
              -0.0034178472641441557,
              -0.003363161813467741,
              -0.0033084763627913264,
              -0.0032537906534141968,
              -0.0031991052027377817,
              -0.003144419493360652,
              -0.0030897340426842375
            ],
            [
              -0.003035048592007823,
              -0.0029803628826306928,
              -0.002925677431954278,
              -0.002870991722577148,
              -0.0028163062719007335,
              -0.0027616205625236034,
              -0.002706935111847189,
              -0.002652249661170774
            ],
            [
              -0.002597563951793644,
              -0.0025428785011172295,
              -0.0024881927917401,
              -0.002433507341063685,
              -0.00237882189038727,
              -0.0023241361810101406,
              -0.002269450730333726,
              -0.002214765020956596
            ],
            [
              -0.0021600795702801812,
              -0.002105393990253409,
              -0.0020507084102266366,
              -0.0019960228301998642,
              -0.0019413372501730919,
              -0.0018866517994966772,
              -0.001831966219469905,
              -0.0017772806394431328
            ]
          ],
          [
            [
              -0.0017225950594163604,
              -0.0016679094793895881,
              -0.0016132238993628158,
              -0.0015585384486864011,
              -0.0015038528686596288,
              -0.0014491672886328565,
              -0.0013944817086060843,
              -0.001339796128579312
            ],
            [
              -0.0012851106779028973,
              -0.001230425097876125,
              -0.0011757395178493527,
              -0.0011210539378225803,
              -0.001066368357795808,
              -0.0010116828424442145,
              -0.0009569972624174423,
              -0.00090231168239067
            ],
            [
              -0.0008476261670390766,
              -0.0007929405870123042,
              -0.000738255006985532,
              -0.0006835694916339385,
              -0.0006288839116071662,
              -0.0005741983315803938,
              -0.0005195128162288003,
              -0.00046482723620202806
            ],
            [
              -0.0004101416885128452,
              -0.0003554561408236623,
              -0.00030077056079689,
              -0.00024608501310770714,
              -0.00019139944924972951,
              -0.00013671390156054663,
              -8.202833770256904e-05,
              -2.7342779907889457e-05
            ],
            [
              2.7342779907889457e-05,
              8.202833770256904e-05,
              0.00013671390156054663,
              0.00019139944924972951,
              0.00024608501310770714,
              0.00030077056079689,
              0.0003554561408236623,
              0.0004101416885128452
            ],
            [
              0.00046482723620202806,
              0.0005195128162288003,
              0.0005741983315803938,
              0.0006288839116071662,
              0.0006835694916339385,
              0.000738255006985532,
              0.0007929405870123042,
              0.0008476261670390766
            ],
            [
              0.00090231168239067,
              0.0009569972624174423,
              0.0010116828424442145,
              0.001066368357795808,
              0.0011210539378225803,
              0.0011757395178493527,
              0.001230425097876125,
              0.0012851106779028973
            ],
            [
              0.001339796128579312,
              0.0013944817086060843,
              0.0014491672886328565,
              0.0015038528686596288,
              0.0015585384486864011,
              0.0016132238993628158,
              0.0016679094793895881,
              0.0017225950594163604
            ]
          ],
          [
            [
              0.0017772806394431328,
              0.001831966219469905,
              0.0018866517994966772,
              0.0019413372501730919,
              0.0019960228301998642,
              0.0020507084102266366,
              0.002105393990253409,
              0.0021600795702801812
            ],
            [
              0.002214765020956596,
              0.002269450730333726,
              0.0023241361810101406,
              0.00237882189038727,
              0.002433507341063685,
              0.0024881927917401,
              0.0025428785011172295,
              0.002597563951793644
            ],
            [
              0.002652249661170774,
              0.002706935111847189,
              0.0027616205625236034,
              0.0028163062719007335,
              0.002870991722577148,
              0.002925677431954278,
              0.0029803628826306928,
              0.003035048592007823
            ],
            [
              0.0030897340426842375,
              0.003144419493360652,
              0.0031991052027377817,
              0.0032537906534141968,
              0.0033084763627913264,
              0.003363161813467741,
              0.0034178472641441557,
              0.0034725329735212857
            ],
            [
              0.0035272184241977003,
              0.0035819041335748304,
              0.003636589584251245,
              0.003691275293628375,
              0.0037459607443047897,
              0.0038006461949812043,
              0.0038553319043583343,
              0.003910017355034749
            ],
            [
              0.003964703064411879,
              0.004019388515088294,
              0.004074073965764708,
              0.004128759675141838,
              0.0041834451258182526,
              0.004238130835195383,
              0.004292816285871797,
              0.004347501736548212
            ],
            [
              0.004402187445925342,
              0.0044568731553024715,
              0.004511558347278171,
              0.004566244056655301,
              0.004620929766032431,
              0.004675614958008131,
              0.0047303006673852606,
              0.00478498637676239
            ],
            [
              0.004839672086139521,
              0.0048943572781152194,
              0.00494904298749235,
              0.0050037286968694795,
              0.005058413888845179,
              0.005113099598222309,
              0.005167785307599438,
              0.005222471016976569
            ]
          ],
          [
            [
              0.0052771562089522685,
              0.005331841918329398,
              0.005386527627706528,
              0.005441212819682227,
              0.005495898529059357,
              0.0055505842384364875,
              0.005605269947813617,
              0.005659955139789317
            ],
            [
              0.005714640849166446,
              0.005769326558543577,
              0.005824011750519276,
              0.005878697459896406,
              0.005933383169273536,
              0.005988068361249235,
              0.006042754070626365,
              0.006097439780003495
            ],
            [
              0.006152125489380625,
              0.006206810681356325,
              0.006261496390733454,
              0.006316182100110584,
              0.006370867292086284,
              0.006425553001463413,
              0.006480238710840544,
              0.006534924420217673
            ],
            [
              0.006589609612193373,
              0.006644295321570503,
              0.006698981030947632,
              0.006753666222923332,
              0.006808351932300462,
              0.006863037641677592,
              0.006917722833653292,
              0.006972408543030421
            ],
            [
              0.007027094252407551,
              0.007081779961784681,
              0.00713646515376038,
              0.007191150863137511,
              0.00724583657251464,
              0.00730052176449034,
              0.0073552074738674695,
              0.0074098931832446
            ],
            [
              0.0074645788926217295,
              0.007519264084597429,
              0.007573949793974559,
              0.007628635503351688,
              0.007683320695327388,
              0.0077380064047045186,
              0.007792692114081648,
              0.007847377823458778
            ],
            [
              0.007902063015434477,
              0.007956748724811608,
              0.008011434434188737,
              0.008066119626164436,
              0.008120805335541567,
              0.008175491044918697,
              0.008230176236894395,
              0.008284861946271526
            ],
            [
              0.008339547655648656,
              0.008394233365025785,
              0.008448918557001485,
              0.008503604266378615,
              0.008558289975755745,
              0.008612975167731445,
              0.008667660877108574,
              0.008722346069084274
            ]
          ],
          [
            [
              0.008777032295862835,
              0.008831717487838533,
              0.008886402679814233,
              0.008941088906592794,
              0.008995774098568493,
              0.009050460325347053,
              0.009105145517322753,
              0.009159830709298452
            ],
            [
              0.009214516936077012,
              0.009269202128052711,
              0.009323887320028411,
              0.009378573546806972,
              0.00943325873878267,
              0.00948794393075837,
              0.009542630157536931,
              0.009597315349512631
            ],
            [
              0.00965200054148833,
              0.00970668676826689,
              0.00976137196024259,
              0.00981605715221829,
              0.009870743378996849,
              0.009925428570972549,
              0.00998011479775111,
              0.010034799989726808
            ],
            [
              0.010089485181702508,
              0.010144171408481069,
              0.010198856600456769,
              0.010253541792432468,
              0.010308228019211028,
              0.010362913211186727,
              0.010417598403162427,
              0.010472284629940987
            ],
            [
              0.010526969821916686,
              0.010581655013892386,
              0.010636341240670946,
              0.010691026432646645,
              0.010745712659425206,
              0.010800397851400906,
              0.010855083043376606,
              0.010909769270155165
            ],
            [
              0.010964454462130865,
              0.011019139654106565,
              0.011073825880885124,
              0.011128511072860824,
              0.011183196264836524,
              0.011237882491615085,
              0.011292567683590783,
              0.011347252875566483
            ],
            [
              0.011401939102345044,
              0.011456624294320743,
              0.011511309486296443,
              0.011565995713075003,
              0.011620680905050702,
              0.011675367131829262,
              0.011730052323804962,
              0.011784737515780661
            ],
            [
              0.011839423742559222,
              0.01189410893453492,
              0.01194879412651062,
              0.012003480353289181,
              0.012058165545264881,
              0.01211285073724058,
              0.01216753696401914,
              0.01222222215599484
            ]
          ]
        ],
        [
          -0.0036111111856169174,
          -0.0025793651325835124,
          -0.0015476190795501075,
          -0.0005158730265167025,
          0.0005158730265167025,
          0.0015476190795501075,
          0.0025793651325835124,
          0.0036111111856169174
        ]
      ]
    },
    {
      "activation": "tanh",
      "activation_fold": {
        "scale": 0.5555555555555556,
        "source": "tanh(x / 1.8)"
      },
      "dilation": [
        4
      ],
      "groups": 1,
      "input_size": 8,
      "kernel_size": [
        7
      ],
      "output_size": 8,
      "shape": [
        null,
        null,
        8
      ],
      "type": "conv1d",
      "weights": [
        [
          [
            [
              -0.01444444474246767,
              -0.014379816129803658,
              -0.014315187517139647,
              -0.014250558904475637,
              -0.014185931326614486,
              -0.014121302713950476,
              -0.014056674101286465,
              -0.013992045488622455
            ],
            [
              -0.013927416875958443,
              -0.013862789298097294,
              -0.013798160685433282,
              -0.013733532072769271,
              -0.01366890346010526,
              -0.01360427588224411,
              -0.0135396472695801,
              -0.01347501865691609
            ],
            [
              -0.013410390044252079,
              -0.013345761431588067,
              -0.013281133853726918,
              -0.013216505241062907,
              -0.013151876628398895,
              -0.013087248015734885,
              -0.013022620437873734,
              -0.012957991825209724
            ],
            [
              -0.012893363212545713,
              -0.012828734599881703,
              -0.012764105987217693,
              -0.012699478409356542,
              -0.012634849796692531,
              -0.01257022118402852,
              -0.012505592571364509,
              -0.012440963958700499
            ],
            [
              -0.012376336380839348,
              -0.012311707768175337,
              -0.012247079155511327,
              -0.012182450542847317,
              -0.012117822964986166,
              -0.012053194352322156,
              -0.011988565739658145,
              -0.011923937126994133
            ],
            [
              -0.011859308514330123,
              -0.011794680936468972,
              -0.011730052323804962,
              -0.011665423711140951,
              -0.01160079509847694,
              -0.01153616752061579,
              -0.01147153890795178,
              -0.01140691029528777
            ],
            [
              -0.011342281682623757,
              -0.011277653069959747,
              -0.011213025492098598,
              -0.011148396879434586,
              -0.011083768266770575,
              -0.011019139654106565,
              -0.010954511041442554,
              -0.010889883463581404
            ],
            [
              -0.010825254850917393,
              -0.010760626238253381,
              -0.01069599762558937,
              -0.010631370047728222,
              -0.01056674143506421,
              -0.0105021128224002,
              -0.010437484209736189,
              -0.010372855597072178
            ]
          ],
          [
            [
              -0.010308228019211028,
              -0.010243599406547017,
              -0.010178970793883007,
              -0.010114342181218995,
              -0.010049714603357846,
              -0.009985085990693834,
              -0.009920457378029823,
              -0.009855828765365813
            ],
            [
              -0.009791200152701802,
              -0.009726572574840652,
              -0.009661943962176641,
              -0.009597315349512631,
              -0.009532686736848619,
              -0.00946805915898747,
              -0.00940343054632346,
              -0.009338801933659447
            ],
            [
              -0.009274173320995437,
              -0.009209544708331427,
              -0.009144917130470276,
              -0.009080288517806265,
              -0.009015659905142255,
              -0.008951031292478245,
              -0.008886402679814233,
              -0.008821775101953084
            ],
            [
              -0.008757146489289071,
              -0.008692517876625061,
              -0.008627889781362481,
              -0.008563261168698471,
              -0.00849863307343589,
              -0.00843400446077188,
              -0.008369375848107869,
              -0.008304747752845287
            ],
            [
              -0.008240119140181277,
              -0.008175491044918697,
              -0.008110862432254685,
              -0.008046234336992105,
              -0.007981605724328095,
              -0.007916977629065514,
              -0.007852349016401503,
              -0.007787720403737493
            ],
            [
              -0.007723092308474912,
              -0.007658463695810901,
              -0.0075938356005483204,
              -0.00752920698788431,
              -0.0074645788926217295,
              -0.007399950279957718,
              -0.007335321667293708,
              -0.007270693572031127
            ],
            [
              -0.007206064959367117,
              -0.007141436864104536,
              -0.007076808251440525,
              -0.0070121801561779445,
              -0.006947551543513934,
              -0.0068829234482513536,
              -0.006818294835587343,
              -0.006753666222923332
            ],
            [
              -0.006689038127660751,
              -0.006624409514996741,
              -0.00655978141973416,
              -0.00649515280707015,
              -0.0064305247118075694,
              -0.006365896099143558,
              -0.006301267486479548,
              -0.006236639391216967
            ]
          ],
          [
            [
              -0.006172010778552956,
              -0.006107382683290376,
              -0.006042754070626365,
              -0.0059781259753637845,
              -0.005913497362699774,
              -0.005848868750035763,
              -0.005784240654773182,
              -0.005719612042109172
            ],
            [
              -0.005654983946846591,
              -0.005590355334182581,
              -0.00552572723892,
              -0.005461098626255989,
              -0.0053964705309934085,
              -0.005331841918329398,
              -0.005267213305665387,
              -0.005202585210402807
            ],
            [
              -0.005137956597738796,
              -0.005073328502476215,
              -0.005008699889812205,
              -0.004944071794549624,
              -0.004879443181885613,
              -0.004814814569221603,
              -0.004750186473959022,
              -0.004685557861295012
            ],
            [
              -0.004620929766032431,
              -0.00455630115336842,
              -0.004491673058105839,
              -0.004427044445441829,
              -0.0043624163501792485,
              -0.004297787737515238,
              -0.004233159383551942,
              -0.004168531029588646
            ],
            [
              -0.004103902675625351,
              -0.00403927406296134,
              -0.003974645708998045,
              -0.003910017355034749,
              -0.003845389001071453,
              -0.0037807606471081576,
              -0.003716132293144862,
              -0.0036515039391815662
            ],
            [
              -0.0035868755852182708,
              -0.00352224697255426,
              -0.0034576186185909645,
              -0.0033929902646276685,
              -0.003328361910664373,
              -0.0032637335567010776,
              -0.0031991052027377817,
              -0.003134476848774486
            ],
            [
              -0.0030698484948111907,
              -0.00300521988214718,
              -0.0029405915281838844,
              -0.0028759631742205885,
              -0.002811334820257293,
              -0.0027467064662939976,
              -0.0026820781123307017,
              -0.002617449758367406
            ],
            [
              -0.0025528214044041103,
              -0.0024881927917401,
              -0.002423564437776804,
              -0.0023589360838135085,
              -0.002294307729850213,
              -0.002229679375886917,
              -0.002165050892573264,
              -0.0021004225386099685
            ]
          ],
          [
            [
              -0.0020357941846466726,
              -0.001971165830683377,
              -0.001906537347369724,
              -0.0018419089934064283,
              -0.0017772806394431328,
              -0.001712652285479837,
              -0.001648023802166184,
              -0.0015833954482028882
            ],
            [
              -0.0015187670942395926,
              -0.001454138740276297,
              -0.0013895102569626437,
              -0.0013248819029993482,
              -0.0012602535490360525,
              -0.0011956251950727568,
              -0.0011309967117591037,
              -0.001066368357795808
            ],
            [
              -0.0010017400038325125,
              -0.0009371115851940381,
              -0.0008724832312307424,
              -0.000807854812592268,
              -0.0007432264586289724,
              -0.000678598039990498,
              -0.0006139696860272024,
              -0.000549341267388728
            ],
            [
              -0.00048471291342543234,
              -0.00042008452712454734,
              -0.0003554561408236623,
              -0.0002908277545227773,
              -0.00022619935205309756,
              -0.00016157096575221253,
              -9.694257945132753e-05,
              -3.231419315044251e-05
            ],
            [
              3.231419315044251e-05,
              9.694257945132753e-05,
              0.00016157096575221253,
              0.00022619935205309756,
              0.0002908277545227773,
              0.0003554561408236623,
              0.00042008452712454734,
              0.00048471291342543234
            ],
            [
              0.000549341267388728,
              0.0006139696860272024,
              0.000678598039990498,
              0.0007432264586289724,
              0.000807854812592268,
              0.0008724832312307424,
              0.0009371115851940381,
              0.0010017400038325125
            ],
            [
              0.001066368357795808,
              0.0011309967117591037,
              0.0011956251950727568,
              0.0012602535490360525,
              0.0013248819029993482,
              0.0013895102569626437,
              0.001454138740276297,
              0.0015187670942395926
            ],
            [
              0.0015833954482028882,
              0.001648023802166184,
              0.001712652285479837,
              0.0017772806394431328,
              0.0018419089934064283,
              0.001906537347369724,
              0.001971165830683377,
              0.0020357941846466726
            ]
          ],
          [
            [
              0.0021004225386099685,
              0.002165050892573264,
              0.002229679375886917,
              0.002294307729850213,
              0.0023589360838135085,
              0.002423564437776804,
              0.0024881927917401,
              0.0025528214044041103
            ],
            [
              0.002617449758367406,
              0.0026820781123307017,
              0.0027467064662939976,
              0.002811334820257293,
              0.0028759631742205885,
              0.0029405915281838844,
              0.00300521988214718,
              0.0030698484948111907
            ],
            [
              0.003134476848774486,
              0.0031991052027377817,
              0.0032637335567010776,
              0.003328361910664373,
              0.0033929902646276685,
              0.0034576186185909645,
              0.00352224697255426,
              0.0035868755852182708
            ],
            [
              0.0036515039391815662,
              0.003716132293144862,
              0.0037807606471081576,
              0.003845389001071453,
              0.003910017355034749,
              0.003974645708998045,
              0.00403927406296134,
              0.004103902675625351
            ],
            [
              0.004168531029588646,
              0.004233159383551942,
              0.004297787737515238,
              0.0043624163501792485,
              0.004427044445441829,
              0.004491673058105839,
              0.00455630115336842,
              0.004620929766032431
            ],
            [
              0.004685557861295012,
              0.004750186473959022,
              0.004814814569221603,
              0.004879443181885613,
              0.004944071794549624,
              0.005008699889812205,
              0.005073328502476215,
              0.005137956597738796
            ],
            [
              0.005202585210402807,
              0.005267213305665387,
              0.005331841918329398,
              0.0053964705309934085,
              0.005461098626255989,
              0.00552572723892,
              0.005590355334182581,
              0.005654983946846591
            ],
            [
              0.005719612042109172,
              0.005784240654773182,
              0.005848868750035763,
              0.005913497362699774,
              0.0059781259753637845,
              0.006042754070626365,
              0.006107382683290376,
              0.006172010778552956
            ]
          ],
          [
            [
              0.006236639391216967,
              0.006301267486479548,
              0.006365896099143558,
              0.0064305247118075694,
              0.00649515280707015,
              0.00655978141973416,
              0.006624409514996741,
              0.006689038127660751
            ],
            [
              0.006753666222923332,
              0.006818294835587343,
              0.0068829234482513536,
              0.006947551543513934,
              0.0070121801561779445,
              0.007076808251440525,
              0.007141436864104536,
              0.007206064959367117
            ],
            [
              0.007270693572031127,
              0.007335321667293708,
              0.007399950279957718,
              0.0074645788926217295,
              0.00752920698788431,
              0.0075938356005483204,
              0.007658463695810901,
              0.007723092308474912
            ],
            [
              0.007787720403737493,
              0.007852349016401503,
              0.007916977629065514,
              0.007981605724328095,
              0.008046234336992105,
              0.008110862432254685,
              0.008175491044918697,
              0.008240119140181277
            ],
            [
              0.008304747752845287,
              0.008369375848107869,
              0.00843400446077188,
              0.00849863307343589,
              0.008563261168698471,
              0.008627889781362481,
              0.008692517876625061,
              0.008757146489289071
            ],
            [
              0.008821775101953084,
              0.008886402679814233,
              0.008951031292478245,
              0.009015659905142255,
              0.009080288517806265,
              0.009144917130470276,
              0.009209544708331427,
              0.009274173320995437
            ],
            [
              0.009338801933659447,
              0.00940343054632346,
              0.00946805915898747,
              0.009532686736848619,
              0.009597315349512631,
              0.009661943962176641,
              0.009726572574840652,
              0.009791200152701802
            ],
            [
              0.009855828765365813,
              0.009920457378029823,
              0.009985085990693834,
              0.010049714603357846,
              0.010114342181218995,
              0.010178970793883007,
              0.010243599406547017,
              0.010308228019211028
            ]
          ],
          [
            [
              0.010372855597072178,
              0.010437484209736189,
              0.0105021128224002,
              0.01056674143506421,
              0.010631370047728222,
              0.01069599762558937,
              0.010760626238253381,
              0.010825254850917393
            ],
            [
              0.010889883463581404,
              0.010954511041442554,
              0.011019139654106565,
              0.011083768266770575,
              0.011148396879434586,
              0.011213025492098598,
              0.011277653069959747,
              0.011342281682623757
            ],
            [
              0.01140691029528777,
              0.01147153890795178,
              0.01153616752061579,
              0.01160079509847694,
              0.011665423711140951,
              0.011730052323804962,
              0.011794680936468972,
              0.011859308514330123
            ],
            [
              0.011923937126994133,
              0.011988565739658145,
              0.012053194352322156,
              0.012117822964986166,
              0.012182450542847317,
              0.012247079155511327,
              0.012311707768175337,
              0.012376336380839348
            ],
            [
              0.012440963958700499,
              0.012505592571364509,
              0.01257022118402852,
              0.012634849796692531,
              0.012699478409356542,
              0.012764105987217693,
              0.012828734599881703,
              0.012893363212545713
            ],
            [
              0.012957991825209724,
              0.013022620437873734,
              0.013087248015734885,
              0.013151876628398895,
              0.013216505241062907,
              0.013281133853726918,
              0.013345761431588067,
              0.013410390044252079
            ],
            [
              0.01347501865691609,
              0.0135396472695801,
              0.01360427588224411,
              0.01366890346010526,
              0.013733532072769271,
              0.013798160685433282,
              0.013862789298097294,
              0.013927416875958443
            ],
            [
              0.013992045488622455,
              0.014056674101286465,
              0.014121302713950476,
              0.014185931326614486,
              0.014250558904475637,
              0.014315187517139647,
              0.014379816129803658,
              0.01444444474246767
            ]
          ]
        ],
        [
          -0.0041666665735344095,
          -0.0029761905574964154,
          -0.0017857142827577062,
          -0.0005952380726941758,
          0.0005952380726941758,
          0.0017857142827577062,
          0.0029761905574964154,
          0.0041666665735344095
        ]
      ]
    },
    {
      "activation": "tanh",
      "activation_fold": {
        "scale": 0.5555555555555556,
        "source": "tanh(x / 1.8)"
      },
      "dilation": [
        8
      ],
      "groups": 1,
      "input_size": 8,
      "kernel_size": [
        7
      ],
      "output_size": 8,
      "shape": [
        null,
        null,
        8
      ],
      "type": "conv1d",
      "weights": [
        [
          [
            [
              -0.016666666294137638,
              -0.016592095295588177,
              -0.016517524297038715,
              -0.016442953298489254,
              -0.016368382299939793,
              -0.01629381026658747,
              -0.01621923926803801,
              -0.016144668269488547
            ],
            [
              -0.016070097270939086,
              -0.015995525237586763,
              -0.0159209542390373,
              -0.01584638324048784,
              -0.01577181224193838,
              -0.015697241243388917,
              -0.015622669210036596,
              -0.015548098211487135
            ],
            [
              -0.015473527212937674,
              -0.015398956214388212,
              -0.01532438521583875,
              -0.01524981318248643,
              -0.015175242183936967,
              -0.015100671185387505,
              -0.015026100186838044,
              -0.014951529188288583
            ],
            [
              -0.014876957154936261,
              -0.0148023861563868,
              -0.014727815157837339,
              -0.014653244159287877,
              -0.014578672125935555,
              -0.014504101127386093,
              -0.014429530128836632,
              -0.01435495913028717
            ],
            [
              -0.014280388131737709,
              -0.014205816098385388,
              -0.014131245099835927,
              -0.014056674101286465,
              -0.013982103102737004,
              -0.013907532104187543,
              -0.01383296007083522,
              -0.013758389072285758
            ],
            [
              -0.013683818073736297,
              -0.013609247075186836,
              -0.013534676076637374,
              -0.013460104043285053,
              -0.013385533044735592,
              -0.01331096204618613,
              -0.013236391047636669,
              -0.013161820049087208
            ],
            [
              -0.013087248015734885,
              -0.013012677017185423,
              -0.012938106018635962,
              -0.0128635350200865,
              -0.01278896298673418,
              -0.012714391988184718,
              -0.012639820989635257,
              -0.012565249991085796
            ],
            [
              -0.012490678992536334,
              -0.012416106959184011,
              -0.01234153596063455,
              -0.012266964962085089,
              -0.012192393963535627,
              -0.012117822964986166,
              -0.012043250931633843,
              -0.011968679933084382
            ]
          ],
          [
            [
              -0.01189410893453492,
              -0.011819537935985459,
              -0.011744966937435998,
              -0.011670394904083677,
              -0.011595823905534215,
              -0.011521252906984754,
              -0.011446681908435292,
              -0.01137210987508297
            ],
            [
              -0.011297538876533508,
              -0.011222967877984047,
              -0.011148396879434586,
              -0.011073825880885124,
              -0.010999253847532803,
              -0.010924682848983342,
              -0.01085011185043388,
              -0.010775540851884419
            ],
            [
              -0.010700969853334958,
              -0.010626397819982635,
              -0.010551826821433173,
              -0.010477255822883712,
              -0.01040268482433425,
              -0.01032811382578479,
              -0.010253541792432468,
              -0.010178970793883007
            ],
            [
              -0.010104399795333546,
              -0.010029828796784084,
              -0.009955256763431761,
              -0.0098806857648823,
              -0.009806114766332839,
              -0.009731543767783377,
              -0.009656972769233916,
              -0.009582400735881593
            ],
            [
              -0.009507829737332132,
              -0.00943325873878267,
              -0.009358687740233209,
              -0.009284116741683748,
              -0.009209544708331427,
              -0.009134973709781965,
              -0.009060402711232504,
              -0.008985831712683042
            ],
            [
              -0.008911260714133581,
              -0.008836688680781258,
              -0.008762117682231797,
              -0.008687546683682336,
              -0.008612975167731445,
              -0.008538404169181984,
              -0.008463833170632522,
              -0.00838926165468163
            ],
            [
              -0.008314690656132169,
              -0.008240119140181277,
              -0.008165548141631816,
              -0.008090976625680923,
              -0.008016405627131462,
              -0.007941834628582,
              -0.007867263112631109,
              -0.007792692114081648
            ],
            [
              -0.007718120598130756,
              -0.007643549599581295,
              -0.007568978601031833,
              -0.007494407085080942,
              -0.007419836086531481,
              -0.007345264570580589,
              -0.007270693572031127,
              -0.007196122056080236
            ]
          ],
          [
            [
              -0.007121551057530775,
              -0.007046980058981313,
              -0.006972408543030421,
              -0.00689783754448096,
              -0.006823266028530068,
              -0.006748695029980606,
              -0.006674124031431145,
              -0.006599552515480254
            ],
            [
              -0.0065249815169307925,
              -0.0064504100009799,
              -0.006375839002430439,
              -0.006301267486479548,
              -0.006226696487930086,
              -0.006152125489380625,
              -0.006077553973429733,
              -0.006002982974880272
            ],
            [
              -0.00592841145892938,
              -0.005853840460379919,
              -0.005779268944429027,
              -0.0057046979458795655,
              -0.005630126947330104,
              -0.005555555431379213,
              -0.005480984432829752,
              -0.0054064129168788595
            ],
            [
              -0.005331841918329398,
              -0.005257270919779937,
              -0.005182699403829045,
              -0.005108128405279583,
              -0.005033556889328692,
              -0.004958985890779231,
              -0.004884414374828339,
              -0.004809843376278877
            ],
            [
              -0.004735272377729416,
              -0.004660700861778525,
              -0.004586129863229063,
              -0.004511558347278171,
              -0.00443698734872871,
              -0.0043624163501792485,
              -0.004287844834228357,
              -0.0042132735769781805
            ],
            [
              -0.004138702578428719,
              -0.0040641313211785424,
              -0.003989560063928366,
              -0.003914988806678189,
              -0.0038404175494280127,
              -0.0037658462921778364,
              -0.003691275293628375,
              -0.0036167040363781983
            ],
            [
              -0.003542132779128022,
              -0.0034675615218778453,
              -0.0033929902646276685,
              -0.0033184190073774922,
              -0.0032438477501273155,
              -0.003169276751577854,
              -0.003094705494327678,
              -0.003020134237077501
            ],
            [
              -0.002945562979827325,
              -0.002870991722577148,
              -0.002796420465326972,
              -0.0027218494667775105,
              -0.0026472782095273337,
              -0.002572706952277157,
              -0.0024981356950269807,
              -0.002423564437776804
            ]
          ],
          [
            [
              -0.0023489931805266277,
              -0.0022744221819771663,
              -0.0021998509247269896,
              -0.0021252796674768133,
              -0.0020507084102266366,
              -0.00197613715297646,
              -0.001901566025076641,
              -0.0018269947678264645
            ],
            [
              -0.001752423510576288,
              -0.001677852382676469,
              -0.0016032811254262924,
              -0.001528709868176116,
              -0.001454138740276297,
              -0.0013795674830261206,
              -0.0013049962257759438,
              -0.001230425097876125
            ],
            [
              -0.0011558538406259485,
              -0.0010812826480509506,
              -0.001006711390800774,
              -0.0009321401982257764,
              -0.0008575690056507786,
              -0.0007829977484006021,
              -0.0007084265558256044,
              -0.0006338553632506066
            ],
            [
              -0.0005592841060004301,
              -0.00048471291342543234,
              -0.0004101416885128452,
              -0.00033557046360025805,
              -0.0002609992548564656,
              -0.00018642804611267315,
              -0.00011185682120008602,
              -3.7285608414094895e-05
            ],
            [
              3.7285608414094895e-05,
              0.00011185682120008602,
              0.00018642804611267315,
              0.0002609992548564656,
              0.00033557046360025805,
              0.0004101416885128452,
              0.00048471291342543234,
              0.0005592841060004301
            ],
            [
              0.0006338553632506066,
              0.0007084265558256044,
              0.0007829977484006021,
              0.0008575690056507786,
              0.0009321401982257764,
              0.001006711390800774,
              0.0010812826480509506,
              0.0011558538406259485
            ],
            [
              0.001230425097876125,
              0.0013049962257759438,
              0.0013795674830261206,
              0.001454138740276297,
              0.001528709868176116,
              0.0016032811254262924,
              0.001677852382676469,
              0.001752423510576288
            ],
            [
              0.0018269947678264645,
              0.001901566025076641,
              0.00197613715297646,
              0.0020507084102266366,
              0.0021252796674768133,
              0.0021998509247269896,
              0.0022744221819771663,
              0.0023489931805266277
            ]
          ],
          [
            [
              0.002423564437776804,
              0.0024981356950269807,
              0.002572706952277157,
              0.0026472782095273337,
              0.0027218494667775105,
              0.002796420465326972,
              0.002870991722577148,
              0.002945562979827325
            ],
            [
              0.003020134237077501,
              0.003094705494327678,
              0.003169276751577854,
              0.0032438477501273155,
              0.0033184190073774922,
              0.0033929902646276685,
              0.0034675615218778453,
              0.003542132779128022
            ],
            [
              0.0036167040363781983,
              0.003691275293628375,
              0.0037658462921778364,
              0.0038404175494280127,
              0.003914988806678189,
              0.003989560063928366,
              0.0040641313211785424,
              0.004138702578428719
            ],
            [
              0.0042132735769781805,
              0.004287844834228357,
              0.0043624163501792485,
              0.00443698734872871,
              0.004511558347278171,
              0.004586129863229063,
              0.004660700861778525,
              0.004735272377729416
            ],
            [
              0.004809843376278877,
              0.004884414374828339,
              0.004958985890779231,
              0.005033556889328692,
              0.005108128405279583,
              0.005182699403829045,
              0.005257270919779937,
              0.005331841918329398
            ],
            [
              0.0054064129168788595,
              0.005480984432829752,
              0.005555555431379213,
              0.005630126947330104,
              0.0057046979458795655,
              0.005779268944429027,
              0.005853840460379919,
              0.00592841145892938
            ],
            [
              0.006002982974880272,
              0.006077553973429733,
              0.006152125489380625,
              0.006226696487930086,
              0.006301267486479548,
              0.006375839002430439,
              0.0064504100009799,
              0.0065249815169307925
            ],
            [
              0.006599552515480254,
              0.006674124031431145,
              0.006748695029980606,
              0.006823266028530068,
              0.00689783754448096,
              0.006972408543030421,
              0.007046980058981313,
              0.007121551057530775
            ]
          ],
          [
            [
              0.007196122056080236,
              0.007270693572031127,
              0.007345264570580589,
              0.007419836086531481,
              0.007494407085080942,
              0.007568978601031833,
              0.007643549599581295,
              0.007718120598130756
            ],
            [
              0.007792692114081648,
              0.007867263112631109,
              0.007941834628582,
              0.008016405627131462,
              0.008090976625680923,
              0.008165548141631816,
              0.008240119140181277,
              0.008314690656132169
            ],
            [
              0.00838926165468163,
              0.008463833170632522,
              0.008538404169181984,
              0.008612975167731445,
              0.008687546683682336,
              0.008762117682231797,
              0.008836688680781258,
              0.008911260714133581
            ],
            [
              0.008985831712683042,
              0.009060402711232504,
              0.009134973709781965,
              0.009209544708331427,
              0.009284116741683748,
              0.009358687740233209,
              0.00943325873878267,
              0.009507829737332132
            ],
            [
              0.009582400735881593,
              0.009656972769233916,
              0.009731543767783377,
              0.009806114766332839,
              0.0098806857648823,
              0.009955256763431761,
              0.010029828796784084,
              0.010104399795333546
            ],
            [
              0.010178970793883007,
              0.010253541792432468,
              0.01032811382578479,
              0.01040268482433425,
              0.010477255822883712,
              0.010551826821433173,
              0.010626397819982635,
              0.010700969853334958
            ],
            [
              0.010775540851884419,
              0.01085011185043388,
              0.010924682848983342,
              0.010999253847532803,
              0.011073825880885124,
              0.011148396879434586,
              0.011222967877984047,
              0.011297538876533508
            ],
            [
              0.01137210987508297,
              0.011446681908435292,
              0.011521252906984754,
              0.011595823905534215,
              0.011670394904083677,
              0.011744966937435998,
              0.011819537935985459,
              0.01189410893453492
            ]
          ],
          [
            [
              0.011968679933084382,
              0.012043250931633843,
              0.012117822964986166,
              0.012192393963535627,
              0.012266964962085089,
              0.01234153596063455,
              0.012416106959184011,
              0.012490678992536334
            ],
            [
              0.012565249991085796,
              0.012639820989635257,
              0.012714391988184718,
              0.01278896298673418,
              0.0128635350200865,
              0.012938106018635962,
              0.013012677017185423,
              0.013087248015734885
            ],
            [
              0.013161820049087208,
              0.013236391047636669,
              0.01331096204618613,
              0.013385533044735592,
              0.013460104043285053,
              0.013534676076637374,
              0.013609247075186836,
              0.013683818073736297
            ],
            [
              0.013758389072285758,
              0.01383296007083522,
              0.013907532104187543,
              0.013982103102737004,
              0.014056674101286465,
              0.014131245099835927,
              0.014205816098385388,
              0.014280388131737709
            ],
            [
              0.01435495913028717,
              0.014429530128836632,
              0.014504101127386093,
              0.014578672125935555,
              0.014653244159287877,
              0.014727815157837339,
              0.0148023861563868,
              0.014876957154936261
            ],
            [
              0.014951529188288583,
              0.015026100186838044,
              0.015100671185387505,
              0.015175242183936967,
              0.01524981318248643,
              0.01532438521583875,
              0.015398956214388212,
              0.015473527212937674
            ],
            [
              0.015548098211487135,
              0.015622669210036596,
              0.015697241243388917,
              0.01577181224193838,
              0.01584638324048784,
              0.0159209542390373,
              0.015995525237586763,
              0.016070097270939086
            ],
            [
              0.016144668269488547,
              0.01621923926803801,
              0.01629381026658747,
              0.016368382299939793,
              0.016442953298489254,
              0.016517524297038715,
              0.016592095295588177,
              0.016666666294137638
            ]
          ]
        ],
        [
          -0.004722222478853332,
          -0.0033730159824093184,
          -0.002023809485965305,
          -0.0006746031835468279,
          0.0006746031835468279,
          0.002023809485965305,
          0.0033730159824093184,
          0.004722222478853332
        ]
      ]
    },
    {
      "activation": "tanh",
      "activation_fold": {
        "scale": 0.5555555555555556,
        "source": "tanh(x / 1.8)"
      },
      "dilation": [
        16
      ],
      "groups": 1,
      "input_size": 8,
      "kernel_size": [
        7
      ],
      "output_size": 8,
      "shape": [
        null,
        null,
        8
      ],
      "type": "conv1d",
      "weights": [
        [
          [
            [
              -0.018888889915413327,
              -0.018804375496175554,
              -0.018719861076937783,
              -0.01863534665770001,
              -0.018550832238462236,
              -0.018466317819224465,
              -0.018381805469592415,
              -0.01829729105035464
            ],
            [
              -0.018212776631116867,
              -0.018128262211879097,
              -0.018043747792641323,
              -0.01795923337340355,
              -0.0178747210237715,
              -0.017790206604533725,
              -0.017705692185295954,
              -0.01762117776605818
            ],
            [
              -0.017536663346820407,
              -0.017452150997188356,
              -0.017367636577950585,
              -0.01728312215871281,
              -0.017198607739475038,
              -0.017114094355040126,
              -0.017029579935802355,
              -0.01694506551656458
            ],
            [
              -0.01686055213212967,
              -0.0167760377128919,
              -0.016691523293654125,
              -0.016607009909219213,
              -0.01652249548998144,
              -0.016437982105546527,
              -0.016353467686308756,
              -0.016268953267070983
            ],
            [
              -0.01618443988263607,
              -0.0160999254633983,
              -0.016015411044160526,
              -0.015930897659725614,
              -0.01584638324048784,
              -0.01576186882125007,
              -0.015677355436815157,
              -0.015592841017577384
            ],
            [
              -0.015508327633142471,
              -0.0154238132139047,
              -0.015339298794666927,
              -0.015254785410232015,
              -0.015170270990994243,
              -0.015085756571756469,
              -0.015001243187321557,
              -0.014916728768083785
            ],
            [
              -0.014832214348846013,
              -0.0147477009644111,
              -0.014663186545173328,
              -0.014578672125935555,
              -0.014494158741500644,
              -0.01440964432226287,
              -0.014325130937827958,
              -0.014240616518590186
            ],
            [
              -0.014156102099352414,
              -0.014071588714917501,
              -0.01398707429567973,
              -0.013902559876441956,
              -0.013818046492007045,
              -0.013733532072769271,
              -0.0136490176535315,
              -0.013564504269096587
            ]
          ],
          [
            [
              -0.013479989849858815,
              -0.013395476465423902,
              -0.01331096204618613,
              -0.013226447626948357,
              -0.013141934242513446,
              -0.013057419823275672,
              -0.0129729054040379,
              -0.012888392019602988
            ],
            [
              -0.012803877600365216,
              -0.012719363181127442,
              -0.012634849796692531,
              -0.012550335377454758,
              -0.012465821993019847,
              -0.012381307573782073,
              -0.012296793154544301,
              -0.012212279770109389
            ],
            [
              -0.012127765350871617,
              -0.012043250931633843,
              -0.011958737547198933,
              -0.011874223127961159,
              -0.011789708708723387,
              -0.011705195324288474,
              -0.011620680905050702,
              -0.01153616752061579
            ],
            [
              -0.011451653101378018,
              -0.011367138682140244,
              -0.011282625297705334,
              -0.01119811087846756,
              -0.011113596459229788,
              -0.011029083074794875,
              -0.010944568655557103,
              -0.010860054236319331
            ],
            [
              -0.010775540851884419,
              -0.010691026432646645,
              -0.010606513048211735,
              -0.010521998628973961,
              -0.010437484209736189,
              -0.010352970825301277,
              -0.010268456406063504,
              -0.01018394198682573
            ],
            [
              -0.01009942860239082,
              -0.010014914183153046,
              -0.009930399763915274,
              -0.009845886379480362,
              -0.00976137196024259,
              -0.009676858575807678,
              -0.009592344156569906,
              -0.009507829737332132
            ],
            [
              -0.009423316352897221,
              -0.009338801933659447,
              -0.009254287514421675,
              -0.009169774129986763,
              -0.009085259710748991,
              -0.009000745291511219,
              -0.008916231907076307,
              -0.008831717487838533
            ],
            [
              -0.00874720306860076,
              -0.008662689684165848,
              -0.008578175264928076,
              -0.008493661363091733,
              -0.008409147461255392,
              -0.008324633559419049,
              -0.008240119140181277,
              -0.008155605238344934
            ]
          ],
          [
            [
              -0.008071091336508593,
              -0.00798657743467225,
              -0.007902063015434477,
              -0.007817549113598134,
              -0.007733035211761793,
              -0.00764852079252402,
              -0.007564006890687678,
              -0.007479492988851336
            ],
            [
              -0.007394979087014994,
              -0.007310464667777221,
              -0.0072259507659408785,
              -0.007141436864104536,
              -0.007056922444866763,
              -0.006972408543030421,
              -0.006887894641194079,
              -0.006803380739357737
            ],
            [
              -0.006718866320119964,
              -0.006634352418283622,
              -0.00654983851644728,
              -0.006465324614610937,
              -0.0063808101953731645,
              -0.006296296293536822,
              -0.00621178239170048,
              -0.006127267972462707
            ],
            [
              -0.006042754070626365,
              -0.005958240168790023,
              -0.005873726266953681,
              -0.005789211847715908,
              -0.0057046979458795655,
              -0.005620184044043223,
              -0.005535670142206881,
              -0.005451155722969108
            ],
            [
              -0.005366641821132766,
              -0.005282127919296424,
              -0.005197613500058651,
              -0.005113099598222309,
              -0.005028585696385967,
              -0.004944071794549624,
              -0.0048595573753118515,
              -0.004775043473475509
            ],
            [
              -0.004690529571639167,
              -0.004606015669802825,
              -0.004521501250565052,
              -0.00443698734872871,
              -0.004352473446892368,
              -0.00426795928635531,
              -0.0041834451258182526,
              -0.00409893122398191
            ],
            [
              -0.004014417063444853,
              -0.003929903161608511,
              -0.003845389001071453,
              -0.003760874840534396,
              -0.0036763609386980534,
              -0.0035918467781609962,
              -0.0035073328763246536,
              -0.0034228187157875965
            ],
            [
              -0.003338304813951254,
              -0.0032537906534141968,
              -0.003169276751577854,
              -0.003084762591040797,
              -0.0030002486892044544,
              -0.0029157345286673973,
              -0.0028312203681303398,
              -0.0027467064662939976
            ]
          ],
          [
            [
              -0.00266219230575694,
              -0.0025776784039205974,
              -0.0024931642433835403,
              -0.0024086503415471977,
              -0.0023241361810101406,
              -0.002239622279173798,
              -0.002155108118636741,
              -0.002070594087450041
            ],
            [
              -0.001986080056263341,
              -0.001901566025076641,
              -0.0018170519938899411,
              -0.0017325379627032413,
              -0.001648023802166184,
              -0.001563509770979484,
              -0.0014789957397927842,
              -0.0013944817086060843
            ],
            [
              -0.0013099676774193845,
              -0.0012254536462326846,
              -0.0011409396150459847,
              -0.0010564255838592849,
              -0.0009719114879974062,
              -0.0008873974568107062,
              -0.0008028834256240063,
              -0.0007183693944373064
            ],
            [
              -0.0006338553632506066,
              -0.000549341267388728,
              -0.00046482723620202806,
              -0.0003803132050153282,
              -0.00029579914149103896,
              -0.00021128511030433906,
              -0.0001267710629488445,
              -4.225702367774728e-05
            ],
            [
              4.225702367774728e-05,
              0.0001267710629488445,
              0.00021128511030433906,
              0.00029579914149103896,
              0.0003803132050153282,
              0.00046482723620202806,
              0.000549341267388728,
              0.0006338553632506066
            ],
            [
              0.0007183693944373064,
              0.0008028834256240063,
              0.0008873974568107062,
              0.0009719114879974062,
              0.0010564255838592849,
              0.0011409396150459847,
              0.0012254536462326846,
              0.0013099676774193845
            ],
            [
              0.0013944817086060843,
              0.0014789957397927842,
              0.001563509770979484,
              0.001648023802166184,
              0.0017325379627032413,
              0.0018170519938899411,
              0.001901566025076641,
              0.001986080056263341
            ],
            [
              0.002070594087450041,
              0.002155108118636741,
              0.002239622279173798,
              0.0023241361810101406,
              0.0024086503415471977,
              0.0024931642433835403,
              0.0025776784039205974,
              0.00266219230575694
            ]
          ],
          [
            [
              0.0027467064662939976,
              0.0028312203681303398,
              0.0029157345286673973,
              0.0030002486892044544,
              0.003084762591040797,
              0.003169276751577854,
              0.0032537906534141968,
              0.003338304813951254
            ],
            [
              0.0034228187157875965,
              0.0035073328763246536,
              0.0035918467781609962,
              0.0036763609386980534,
              0.003760874840534396,
              0.003845389001071453,
              0.003929903161608511,
              0.004014417063444853
            ],
            [
              0.00409893122398191,
              0.0041834451258182526,
              0.00426795928635531,
              0.004352473446892368,
              0.00443698734872871,
              0.004521501250565052,
              0.004606015669802825,
              0.004690529571639167
            ],
            [
              0.004775043473475509,
              0.0048595573753118515,
              0.004944071794549624,
              0.005028585696385967,
              0.005113099598222309,
              0.005197613500058651,
              0.005282127919296424,
              0.005366641821132766
            ],
            [
              0.005451155722969108,
              0.005535670142206881,
              0.005620184044043223,
              0.0057046979458795655,
              0.005789211847715908,
              0.005873726266953681,
              0.005958240168790023,
              0.006042754070626365
            ],
            [
              0.006127267972462707,
              0.00621178239170048,
              0.006296296293536822,
              0.0063808101953731645,
              0.006465324614610937,
              0.00654983851644728,
              0.006634352418283622,
              0.006718866320119964
            ],
            [
              0.006803380739357737,
              0.006887894641194079,
              0.006972408543030421,
              0.007056922444866763,
              0.007141436864104536,
              0.0072259507659408785,
              0.007310464667777221,
              0.007394979087014994
            ],
            [
              0.007479492988851336,
              0.007564006890687678,
              0.00764852079252402,
              0.007733035211761793,
              0.007817549113598134,
              0.007902063015434477,
              0.00798657743467225,
              0.008071091336508593
            ]
          ],
          [
            [
              0.008155605238344934,
              0.008240119140181277,
              0.008324633559419049,
              0.008409147461255392,
              0.008493661363091733,
              0.008578175264928076,
              0.008662689684165848,
              0.00874720306860076
            ],
            [
              0.008831717487838533,
              0.008916231907076307,
              0.009000745291511219,
              0.009085259710748991,
              0.009169774129986763,
              0.009254287514421675,
              0.009338801933659447,
              0.009423316352897221
            ],
            [
              0.009507829737332132,
              0.009592344156569906,
              0.009676858575807678,
              0.00976137196024259,
              0.009845886379480362,
              0.009930399763915274,
              0.010014914183153046,
              0.01009942860239082
            ],
            [
              0.01018394198682573,
              0.010268456406063504,
              0.010352970825301277,
              0.010437484209736189,
              0.010521998628973961,
              0.010606513048211735,
              0.010691026432646645,
              0.010775540851884419
            ],
            [
              0.010860054236319331,
              0.010944568655557103,
              0.011029083074794875,
              0.011113596459229788,
              0.01119811087846756,
              0.011282625297705334,
              0.011367138682140244,
              0.011451653101378018
            ],
            [
              0.01153616752061579,
              0.011620680905050702,
              0.011705195324288474,
              0.011789708708723387,
              0.011874223127961159,
              0.011958737547198933,
              0.012043250931633843,
              0.012127765350871617
            ],
            [
              0.012212279770109389,
              0.012296793154544301,
              0.012381307573782073,
              0.012465821993019847,
              0.012550335377454758,
              0.012634849796692531,
              0.012719363181127442,
              0.012803877600365216
            ],
            [
              0.012888392019602988,
              0.0129729054040379,
              0.013057419823275672,
              0.013141934242513446,
              0.013226447626948357,
              0.01331096204618613,
              0.013395476465423902,
              0.013479989849858815
            ]
          ],
          [
            [
              0.013564504269096587,
              0.0136490176535315,
              0.013733532072769271,
              0.013818046492007045,
              0.013902559876441956,
              0.01398707429567973,
              0.014071588714917501,
              0.014156102099352414
            ],
            [
              0.014240616518590186,
              0.014325130937827958,
              0.01440964432226287,
              0.014494158741500644,
              0.014578672125935555,
              0.014663186545173328,
              0.0147477009644111,
              0.014832214348846013
            ],
            [
              0.014916728768083785,
              0.015001243187321557,
              0.015085756571756469,
              0.015170270990994243,
              0.015254785410232015,
              0.015339298794666927,
              0.0154238132139047,
              0.015508327633142471
            ],
            [
              0.015592841017577384,
              0.015677355436815157,
              0.01576186882125007,
              0.01584638324048784,
              0.015930897659725614,
              0.016015411044160526,
              0.0160999254633983,
              0.01618443988263607
            ],
            [
              0.016268953267070983,
              0.016353467686308756,
              0.016437982105546527,
              0.01652249548998144,
              0.016607009909219213,
              0.016691523293654125,
              0.0167760377128919,
              0.01686055213212967
            ],
            [
              0.01694506551656458,
              0.017029579935802355,
              0.017114094355040126,
              0.017198607739475038,
              0.01728312215871281,
              0.017367636577950585,
              0.017452150997188356,
              0.017536663346820407
            ],
            [
              0.01762117776605818,
              0.017705692185295954,
              0.017790206604533725,
              0.0178747210237715,
              0.01795923337340355,
              0.018043747792641323,
              0.018128262211879097,
              0.018212776631116867
            ],
            [
              0.01829729105035464,
              0.018381805469592415,
              0.018466317819224465,
              0.018550832238462236,
              0.01863534665770001,
              0.018719861076937783,
              0.018804375496175554,
              0.018888889915413327
            ]
          ]
        ],
        [
          -0.0024999998923805025,
          -0.0017857142827577062,
          -0.0010714285437845522,
          -0.000357142869486577,
          0.000357142869486577,
          0.0010714285437845522,
          0.0017857142827577062,
          0.0024999998923805025
        ]
      ]
    },
    {
      "activation": "tanh",
      "activation_fold": {
        "scale": 0.5555555555555556,
        "source": "tanh(x / 1.8)"
      },
      "dilation": [
        32
      ],
      "groups": 1,
      "input_size": 8,
      "kernel_size": [
        7
      ],
      "output_size": 8,
      "shape": [
        null,
        null,
        8
      ],
      "type": "conv1d",
      "weights": [
        [
          [
            [
              -0.00999999956952201,
              -0.009955256763431761,
              -0.009910514992144372,
              -0.009865772186054124,
              -0.009821029379963875,
              -0.009776286573873626,
              -0.009731543767783377,
              -0.009686800961693129
            ],
            [
              -0.00964205815560288,
              -0.009597315349512631,
              -0.009552572543422382,
              -0.009507829737332132,
              -0.009463086931241883,
              -0.009418344125151634,
              -0.009373601319061385,
              -0.009328859547773998
            ],
            [
              -0.009284116741683748,
              -0.009239373935593499,
              -0.00919463112950325,
              -0.009149888323413001,
              -0.009105145517322753,
              -0.009060402711232504,
              -0.009015659905142255,
              -0.008970917099052006
            ],
            [
              -0.008926174292961758,
              -0.008881431486871507,
              -0.008836688680781258,
              -0.00879194587469101,
              -0.00874720306860076,
              -0.008702461297313373,
              -0.008657717973821694,
              -0.008612975167731445
            ],
            [
              -0.008568232879042625,
              -0.008523490072952377,
              -0.008478747266862128,
              -0.00843400446077188,
              -0.00838926165468163,
              -0.008344518848591382,
              -0.008299776042501133,
              -0.008255033753812313
            ],
            [
              -0.008210290947722064,
              -0.008165548141631816,
              -0.008120805335541567,
              -0.008076062529451318,
              -0.00803131972336107,
              -0.00798657743467225,
              -0.007941834628582,
              -0.007897091822491752
            ],
            [
              -0.007852349016401503,
              -0.0078076062103112544,
              -0.007762863404221006,
              -0.007718120598130756,
              -0.007673378309441938,
              -0.007628635503351688,
              -0.00758389269726144,
              -0.007539149891171191
            ],
            [
              -0.007494407085080942,
              -0.0074496642789906925,
              -0.007404921472900444,
              -0.007360179184211626,
              -0.007315436378121376,
              -0.007270693572031127,
              -0.0072259507659408785,
              -0.00718120795985063
            ]
          ],
          [
            [
              -0.00713646515376038,
              -0.007091722347670131,
              -0.007046980058981313,
              -0.007002237252891064,
              -0.006957494446800815,
              -0.006912751640710566,
              -0.006868008834620317,
              -0.006823266028530068
            ],
            [
              -0.00677852373984125,
              -0.006733780933751001,
              -0.006689038127660751,
              -0.006644295321570503,
              -0.006599552515480254,
              -0.006554809709390005,
              -0.006510066903299755,
              -0.006465324614610937
            ],
            [
              -0.006420581808520689,
              -0.006375839002430439,
              -0.00633109619634019,
              -0.0062863533902499415,
              -0.006241610584159693,
              -0.006196867778069443,
              -0.006152125489380625,
              -0.006107382683290376
            ],
            [
              -0.006062639877200127,
              -0.006017897071109878,
              -0.005973154265019629,
              -0.00592841145892938,
              -0.005883668652839131,
              -0.005838926364150313,
              -0.005794183558060064,
              -0.005749440751969814
            ],
            [
              -0.0057046979458795655,
              -0.005659955139789317,
              -0.005615212333699068,
              -0.005570470045010249,
              -0.00552572723892,
              -0.005480984432829752,
              -0.005436241626739502,
              -0.005391498820649253
            ],
            [
              -0.005346756014559004,
              -0.005302013208468756,
              -0.005257270919779937,
              -0.005212528113689688,
              -0.005167785307599438,
              -0.00512304250150919,
              -0.005078299695418941,
              -0.005033556889328692
            ],
            [
              -0.004988814083238443,
              -0.004944071794549624,
              -0.004899328988459376,
              -0.004854586182369126,
              -0.004809843376278877,
              -0.0047651005701886285,
              -0.00472035776409838,
              -0.004675614958008131
            ],
            [
              -0.004630872669319312,
              -0.004586129863229063,
              -0.004541387057138814,
              -0.004496644251048565,
              -0.004451901444958316,
              -0.004407158638868067,
              -0.0043624163501792485,
              -0.004317673285388284
            ]
          ],
          [
            [
              -0.004272930737998751,
              -0.004228187931908501,
              -0.0041834451258182526,
              -0.004138702578428719,
              -0.00409395977233847,
              -0.004049216966248221,
              -0.004004474160157972,
              -0.003959731612768439
            ],
            [
              -0.003914988806678189,
              -0.00387024600058794,
              -0.003825503453198407,
              -0.0037807606471081576,
              -0.003736017841017909,
              -0.003691275293628375,
              -0.003646532487538126,
              -0.003601789681447877
            ],
            [
              -0.003557046875357628,
              -0.003512304327968094,
              -0.0034675615218778453,
              -0.0034228187157875965,
              -0.0033780761683980627,
              -0.0033333333623078135,
              -0.0032885905562175647,
              -0.0032438477501273155
            ],
            [
              -0.0031991052027377817,
              -0.003154362396647533,
              -0.003109619590557284,
              -0.0030648770431677503,
              -0.003020134237077501,
              -0.0029753914309872524,
              -0.0029306488835977185,
              -0.0028859060775074693
            ],
            [
              -0.0028411632714172206,
              -0.002796420465326972,
              -0.002751677917937438,
              -0.002706935111847189,
              -0.00266219230575694,
              -0.002617449758367406,
              -0.002572706952277157,
              -0.0025279641461869082
            ],
            [
              -0.0024832215987973744,
              -0.0024384787927071256,
              -0.0023937359866168764,
              -0.0023489931805266277,
              -0.002304250633137094,
              -0.0022595078270468446,
              -0.002214765020956596,
              -0.0021700223442167044
            ],
            [
              -0.0021252796674768133,
              -0.002080536861386564,
              -0.0020357941846466726,
              -0.0019910515079067815,
              -0.0019463087018165325,
              -0.001901566025076641,
              -0.001856823218986392,
              -0.0018120805422465007
            ],
            [
              -0.0017673378655066094,
              -0.0017225950594163604,
              -0.001677852382676469,
              -0.0016331095765862202,
              -0.0015883668998463287,
              -0.0015436242231064374,
              -0.0014988814170161884,
              -0.001454138740276297
            ]
          ],
          [
            [
              -0.001409395934186048,
              -0.0013646532574461566,
              -0.0013199104513559076,
              -0.0012751677746160163,
              -0.001230425097876125,
              -0.001185682291785876,
              -0.0011409396150459847,
              -0.0010961968089557358
            ],
            [
              -0.0010514541322158442,
              -0.001006711390800774,
              -0.000961968649385704,
              -0.0009172259726458126,
              -0.0008724832312307424,
              -0.0008277404898156723,
              -0.0007829977484006021,
              -0.000738255006985532
            ],
            [
              -0.0006935123302456406,
              -0.0006487695888305705,
              -0.0006040268474155002,
              -0.0005592841060004301,
              -0.0005145413969229493,
              -0.00046979865550787915,
              -0.00042505591409280896,
              -0.0003803132050153282
            ],
            [
              -0.00033557046360025805,
              -0.0002908277545227773,
              -0.00024608501310770714,
              -0.00020134228786143166,
              -0.0001565995464463615,
              -0.00011185682120008602,
              -6.711409595381055e-05,
              -2.237136464423707e-05
            ],
            [
              2.237136464423707e-05,
              6.711409595381055e-05,
              0.00011185682120008602,
              0.0001565995464463615,
              0.00020134228786143166,
              0.00024608501310770714,
              0.0002908277545227773,
              0.00033557046360025805
            ],
            [
              0.0003803132050153282,
              0.00042505591409280896,
              0.00046979865550787915,
              0.0005145413969229493,
              0.0005592841060004301,
              0.0006040268474155002,
              0.0006487695888305705,
              0.0006935123302456406
            ],
            [
              0.000738255006985532,
              0.0007829977484006021,
              0.0008277404898156723,
              0.0008724832312307424,
              0.0009172259726458126,
              0.000961968649385704,
              0.001006711390800774,
              0.0010514541322158442
            ],
            [
              0.0010961968089557358,
              0.0011409396150459847,
              0.001185682291785876,
              0.001230425097876125,
              0.0012751677746160163,
              0.0013199104513559076,
              0.0013646532574461566,
              0.001409395934186048
            ]
          ],
          [
            [
              0.001454138740276297,
              0.0014988814170161884,
              0.0015436242231064374,
              0.0015883668998463287,
              0.0016331095765862202,
              0.001677852382676469,
              0.0017225950594163604,
              0.0017673378655066094
            ],
            [
              0.0018120805422465007,
              0.001856823218986392,
              0.001901566025076641,
              0.0019463087018165325,
              0.0019910515079067815,
              0.0020357941846466726,
              0.002080536861386564,
              0.0021252796674768133
            ],
            [
              0.0021700223442167044,
              0.002214765020956596,
              0.0022595078270468446,
              0.002304250633137094,
              0.0023489931805266277,
              0.0023937359866168764,
              0.0024384787927071256,
              0.0024832215987973744
            ],
            [
              0.0025279641461869082,
              0.002572706952277157,
              0.002617449758367406,
              0.00266219230575694,
              0.002706935111847189,
              0.002751677917937438,
              0.002796420465326972,
              0.0028411632714172206
            ],
            [
              0.0028859060775074693,
              0.0029306488835977185,
              0.0029753914309872524,
              0.003020134237077501,
              0.0030648770431677503,
              0.003109619590557284,
              0.003154362396647533,
              0.0031991052027377817
            ],
            [
              0.0032438477501273155,
              0.0032885905562175647,
              0.0033333333623078135,
              0.0033780761683980627,
              0.0034228187157875965,
              0.0034675615218778453,
              0.003512304327968094,
              0.003557046875357628
            ],
            [
              0.003601789681447877,
              0.003646532487538126,
              0.003691275293628375,
              0.003736017841017909,
              0.0037807606471081576,
              0.003825503453198407,
              0.00387024600058794,
              0.003914988806678189
            ],
            [
              0.003959731612768439,
              0.004004474160157972,
              0.004049216966248221,
              0.00409395977233847,
              0.004138702578428719,
              0.0041834451258182526,
              0.004228187931908501,
              0.004272930737998751
            ]
          ],
          [
            [
              0.004317673285388284,
              0.0043624163501792485,
              0.004407158638868067,
              0.004451901444958316,
              0.004496644251048565,
              0.004541387057138814,
              0.004586129863229063,
              0.004630872669319312
            ],
            [
              0.004675614958008131,
              0.00472035776409838,
              0.0047651005701886285,
              0.004809843376278877,
              0.004854586182369126,
              0.004899328988459376,
              0.004944071794549624,
              0.004988814083238443
            ],
            [
              0.005033556889328692,
              0.005078299695418941,
              0.00512304250150919,
              0.005167785307599438,
              0.005212528113689688,
              0.005257270919779937,
              0.005302013208468756,
              0.005346756014559004
            ],
            [
              0.005391498820649253,
              0.005436241626739502,
              0.005480984432829752,
              0.00552572723892,
              0.005570470045010249,
              0.005615212333699068,
              0.005659955139789317,
              0.0057046979458795655
            ],
            [
              0.005749440751969814,
              0.005794183558060064,
              0.005838926364150313,
              0.005883668652839131,
              0.00592841145892938,
              0.005973154265019629,
              0.006017897071109878,
              0.006062639877200127
            ],
            [
              0.006107382683290376,
              0.006152125489380625,
              0.006196867778069443,
              0.006241610584159693,
              0.0062863533902499415,
              0.00633109619634019,
              0.006375839002430439,
              0.006420581808520689
            ],
            [
              0.006465324614610937,
              0.006510066903299755,
              0.006554809709390005,
              0.006599552515480254,
              0.006644295321570503,
              0.006689038127660751,
              0.006733780933751001,
              0.00677852373984125
            ],
            [
              0.006823266028530068,
              0.006868008834620317,
              0.006912751640710566,
              0.006957494446800815,
              0.007002237252891064,
              0.007046980058981313,
              0.007091722347670131,
              0.00713646515376038
            ]
          ],
          [
            [
              0.00718120795985063,
              0.0072259507659408785,
              0.007270693572031127,
              0.007315436378121376,
              0.007360179184211626,
              0.007404921472900444,
              0.0074496642789906925,
              0.007494407085080942
            ],
            [
              0.007539149891171191,
              0.00758389269726144,
              0.007628635503351688,
              0.007673378309441938,
              0.007718120598130756,
              0.007762863404221006,
              0.0078076062103112544,
              0.007852349016401503
            ],
            [
              0.007897091822491752,
              0.007941834628582,
              0.00798657743467225,
              0.00803131972336107,
              0.008076062529451318,
              0.008120805335541567,
              0.008165548141631816,
              0.008210290947722064
            ],
            [
              0.008255033753812313,
              0.008299776042501133,
              0.008344518848591382,
              0.00838926165468163,
              0.00843400446077188,
              0.008478747266862128,
              0.008523490072952377,
              0.008568232879042625
            ],
            [
              0.008612975167731445,
              0.008657717973821694,
              0.008702461297313373,
              0.00874720306860076,
              0.00879194587469101,
              0.008836688680781258,
              0.008881431486871507,
              0.008926174292961758
            ],
            [
              0.008970917099052006,
              0.009015659905142255,
              0.009060402711232504,
              0.009105145517322753,
              0.009149888323413001,
              0.00919463112950325,
              0.009239373935593499,
              0.009284116741683748
            ],
            [
              0.009328859547773998,
              0.009373601319061385,
              0.009418344125151634,
              0.009463086931241883,
              0.009507829737332132,
              0.009552572543422382,
              0.009597315349512631,
              0.00964205815560288
            ],
            [
              0.009686800961693129,
              0.009731543767783377,
              0.009776286573873626,
              0.009821029379963875,
              0.009865772186054124,
              0.009910514992144372,
              0.009955256763431761,
              0.00999999956952201
            ]
          ]
        ],
        [
          -0.00305555553899871,
          -0.0021825397076706094,
          -0.001309523746992151,
          -0.00043650794800163974,
          0.00043650794800163974,
          0.001309523746992151,
          0.0021825397076706094,
          0.00305555553899871
        ]
      ]
    },
    {
      "activation": "tanh",
      "activation_fold": {
        "scale": 0.5555555555555556,
        "source": "tanh(x / 1.8)"
      },
      "dilation": [
        64
      ],
      "groups": 1,
      "input_size": 8,
      "kernel_size": [
        7
      ],
      "output_size": 8,
      "shape": [
        null,
        null,
        8
      ],
      "type": "conv1d",
      "weights": [
        [
          [
            [
              -0.01222222215599484,
              -0.01216753696401914,
              -0.01211285073724058,
              -0.012058165545264881,
              -0.012003480353289181,
              -0.01194879412651062,
              -0.01189410893453492,
              -0.011839423742559222
            ],
            [
              -0.011784737515780661,
              -0.011730052323804962,
              -0.011675367131829262,
              -0.011620680905050702,
              -0.011565995713075003,
              -0.011511309486296443,
              -0.011456624294320743,
              -0.011401939102345044
            ],
            [
              -0.011347252875566483,
              -0.011292567683590783,
              -0.011237882491615085,
              -0.011183196264836524,
              -0.011128511072860824,
              -0.011073825880885124,
              -0.011019139654106565,
              -0.010964454462130865
            ],
            [
              -0.010909769270155165,
              -0.010855083043376606,
              -0.010800397851400906,
              -0.010745712659425206,
              -0.010691026432646645,
              -0.010636341240670946,
              -0.010581655013892386,
              -0.010526969821916686
            ],
            [
              -0.010472284629940987,
              -0.010417598403162427,
              -0.010362913211186727,
              -0.010308228019211028,
              -0.010253541792432468,
              -0.010198856600456769,
              -0.010144171408481069,
              -0.010089485181702508
            ],
            [
              -0.010034799989726808,
              -0.00998011479775111,
              -0.009925428570972549,
              -0.009870743378996849,
              -0.00981605715221829,
              -0.00976137196024259,
              -0.00970668676826689,
              -0.00965200054148833
            ],
            [
              -0.009597315349512631,
              -0.009542630157536931,
              -0.00948794393075837,
              -0.00943325873878267,
              -0.009378573546806972,
